{"value_loss": 0.2718491852283478, "_timestamp": 1665273613.377043, "_runtime": 11820.130063056946, "policy_loss": -0.001019599755147027, "dist_entropy": 1.0644687414169312, "actor_grad_norm": 0.05633160471916199, "critic_grad_norm": 0.11136884987354279, "ratio": 0.9999133348464966, "sm3_ratio_mean": 0.6062054988662455, "drop_mean": 0.003399976040220945, "drop_std": 0.028239271507869534, "drop_min": 0.0, "drop_max": 0.6276520073413849, "delay_mean": 0.07815075391992628, "delay_std": 0.10575424375831775, "delay_min": 0.0, "delay_max": 0.7466666814353732, "pc_mean": 231.03955078125, "pc_std": 66.12248992919922, "pc_min": 118.91587829589844, "pc_max": 748.6547241210938, "reward_mean": -0.25585449787241654, "reward_std": 0.1618921913093819, "reward_min": -3.4667493672039775, "reward_max": -0.11891587829589843, "_step": 2520000, "gradients/act.action_outs.2.linear.bias": {"_type": "histogram", "values": [1.0, 0.0, 0.0, 0.0, 0.0, 0.0, 0.0, 0.0, 0.0, 0.0, 0.0, 0.0, 0.0, 0.0, 0.0, 0.0, 0.0, 0.0, 0.0, 0.0, 0.0, 0.0, 0.0, 0.0, 0.0, 0.0, 0.0, 0.0, 0.0, 0.0, 0.0, 0.0, 0.0, 0.0, 0.0, 0.0, 0.0, 0.0, 0.0, 0.0, 0.0, 0.0, 0.0, 0.0, 0.0, 0.0, 0.0, 0.0, 1.0, 0.0, 0.0, 0.0, 0.0, 0.0, 0.0, 0.0, 0.0, 0.0, 0.0, 0.0, 0.0, 0.0, 0.0, 1.0], "bins": [-0.0008338597253896296, -0.000811599544249475, -0.0007893393631093204, -0.0007670792401768267, -0.0007448190590366721, -0.0007225588778965175, -0.0007002986967563629, -0.0006780385738238692, -0.0006557783926837146, -0.00063351821154356, -0.0006112580304034054, -0.0005889979074709117, -0.0005667377263307571, -0.0005444775451906025, -0.0005222173640504479, -0.0004999572411179543, -0.0004776970308739692, -0.0004554368497338146, -0.00043317669769749045, -0.00041091651655733585, -0.0003886563645210117, -0.0003663961833808571, -0.00034413603134453297, -0.00032187585020437837, -0.00029961566906422377, -0.00027735548792406917, -0.000255095335887745, -0.00023283515474759042, -0.00021057500271126628, -0.00018831482157111168, -0.0001660546549828723, -0.00014379448839463294, -0.00012153433635830879, -9.927416977006942e-05, -7.701400318183005e-05, -5.475382931763306e-05, -3.249366272939369e-05, -1.0233496141154319e-05, 1.2026677723042667e-05, 3.428684431128204e-05, 5.654701089952141e-05, 7.880717748776078e-05, 0.00010106734407600015, 0.00012332751066423953, 0.00014558769180439413, 0.00016784784384071827, 0.00019010802498087287, 0.00021236819156911224, 0.0002346283581573516, 0.0002568885392975062, 0.00027914869133383036, 0.00030140887247398496, 0.0003236690245103091, 0.0003459292056504637, 0.00036818935768678784, 0.00039044953882694244, 0.00041270971996709704, 0.00043496990110725164, 0.0004572300531435758, 0.0004794902342837304, 0.0005017503863200545, 0.0005240105674602091, 0.0005462707486003637, 0.0005685308715328574, 0.000590791052673012]}, "gradients/act.action_outs.2.linear.weight": {"_type": "histogram", "values": [1.0, 0.0, 1.0, 0.0, 1.0, 0.0, 0.0, 1.0, 0.0, 0.0, 0.0, 2.0, 1.0, 2.0, 3.0, 6.0, 3.0, 2.0, 1.0, 2.0, 2.0, 1.0, 5.0, 2.0, 5.0, 6.0, 8.0, 8.0, 4.0, 6.0, 8.0, 11.0, 7.0, 8.0, 1.0, 3.0, 5.0, 3.0, 7.0, 1.0, 6.0, 4.0, 13.0, 6.0, 4.0, 4.0, 1.0, 3.0, 4.0, 2.0, 2.0, 5.0, 0.0, 3.0, 1.0, 1.0, 1.0, 0.0, 1.0, 2.0, 0.0, 1.0, 0.0, 1.0], "bins": [-0.0023052089381963015, -0.00223669339902699, -0.0021681776270270348, -0.0020996620878577232, -0.002031146315857768, -0.0019626307766884565, -0.0018941150046885014, -0.0018255994655191898, -0.0017570836935192347, -0.0016885680379346013, -0.001620052382349968, -0.0015515367267653346, -0.0014830210711807013, -0.001414505415596068, -0.0013459897600114346, -0.001277474220842123, -0.0012089585652574897, -0.0011404429096728563, -0.001071927254088223, -0.0010034115985035896, -0.0009348959429189563, -0.0008663802873343229, -0.0007978646899573505, -0.0007293490343727171, -0.0006608333787880838, -0.0005923177232034504, -0.0005238020676188171, -0.0004552864411380142, -0.00038677078555338085, -0.0003182551299687475, -0.0002497395034879446, -0.00018122384790331125, -0.0001127081923186779, -4.4192544010002166e-05, 2.432310429867357e-05, 9.283874533139169e-05, 0.00016135440091602504, 0.0002298700565006584, 0.0002983856829814613, 0.00036690133856609464, 0.000435416994150728, 0.0005039326497353613, 0.0005724483053199947, 0.0006409639026969671, 0.0007094795582816005, 0.0007779952138662338, 0.0008465108694508672, 0.0009150265250355005, 0.0009835421806201339, 0.0010520578362047672, 0.0011205734917894006, 0.001189089147374034, 0.0012576048029586673, 0.0013261204585433006, 0.0013946359977126122, 0.0014631517697125673, 0.0015316673088818789, 0.0016001829644665122, 0.0016686986200511456, 0.001737214275635779, 0.0018057299312204123, 0.0018742455868050456, 0.001942761242389679, 0.0020112767815589905, 0.0020797925535589457]}, "gradients/act.action_outs.1.linear.bias": {"_type": "histogram", "values": [1.0, 0.0, 0.0, 0.0, 0.0, 0.0, 0.0, 0.0, 1.0, 0.0, 0.0, 0.0, 0.0, 0.0, 0.0, 0.0, 0.0, 0.0, 0.0, 0.0, 0.0, 0.0, 0.0, 0.0, 0.0, 0.0, 0.0, 0.0, 0.0, 0.0, 0.0, 0.0, 0.0, 0.0, 0.0, 0.0, 1.0, 0.0, 0.0, 0.0, 0.0, 0.0, 0.0, 0.0, 0.0, 0.0, 0.0, 0.0, 0.0, 0.0, 0.0, 0.0, 0.0, 0.0, 0.0, 0.0, 0.0, 0.0, 0.0, 0.0, 0.0, 0.0, 0.0, 1.0], "bins": [-0.0010968814603984356, -0.0010568664874881506, -0.0010168516309931874, -0.0009768366580829024, -0.0009368216851726174, -0.0008968067704699934, -0.0008567918557673693, -0.0008167768828570843, -0.0007767619681544602, -0.0007367470534518361, -0.0006967320805415511, -0.000656717165838927, -0.000616702251136303, -0.000576687278226018, -0.0005366723635233939, -0.0004966574488207698, -0.0004566424759104848, -0.00041662753210403025, -0.0003766125882975757, -0.00033659767359495163, -0.0002965827297884971, -0.00025656778598204255, -0.00021655285672750324, -0.00017653792747296393, -0.0001365229836665094, -9.650804713601246e-05, -5.649311060551554e-05, -1.6478174075018615e-05, 2.353676245547831e-05, 6.355170626193285e-05, 0.00010356663551647216, 0.00014358156477101147, 0.00018359662499278784, 0.00022361156879924238, 0.0002636265126056969, 0.000303641427308321, 0.00034365637111477554, 0.0003836713149212301, 0.00042368622962385416, 0.0004637011734303087, 0.0005037161172367632, 0.0005437310319393873, 0.0005837460048496723, 0.0006237609195522964, 0.0006637758342549205, 0.0007037908071652055, 0.0007438057218678296, 0.0007838206365704536, 0.0008238356094807386, 0.0008638505241833627, 0.0009038654970936477, 0.0009438804117962718, 0.0009838953847065568, 0.00102391024120152, 0.001063925214111805, 0.00110394018702209, 0.001143955159932375, 0.00118397013284266, 0.0012239849893376231, 0.0012639999622479081, 0.0013040149351581931, 0.0013440297916531563, 0.0013840447645634413, 0.0014240597374737263, 0.0014640745939686894]}, "gradients/act.action_outs.1.linear.weight": {"_type": "histogram", "values": [1.0, 1.0, 1.0, 0.0, 1.0, 0.0, 0.0, 0.0, 1.0, 1.0, 1.0, 0.0, 2.0, 2.0, 5.0, 0.0, 2.0, 3.0, 5.0, 1.0, 6.0, 5.0, 3.0, 10.0, 8.0, 8.0, 10.0, 9.0, 12.0, 6.0, 15.0, 8.0, 3.0, 4.0, 1.0, 9.0, 6.0, 14.0, 14.0, 6.0, 15.0, 14.0, 8.0, 3.0, 3.0, 1.0, 1.0, 8.0, 1.0, 1.0, 3.0, 0.0, 1.0, 2.0, 1.0, 1.0, 2.0, 0.0, 1.0, 3.0, 1.0, 1.0, 0.0, 1.0], "bins": [-0.0035141387488693, -0.0034077302552759647, -0.0033013217616826296, -0.0031949132680892944, -0.0030885047744959593, -0.002982096280902624, -0.002875687787309289, -0.002769279293715954, -0.0026628708001226187, -0.0025564623065292835, -0.0024500538129359484, -0.0023436453193426132, -0.002237236825749278, -0.002130828332155943, -0.0020244198385626078, -0.0019180113449692726, -0.0018116029677912593, -0.0017051944741979241, -0.001598785980604589, -0.0014923774870112538, -0.0013859689934179187, -0.0012795606162399054, -0.0011731521226465702, -0.001066743629053235, -0.000960335077252239, -0.0008539265836589038, -0.0007475180900655687, -0.0006411096546798944, -0.0005347011610865593, -0.00042829266749322414, -0.000321884173899889, -0.00021547568030655384, -0.00010906718671321869, -2.6587003958411515e-06, 0.00010374978592153639, 0.0002101582649629563, 0.00031656675855629146, 0.00042297522304579616, 0.0005293837166391313, 0.0006357922102324665, 0.0007422007038258016, 0.0008486091974191368, 0.0009550176910124719, 0.0010614261263981462, 0.0011678346199914813, 0.0012742431135848165, 0.0013806516071781516, 0.0014870601007714868, 0.001593468594364822, 0.001699877087958157, 0.0018062855815514922, 0.0019126940751448274, 0.0020191024523228407, 0.002125510945916176, 0.002231919439509511, 0.002338327933102846, 0.0024447364266961813, 0.0025511449202895164, 0.0026575534138828516, 0.0027639619074761868, 0.002870370401069522, 0.002976778894662857, 0.003083187388256192, 0.0031895958818495274, 0.0032960043754428625]}, "gradients/act.action_outs.0.linear.bias": {"_type": "histogram", "values": [1.0, 0.0, 0.0, 0.0, 0.0, 0.0, 0.0, 0.0, 0.0, 0.0, 0.0, 0.0, 0.0, 0.0, 0.0, 1.0, 0.0, 0.0, 0.0, 0.0, 0.0, 0.0, 0.0, 0.0, 0.0, 0.0, 0.0, 0.0, 0.0, 0.0, 0.0, 0.0, 0.0, 0.0, 0.0, 0.0, 0.0, 0.0, 0.0, 0.0, 0.0, 0.0, 0.0, 0.0, 0.0, 0.0, 0.0, 0.0, 0.0, 0.0, 0.0, 0.0, 0.0, 0.0, 0.0, 0.0, 0.0, 0.0, 0.0, 0.0, 0.0, 0.0, 0.0, 1.0], "bins": [-0.0007603917620144784, -0.0007315311813727021, -0.0007026705425232649, -0.0006738099618814886, -0.0006449493812397122, -0.0006160888005979359, -0.0005872282199561596, -0.0005583675811067224, -0.000529507000464946, -0.0005006464198231697, -0.00047178581007756293, -0.00044292520033195615, -0.0004140646196901798, -0.0003852040390484035, -0.0003563434293027967, -0.00032748281955718994, -0.0002986222389154136, -0.0002697616582736373, -0.00024090104852803051, -0.00021204045333433896, -0.0001831798581406474, -0.00015431926294695586, -0.0001254586677532643, -9.659807255957276e-05, -6.77374773658812e-05, -3.887688217218965e-05, -1.0016286978498101e-05, 1.884430821519345e-05, 4.7704903408885e-05, 7.656549860257655e-05, 0.0001054260937962681, 0.00013428668898995966, 0.0001631472259759903, 0.00019200782116968185, 0.0002208684163633734, 0.0002497290261089802, 0.0002785896067507565, 0.0003074501873925328, 0.0003363107971381396, 0.0003651714068837464, 0.0003940319875255227, 0.00042289256816729903, 0.0004517531779129058, 0.0004806137876585126, 0.0005094743683002889, 0.0005383349489420652, 0.0005671955877915025, 0.0005960561684332788, 0.0006249167490750551, 0.0006537773297168314, 0.0006826379103586078, 0.000711498549208045, 0.0007403591298498213, 0.0007692197104915977, 0.0007980803493410349, 0.0008269409299828112, 0.0008558015106245875, 0.0008846620912663639, 0.0009135226719081402, 0.0009423833107575774, 0.0009712438913993537, 0.00100010447204113, 0.0010289651108905673, 0.0010578256333246827, 0.00108668627217412]}, "gradients/act.action_outs.0.linear.weight": {"_type": "histogram", "values": [1.0, 0.0, 0.0, 0.0, 0.0, 0.0, 0.0, 2.0, 1.0, 1.0, 0.0, 1.0, 1.0, 2.0, 1.0, 1.0, 0.0, 2.0, 2.0, 0.0, 3.0, 3.0, 4.0, 12.0, 8.0, 5.0, 7.0, 10.0, 7.0, 9.0, 11.0, 8.0, 6.0, 13.0, 11.0, 7.0, 9.0, 12.0, 5.0, 5.0, 4.0, 1.0, 0.0, 1.0, 2.0, 2.0, 0.0, 2.0, 0.0, 2.0, 2.0, 0.0, 0.0, 0.0, 1.0, 1.0, 1.0, 0.0, 0.0, 1.0, 0.0, 0.0, 1.0, 1.0], "bins": [-0.002900270279496908, -0.002807882148772478, -0.0027154937852174044, -0.0026231056544929743, -0.0025307172909379005, -0.0024383291602134705, -0.0023459410294890404, -0.0022535526659339666, -0.0021611645352095366, -0.0020687764044851065, -0.0019763880409300327, -0.0018839999102056026, -0.0017916116630658507, -0.0016992234159260988, -0.001606835168786347, -0.001514446921646595, -0.001422058674506843, -0.0013296704273670912, -0.0012372821802273393, -0.0011448939330875874, -0.0010525058023631573, -0.0009601175552234054, -0.0008677293080836535, -0.0007753411191515625, -0.0006829528720118105, -0.0005905646248720586, -0.0004981764359399676, -0.0004057881888002157, -0.00031339997076429427, -0.0002210117527283728, -0.0001286235055886209, -3.6235316656529903e-05, 5.615293048322201e-05, 0.00014854114851914346, 0.00024092938110698014, 0.00033331761369481683, 0.0004257058317307383, 0.0005180940497666597, 0.0006104822969064116, 0.0007028704858385026, 0.0007952587329782546, 0.0008876469801180065, 0.0009800351690500975, 0.0010724234161898494, 0.0011648116633296013, 0.0012571997940540314, 0.0013495881576091051, 0.0014419762883335352, 0.001534364535473287, 0.001626752782613039, 0.001719141029752791, 0.0018115292768925428, 0.001903917407616973, 0.0019963057711720467, 0.0020886939018964767, 0.002181082032620907, 0.0022734703961759806, 0.0023658585269004107, 0.0024582468904554844, 0.0025506350211799145, 0.002643023384734988, 0.0027354115154594183, 0.002827799879014492, 0.002920188009738922, 0.003012576140463352]}, "gradients/base.mlp.fc2.0.2.weight": {"_type": "histogram", "values": [1.0, 0.0, 0.0, 0.0, 1.0, 0.0, 1.0, 0.0, 0.0, 2.0, 0.0, 3.0, 2.0, 1.0, 0.0, 2.0, 3.0, 1.0, 4.0, 2.0, 2.0, 1.0, 4.0, 4.0, 3.0, 8.0, 3.0, 8.0, 0.0, 0.0, 0.0, 0.0, 0.0, 2.0, 0.0, 1.0, 1.0, 0.0, 1.0, 0.0, 0.0, 1.0, 0.0, 0.0, 0.0, 1.0, 0.0, 0.0, 0.0, 0.0, 0.0, 0.0, 0.0, 0.0, 0.0, 0.0, 0.0, 0.0, 0.0, 0.0, 0.0, 0.0, 0.0, 1.0], "bins": [-0.00027263187803328037, -0.0002605963672976941, -0.0002485608565621078, -0.00023652534582652152, -0.00022448983509093523, -0.00021245432435534894, -0.00020041881361976266, -0.00018838330288417637, -0.0001763477921485901, -0.0001643122814130038, -0.00015227677067741752, -0.00014024125994183123, -0.00012820574920624495, -0.00011617023847065866, -0.00010413472773507237, -9.209921699948609e-05, -8.00637062638998e-05, -6.802819552831352e-05, -5.599268479272723e-05, -4.3957174057140946e-05, -3.192166332155466e-05, -1.9886152585968375e-05, -7.85064185038209e-06, 4.184868885204196e-06, 1.622037962079048e-05, 2.8255890356376767e-05, 4.029140109196305e-05, 5.232691182754934e-05, 6.436242256313562e-05, 7.639793329872191e-05, 8.84334440343082e-05, 0.00010046895476989448, 0.00011250446550548077, 0.00012453997624106705, 0.00013657548697665334, 0.00014861099771223962, 0.0001606465084478259, 0.0001726820191834122, 0.00018471752991899848, 0.00019675304065458477, 0.00020878855139017105, 0.00022082406212575734, 0.00023285957286134362, 0.0002448950835969299, 0.0002569305943325162, 0.0002689661050681025, 0.00028100161580368876, 0.00029303712653927505, 0.00030507263727486134, 0.0003171081480104476, 0.0003291436587460339, 0.0003411791694816202, 0.0003532146802172065, 0.00036525019095279276, 0.00037728570168837905, 0.00038932121242396533, 0.0004013567231595516, 0.0004133922338951379, 0.0004254277446307242, 0.0004374632553663105, 0.00044949876610189676, 0.00046153427683748305, 0.00047356978757306933, 0.0004856052983086556, 0.0004976408090442419]}, "gradients/base.mlp.fc2.0.2.bias": {"_type": "histogram", "values": [1.0, 0.0, 0.0, 0.0, 0.0, 0.0, 0.0, 0.0, 2.0, 1.0, 1.0, 1.0, 3.0, 4.0, 0.0, 2.0, 2.0, 2.0, 2.0, 0.0, 7.0, 0.0, 3.0, 2.0, 3.0, 2.0, 2.0, 3.0, 1.0, 2.0, 1.0, 1.0, 1.0, 1.0, 1.0, 0.0, 2.0, 1.0, 0.0, 2.0, 0.0, 1.0, 1.0, 0.0, 2.0, 0.0, 0.0, 0.0, 2.0, 0.0, 1.0, 0.0, 0.0, 0.0, 0.0, 0.0, 0.0, 0.0, 0.0, 0.0, 0.0, 0.0, 0.0, 1.0], "bins": [-0.00017180221038870513, -0.00016535293252673, -0.00015890365466475487, -0.0001524543622508645, -0.00014600508438888937, -0.00013955580652691424, -0.0001331065286649391, -0.00012665725080296397, -0.00012020796566503122, -0.00011375868780305609, -0.00010730940266512334, -0.00010086012480314821, -9.441084694117308e-05, -8.796156180324033e-05, -8.15122839412652e-05, -7.506299880333245e-05, -6.861372094135731e-05, -6.216444307938218e-05, -5.5715157941449434e-05, -4.92658800794743e-05, -4.281659857952036e-05, -3.636731707956642e-05, -2.9918039217591286e-05, -2.3468757717637345e-05, -1.7019476217683405e-05, -1.0570195627224166e-05, -4.120915036764927e-06, 2.3283646441996098e-06, 8.77764614415355e-06, 1.522692764410749e-05, 2.1676205506082624e-05, 2.8125487006036565e-05, 3.4574768505990505e-05, 4.1024050005944446e-05, 4.7473331505898386e-05, 5.392260936787352e-05, 6.037189086782746e-05, 6.68211723677814e-05, 7.327045022975653e-05, 7.971972809173167e-05, 8.616901322966442e-05, 9.261829109163955e-05, 9.90675762295723e-05, 0.00010551685409154743, 0.00011196613195352256, 0.00011841541709145531, 0.00012486468767747283, 0.0001313139800913632, 0.00013776325795333833, 0.00014421253581531346, 0.0001506618136772886, 0.00015711109153926373, 0.0001635603839531541, 0.00017000966181512922, 0.00017645893967710435, 0.0001829082175390795, 0.00018935749540105462, 0.00019580677326302975, 0.0002022560511250049, 0.00020870534353889525, 0.00021515462140087038, 0.00022160389926284552, 0.00022805317712482065, 0.00023450245498679578, 0.00024095174740068614]}, "gradients/base.mlp.fc2.0.0.bias": {"_type": "histogram", "values": [1.0, 0.0, 0.0, 0.0, 0.0, 1.0, 0.0, 1.0, 0.0, 1.0, 0.0, 0.0, 0.0, 3.0, 1.0, 0.0, 1.0, 0.0, 0.0, 3.0, 2.0, 1.0, 1.0, 3.0, 1.0, 1.0, 3.0, 3.0, 6.0, 4.0, 3.0, 4.0, 1.0, 3.0, 1.0, 2.0, 2.0, 2.0, 0.0, 2.0, 0.0, 0.0, 0.0, 0.0, 0.0, 1.0, 0.0, 1.0, 0.0, 0.0, 0.0, 1.0, 1.0, 0.0, 0.0, 0.0, 0.0, 0.0, 0.0, 1.0, 0.0, 0.0, 1.0, 1.0], "bins": [-0.00028868825756944716, -0.00027872654027305543, -0.00026876479387283325, -0.0002588030765764415, -0.0002488413592800498, -0.00023887962743174285, -0.0002289178955834359, -0.00021895617828704417, -0.00020899446099065244, -0.0001990327291423455, -0.00018907101184595376, -0.0001791092799976468, -0.00016914756270125508, -0.00015918583085294813, -0.00014922409900464118, -0.00013926238170824945, -0.0001293006498599425, -0.00011933892528759316, -0.00010937720071524382, -9.941546886693686e-05, -8.945375157054514e-05, -7.949201972223818e-05, -6.953029514988884e-05, -5.9568570577539504e-05, -4.9606846005190164e-05, -3.9645121432840824e-05, -2.968339504150208e-05, -1.9721668650163338e-05, -9.759944077813998e-06, 2.0178049453534186e-07, 1.0163508704863489e-05, 2.012523327721283e-05, 3.0086957849562168e-05, 4.004868242191151e-05, 5.001040699426085e-05, 5.9972135204588994e-05, 6.993385613895953e-05, 7.989558798726648e-05, 8.985731255961582e-05, 9.981903713196516e-05, 0.0001097807617043145, 0.00011974248627666384, 0.0001297042181249708, 0.00013966593542136252, 0.00014962766726966947, 0.0001595893845660612, 0.00016955111641436815, 0.00017951283371075988, 0.00018947456555906683, 0.00019943629740737379, 0.0002093980147037655, 0.00021935974655207247, 0.0002293214638484642, 0.00023928319569677114, 0.00024924491299316287, 0.0002592066302895546, 0.0002691683766897768, 0.0002791300939861685, 0.0002890918403863907, 0.0002990535576827824, 0.00030901527497917414, 0.00031897699227556586, 0.00032893873867578804, 0.00033890045597217977, 0.0003488621732685715]}, "gradients/base.mlp.fc2.0.0.weight": {"_type": "histogram", "values": [1.0, 0.0, 0.0, 0.0, 0.0, 0.0, 0.0, 0.0, 1.0, 0.0, 0.0, 0.0, 0.0, 0.0, 2.0, 0.0, 0.0, 0.0, 3.0, 1.0, 3.0, 1.0, 6.0, 2.0, 9.0, 8.0, 11.0, 28.0, 44.0, 32.0, 42.0, 83.0, 87.0, 70.0, 122.0, 213.0, 349.0, 446.0, 1052.0, 412.0, 290.0, 201.0, 164.0, 128.0, 64.0, 59.0, 29.0, 26.0, 26.0, 26.0, 15.0, 6.0, 8.0, 5.0, 2.0, 3.0, 3.0, 3.0, 3.0, 2.0, 1.0, 0.0, 1.0, 3.0], "bins": [-0.001067476812750101, -0.0010396927827969193, -0.0010119087528437376, -0.000984124606475234, -0.0009563406347297132, -0.0009285565465688705, -0.0009007725166156888, -0.0008729884866625071, -0.0008452044567093253, -0.0008174204267561436, -0.0007896363385953009, -0.0007618523086421192, -0.0007340682786889374, -0.0007062841905280948, -0.000678500160574913, -0.0006507161306217313, -0.0006229320424608886, -0.0005951480125077069, -0.0005673639243468642, -0.0005395798943936825, -0.0005117958644405007, -0.00048401180538348854, -0.00045622774632647634, -0.0004284437163732946, -0.0004006596573162824, -0.0003728755982592702, -0.00034509156830608845, -0.00031730750924907625, -0.00028952345019206405, -0.0002617394202388823, -0.0002339553611818701, -0.00020617131667677313, -0.00017838727217167616, -0.0001506032276665792, -0.00012281918316148221, -9.503512410447001e-05, -6.725107959937304e-05, -3.946703509427607e-05, -1.168297603726387e-05, 1.6101068467833102e-05, 4.3885112972930074e-05, 7.166915747802705e-05, 9.945320925908163e-05, 0.00012723726104013622, 0.0001550213055452332, 0.00018280535005033016, 0.00021058940910734236, 0.00023837345361243933, 0.0002661574981175363, 0.0002939415571745485, 0.00032172558712773025, 0.00034950964618474245, 0.0003772936761379242, 0.0004050777351949364, 0.0004328617942519486, 0.00046064582420513034, 0.000488429912365973, 0.0005162139423191547, 0.0005439980304799974, 0.0005717820604331791, 0.0005995660903863609, 0.0006273501785472035, 0.0006551342085003853, 0.000682918238453567, 0.0007107022684067488]}, "gradients/base.mlp.fc1.2.weight": {"_type": "histogram", "values": [1.0, 1.0, 0.0, 0.0, 0.0, 0.0, 0.0, 1.0, 1.0, 0.0, 0.0, 3.0, 2.0, 3.0, 1.0, 1.0, 1.0, 0.0, 2.0, 1.0, 3.0, 1.0, 5.0, 1.0, 0.0, 1.0, 4.0, 4.0, 2.0, 4.0, 2.0, 2.0, 2.0, 3.0, 1.0, 1.0, 1.0, 0.0, 3.0, 0.0, 0.0, 1.0, 0.0, 0.0, 0.0, 1.0, 0.0, 1.0, 0.0, 1.0, 0.0, 0.0, 0.0, 0.0, 0.0, 0.0, 0.0, 1.0, 0.0, 0.0, 0.0, 0.0, 0.0, 1.0], "bins": [-0.00043099289177916944, -0.00041445394163019955, -0.0003979150205850601, -0.00038137607043609023, -0.00036483712028712034, -0.0003482981992419809, -0.000331759249093011, -0.0003152203280478716, -0.0002986813778989017, -0.0002821424277499318, -0.0002656035067047924, -0.0002490645565558225, -0.00023252562095876783, -0.00021598668536171317, -0.00019944773521274328, -0.00018290879961568862, -0.00016636986401863396, -0.0001498309284215793, -0.00013329199282452464, -0.00011675304267555475, -0.00010021410707850009, -8.367517148144543e-05, -6.713622860843316e-05, -5.059728573542088e-05, -3.405835013836622e-05, -1.7519410903332755e-05, -9.804716682992876e-07, 1.555846756673418e-05, 3.209740680176765e-05, 4.863634239882231e-05, 6.517528527183458e-05, 8.171422814484686e-05, 9.825319284573197e-05, 0.00011479212844278663, 0.0001313310640398413, 0.00014787001418881118, 0.00016440894978586584, 0.0001809478853829205, 0.0001974868355318904, 0.00021402577112894505, 0.0002305647067259997, 0.0002471036568749696, 0.00026364257792010903, 0.0002801815280690789, 0.0002967204782180488, 0.00031325939926318824, 0.00032979834941215813, 0.00034633727045729756, 0.00036287622060626745, 0.00037941517075523734, 0.00039595409180037677, 0.00041249304194934666, 0.0004290319629944861, 0.000445570913143456, 0.00046210986329242587, 0.00047864881344139576, 0.0004951877053827047, 0.0005117266555316746, 0.0005282656056806445, 0.0005448044976219535, 0.0005613434477709234, 0.0005778823979198933, 0.0005944213480688632, 0.000610960298217833, 0.0006274992483668029]}, "gradients/base.mlp.fc1.2.bias": {"_type": "histogram", "values": [1.0, 0.0, 0.0, 0.0, 0.0, 0.0, 0.0, 0.0, 0.0, 0.0, 0.0, 2.0, 0.0, 0.0, 1.0, 0.0, 0.0, 0.0, 0.0, 0.0, 4.0, 0.0, 0.0, 1.0, 1.0, 1.0, 1.0, 3.0, 4.0, 2.0, 4.0, 2.0, 1.0, 1.0, 0.0, 5.0, 2.0, 6.0, 2.0, 1.0, 1.0, 3.0, 3.0, 1.0, 0.0, 4.0, 1.0, 1.0, 1.0, 1.0, 0.0, 0.0, 1.0, 0.0, 1.0, 0.0, 0.0, 0.0, 0.0, 0.0, 0.0, 0.0, 0.0, 1.0], "bins": [-0.0006284512346610427, -0.0006103683263063431, -0.0005922853597439826, -0.0005742024513892829, -0.0005561194848269224, -0.0005380365764722228, -0.0005199536099098623, -0.0005018707015551627, -0.0004837877640966326, -0.00046570482663810253, -0.00044762188917957246, -0.0004295389517210424, -0.0004114560433663428, -0.00039337307680398226, -0.00037529016844928265, -0.0003572072309907526, -0.0003391242935322225, -0.00032104135607369244, -0.00030295841861516237, -0.0002848754811566323, -0.00026679254369810224, -0.0002487096353434026, -0.00023062669788487256, -0.0002125437604263425, -0.00019446082296781242, -0.00017637788550928235, -0.00015829494805075228, -0.00014021202514413744, -0.00012212908768560737, -0.0001040461502270773, -8.596322004450485e-05, -6.78802898619324e-05, -4.9797294195741415e-05, -3.1714360375190154e-05, -1.3631426554638892e-05, 4.451507265912369e-06, 2.253444108646363e-05, 4.06173785449937e-05, 5.870030872756615e-05, 7.678323891013861e-05, 9.486617636866868e-05, 0.00011294911382719874, 0.0001310320512857288, 0.00014911497419234365, 0.00016719791165087372, 0.0001852808491094038, 0.00020336377201601863, 0.0002214467094745487, 0.00023952964693307877, 0.00025761258439160883, 0.0002756955218501389, 0.00029377845930866897, 0.00031186139676719904, 0.00032994430512189865, 0.0003480272425804287, 0.0003661101800389588, 0.00038419311749748886, 0.0004022760549560189, 0.000420358992414549, 0.00043844192987307906, 0.0004565248382277787, 0.0004746078047901392, 0.0004926907131448388, 0.0005107736214995384, 0.000528856588061899]}, "gradients/base.mlp.fc1.0.bias": {"_type": "histogram", "values": [1.0, 0.0, 0.0, 0.0, 0.0, 0.0, 0.0, 0.0, 0.0, 0.0, 0.0, 0.0, 0.0, 0.0, 0.0, 0.0, 0.0, 0.0, 0.0, 0.0, 1.0, 0.0, 1.0, 0.0, 0.0, 1.0, 1.0, 1.0, 1.0, 0.0, 1.0, 0.0, 1.0, 0.0, 1.0, 1.0, 0.0, 4.0, 16.0, 6.0, 6.0, 3.0, 2.0, 1.0, 3.0, 2.0, 5.0, 0.0, 0.0, 2.0, 2.0, 0.0, 0.0, 0.0, 0.0, 0.0, 0.0, 0.0, 0.0, 0.0, 0.0, 0.0, 0.0, 1.0], "bins": [-0.0010107664857059717, -0.0009844956221058965, -0.0009582247002981603, -0.0009319538366980851, -0.0009056829148903489, -0.0008794120512902737, -0.0008531411876901984, -0.0008268703240901232, -0.000800599402282387, -0.0007743285386823118, -0.0007480576168745756, -0.0007217867532745004, -0.0006955158896744251, -0.000669244967866689, -0.0006429741042666137, -0.0006167031824588776, -0.0005904323188588023, -0.0005641614552587271, -0.0005378905334509909, -0.0005116196698509157, -0.00048534877714700997, -0.00045907788444310427, -0.000432807020843029, -0.0004065361281391233, -0.0003802652354352176, -0.0003539943427313119, -0.0003277234500274062, -0.00030145258642733097, -0.00027518169372342527, -0.00024891080101951957, -0.0002226399228675291, -0.00019636904471553862, -0.000170098093803972, -0.0001438272011000663, -0.00011755632294807583, -9.128543752012774e-05, -6.501455209217966e-05, -3.8743659388273954e-05, -1.2472781236283481e-05, 1.3798096915706992e-05, 4.0068989619612694e-05, 6.633987504756078e-05, 9.261076047550887e-05, 0.00011888164590345696, 0.00014515253133140504, 0.00017142342403531075, 0.00019769430218730122, 0.0002239651803392917, 0.0002502360730431974, 0.0002765069657471031, 0.0003027778584510088, 0.00032904872205108404, 0.00035531961475498974, 0.00038159050745889544, 0.0004078613710589707, 0.0004341322637628764, 0.0004604031564667821, 0.0004866740491706878, 0.0005129449418745935, 0.0005392158054746687, 0.0005654867272824049, 0.0005917575908824801, 0.0006180284544825554, 0.0006442993180826306, 0.0006705702398903668]}, "gradients/base.mlp.fc1.0.weight": {"_type": "histogram", "values": [1.0, 0.0, 0.0, 0.0, 0.0, 0.0, 0.0, 0.0, 0.0, 0.0, 0.0, 0.0, 0.0, 0.0, 1.0, 0.0, 0.0, 0.0, 2.0, 0.0, 2.0, 1.0, 2.0, 0.0, 1.0, 2.0, 2.0, 2.0, 3.0, 3.0, 8.0, 3.0, 5.0, 8.0, 11.0, 10.0, 18.0, 23.0, 26.0, 39.0, 99.0, 129.0, 1290.0, 3938.0, 777.0, 250.0, 106.0, 115.0, 54.0, 41.0, 9.0, 14.0, 5.0, 8.0, 5.0, 7.0, 3.0, 2.0, 3.0, 2.0, 3.0, 2.0, 2.0, 3.0], "bins": [-0.004025776870548725, -0.003933244850486517, -0.0038407128304243088, -0.0037481808103621006, -0.0036556487902998924, -0.0035631167702376842, -0.003470584750175476, -0.0033780529629439116, -0.0032855209428817034, -0.003192988922819495, -0.003100456902757287, -0.003007924882695079, -0.0029153928626328707, -0.002822861075401306, -0.002730329055339098, -0.00263779703527689, -0.0025452650152146816, -0.0024527329951524734, -0.0023602009750902653, -0.002267668955028057, -0.002175136934965849, -0.0020826049149036407, -0.0019900728948414326, -0.001897541107609868, -0.0018050088547170162, -0.001712476834654808, -0.0016199448145925999, -0.0015274127945303917, -0.0014348808908835053, -0.0013423488708212972, -0.001249816850759089, -0.0011572849471122026, -0.0010647528106346726, -0.0009722207905724645, -0.0008796888287179172, -0.000787156808655709, -0.0006946248468011618, -0.0006020928267389536, -0.0005095608066767454, -0.00041702884482219815, -0.00032449682475999, -0.00023196483380161226, -0.0001394328282913193, -4.690082278102636e-05, 4.5631168177351356e-05, 0.00013816315913572907, 0.00023069517919793725, 0.0003232271410524845, 0.0004157591611146927, 0.0005082911811769009, 0.0006008231430314481, 0.0006933551630936563, 0.0007858871249482036, 0.0008784191450104117, 0.0009709511650726199, 0.0010634830687195063, 0.0011560150887817144, 0.0012485471088439226, 0.0013410791289061308, 0.001433611148968339, 0.0015261430526152253, 0.0016186750726774335, 0.0017112070927396417, 0.001803738996386528, 0.001896271132864058]}, "gradients/base.feature_norm.weight": {"_type": "histogram", "values": [1.0, 0.0, 0.0, 0.0, 0.0, 0.0, 0.0, 0.0, 0.0, 0.0, 0.0, 0.0, 0.0, 0.0, 1.0, 0.0, 0.0, 0.0, 0.0, 0.0, 0.0, 0.0, 0.0, 0.0, 0.0, 0.0, 0.0, 0.0, 2.0, 1.0, 3.0, 1.0, 2.0, 2.0, 4.0, 8.0, 11.0, 17.0, 13.0, 13.0, 7.0, 9.0, 4.0, 2.0, 0.0, 1.0, 2.0, 0.0, 1.0, 0.0, 0.0, 0.0, 0.0, 1.0, 0.0, 0.0, 0.0, 0.0, 1.0, 1.0, 1.0, 0.0, 0.0, 1.0], "bins": [-0.0012917367275804281, -0.0012581341434270144, -0.0012245314428582788, -0.001190928858704865, -0.0011573261581361294, -0.0011237235739827156, -0.00109012087341398, -0.0010565182892605662, -0.0010229155886918306, -0.0009893130045384169, -0.0009557103039696813, -0.0009221076616086066, -0.0008885050192475319, -0.0008549024350941181, -0.0008212997927330434, -0.0007876971503719687, -0.000754094566218555, -0.0007204919238574803, -0.0006868892814964056, -0.0006532866391353309, -0.0006196839967742562, -0.0005860814126208425, -0.0005524787702597678, -0.0005188761278986931, -0.0004852734855376184, -0.0004516708431765437, -0.000418068200815469, -0.0003844655875582248, -0.0003508629451971501, -0.0003172603028360754, -0.0002836576895788312, -0.0002500550472177565, -0.0002164523466490209, -0.00018284970428794622, -0.00014924707647878677, -0.0001156444413936697, -8.204180630855262e-05, -4.843916394747794e-05, -1.4836536138318479e-05, 1.876609167084098e-05, 5.2368734031915665e-05, 8.597136911703274e-05, 0.00011957400420214981, 0.00015317663201130927, 0.00018677927437238395, 0.00022038191673345864, 0.00025398452999070287, 0.00028758717235177755, 0.00032118981471285224, 0.0003547924570739269, 0.0003883950994350016, 0.00042199771269224584, 0.0004556003550533205, 0.0004892030265182257, 0.0005228056106716394, 0.0005564082530327141, 0.0005900108953937888, 0.0006236135377548635, 0.0006572161801159382, 0.0006908188224770129, 0.0007244214648380876, 0.0007580240489915013, 0.000791626691352576, 0.0008252293337136507, 0.0008588319760747254]}, "gradients/base.feature_norm.bias": {"_type": "histogram", "values": [1.0, 0.0, 0.0, 0.0, 0.0, 0.0, 0.0, 0.0, 0.0, 0.0, 0.0, 0.0, 0.0, 0.0, 0.0, 0.0, 0.0, 0.0, 0.0, 0.0, 1.0, 0.0, 0.0, 0.0, 1.0, 1.0, 0.0, 3.0, 1.0, 0.0, 7.0, 3.0, 2.0, 5.0, 4.0, 4.0, 5.0, 7.0, 5.0, 4.0, 7.0, 7.0, 5.0, 7.0, 5.0, 4.0, 2.0, 5.0, 1.0, 2.0, 3.0, 3.0, 1.0, 0.0, 1.0, 0.0, 0.0, 0.0, 2.0, 0.0, 0.0, 0.0, 0.0, 1.0], "bins": [-0.0013158011715859175, -0.001282018842175603, -0.0012482365127652884, -0.0012144542997702956, -0.001180671970359981, -0.0011468896409496665, -0.001113107311539352, -0.0010793249821290374, -0.0010455427691340446, -0.00101176043972373, -0.0009779781103134155, -0.0009441958391107619, -0.0009104135679081082, -0.0008766312384977937, -0.0008428489090874791, -0.0008090665796771646, -0.00077528425026685, -0.0007415019208565354, -0.0007077196496538818, -0.0006739373202435672, -0.0006401550490409136, -0.000606372719630599, -0.0005725903902202845, -0.0005388080608099699, -0.0005050257896073163, -0.00047124348930083215, -0.00043746118899434805, -0.0004036788595840335, -0.0003698965592775494, -0.0003361142589710653, -0.0003023319295607507, -0.0002685496292542666, -0.00023476744536310434, -0.00020098514505662024, -0.0001672028301982209, -0.00013342051533982158, -9.963821503333747e-05, -6.585591472685337e-05, -3.207359986845404e-05, 1.7087149899452925e-06, 3.5491015296429396e-05, 6.927332287887111e-05, 0.00010305563046131283, 0.00013683794531971216, 0.00017062024562619627, 0.00020440254593268037, 0.0002381848607910797, 0.00027196717564947903, 0.00030574947595596313, 0.00033953177626244724, 0.00037331407656893134, 0.0004070964059792459, 0.00044087870628573, 0.0004746610065922141, 0.0005084433360025287, 0.0005422256654128432, 0.0005760079366154969, 0.0006097902660258114, 0.0006435725372284651, 0.0006773548666387796, 0.0007111371960490942, 0.0007449194672517478, 0.0007787017966620624, 0.000812484067864716, 0.0008462663972750306]}, "gradients/graph_1v_out.bias": {"_type": "histogram", "values": [0.0, 0.0, 0.0, 0.0, 0.0, 0.0, 0.0, 0.0, 0.0, 0.0, 0.0, 0.0, 0.0, 0.0, 0.0, 0.0, 0.0, 0.0, 0.0, 0.0, 0.0, 0.0, 0.0, 0.0, 0.0, 0.0, 0.0, 0.0, 0.0, 0.0, 0.0, 1.0, 0.0, 0.0, 0.0, 0.0, 0.0, 0.0, 0.0, 0.0, 0.0, 0.0, 0.0, 0.0, 0.0, 0.0, 0.0, 0.0, 0.0, 0.0, 0.0, 0.0, 0.0, 0.0, 0.0, 0.0, 0.0, 0.0, 0.0, 0.0, 0.0, 0.0, 0.0, 0.0], "bins": [-0.009391123428940773, -0.009391123428940773, -0.009391123428940773, -0.009391123428940773, -0.009391123428940773, -0.009391123428940773, -0.009391123428940773, -0.009391123428940773, -0.009391123428940773, -0.009391123428940773, -0.009391123428940773, -0.009391123428940773, -0.009391123428940773, -0.009391123428940773, -0.009391123428940773, -0.009391123428940773, -0.009391123428940773, -0.009391123428940773, -0.009391123428940773, -0.009391123428940773, -0.009391123428940773, -0.009391123428940773, -0.009391123428940773, -0.009391123428940773, -0.009391123428940773, -0.009391123428940773, -0.009391123428940773, -0.009391123428940773, -0.009391123428940773, -0.009391123428940773, -0.009391123428940773, -0.009391123428940773, -0.009391123428940773, -0.009391123428940773, -0.009391123428940773, -0.009391123428940773, -0.009391123428940773, -0.009391123428940773, -0.009391123428940773, -0.009391123428940773, -0.009391123428940773, -0.009391123428940773, -0.009391123428940773, -0.009391123428940773, -0.009391123428940773, -0.009391123428940773, -0.009391123428940773, -0.009391123428940773, -0.009391123428940773, -0.009391123428940773, -0.009391123428940773, -0.009391123428940773, -0.009391123428940773, -0.009391123428940773, -0.009391123428940773, -0.009391123428940773, -0.009391123428940773, -0.009391123428940773, -0.009391123428940773, -0.009391123428940773, -0.009391123428940773, -0.009391123428940773, -0.009391123428940773, -0.009391123428940773, -0.009391123428940773]}, "gradients/graph_1v_out.weight": {"_type": "histogram", "values": [1.0, 0.0, 0.0, 0.0, 0.0, 0.0, 0.0, 0.0, 0.0, 0.0, 0.0, 0.0, 0.0, 0.0, 0.0, 0.0, 1.0, 0.0, 0.0, 0.0, 0.0, 0.0, 0.0, 1.0, 0.0, 0.0, 1.0, 0.0, 0.0, 0.0, 1.0, 0.0, 0.0, 1.0, 1.0, 0.0, 2.0, 0.0, 0.0, 0.0, 0.0, 1.0, 2.0, 0.0, 1.0, 1.0, 2.0, 0.0, 1.0, 0.0, 1.0, 0.0, 2.0, 1.0, 0.0, 2.0, 1.0, 0.0, 11.0, 24.0, 2.0, 1.0, 1.0, 1.0], "bins": [-0.04210381209850311, -0.04129937291145325, -0.04049493372440338, -0.039690494537353516, -0.03888605162501335, -0.038081612437963486, -0.03727717325091362, -0.036472734063863754, -0.03566829487681389, -0.03486385568976402, -0.03405941650271416, -0.03325497359037399, -0.03245053440332413, -0.03164609521627426, -0.030841656029224396, -0.03003721684217453, -0.029232775792479515, -0.02842833660542965, -0.027623895555734634, -0.02681945636868477, -0.026015017181634903, -0.025210577994585037, -0.024406136944890022, -0.023601697757840157, -0.02279725670814514, -0.021992817521095276, -0.02118837647140026, -0.020383937284350395, -0.01957949809730053, -0.018775057047605515, -0.01797061786055565, -0.017166178673505783, -0.016361741349101067, -0.015557301230728626, -0.01475286204367876, -0.01394842192530632, -0.013143982738256454, -0.012339542619884014, -0.011535102501511574, -0.010730663314461708, -0.009926223196089268, -0.009121783077716827, -0.008317343890666962, -0.007512903772294521, -0.006708464119583368, -0.005904024466872215, -0.005099584348499775, -0.004295144695788622, -0.003490705043077469, -0.002686265390366316, -0.0018818255048245192, -0.0010773856192827225, -0.00027294596657156944, 0.0005314936861395836, 0.001335933804512024, 0.002140373457223177, 0.00294481310993433, 0.003749252762645483, 0.004553692415356636, 0.005358132533729076, 0.006162572186440229, 0.0069670118391513824, 0.007771451957523823, 0.008575892075896263, 0.009380331262946129]}, "gradients/graph_1base.mlp.fc2.0.2.weight": {"_type": "histogram", "values": [1.0, 0.0, 0.0, 0.0, 0.0, 0.0, 0.0, 0.0, 0.0, 0.0, 0.0, 0.0, 0.0, 0.0, 0.0, 0.0, 1.0, 0.0, 1.0, 0.0, 1.0, 0.0, 0.0, 1.0, 1.0, 0.0, 2.0, 3.0, 1.0, 6.0, 2.0, 1.0, 2.0, 8.0, 4.0, 5.0, 2.0, 3.0, 0.0, 7.0, 1.0, 0.0, 0.0, 2.0, 2.0, 1.0, 2.0, 0.0, 1.0, 0.0, 0.0, 0.0, 1.0, 0.0, 0.0, 1.0, 0.0, 0.0, 0.0, 0.0, 0.0, 0.0, 0.0, 1.0], "bins": [-0.0033010360784828663, -0.003208270063623786, -0.0031155040487647057, -0.003022738266736269, -0.0029299722518771887, -0.0028372062370181084, -0.002744440222159028, -0.0026516742072999477, -0.002558908425271511, -0.0024661424104124308, -0.0023733763955533504, -0.002280610613524914, -0.0021878445986658335, -0.002095078583806753, -0.002002312568947673, -0.0019095465540885925, -0.0018167805392295122, -0.001724014524370432, -0.0016312486259266734, -0.001538482611067593, -0.0014457167126238346, -0.0013529506977647543, -0.001260184682905674, -0.0011674186680465937, -0.0010746527696028352, -0.0009818867547437549, -0.0008891208562999964, -0.0007963548414409161, -0.0007035888847894967, -0.0006108229281380773, -0.0005180569132789969, -0.00042529095662757754, -0.0003325252328068018, -0.00023975926160346717, -0.00014699329040013254, -5.422730464488268e-05, 3.853865200653672e-05, 0.00013130460865795612, 0.00022407062351703644, 0.00031683658016845584, 0.00040960253681987524, 0.0005023684934712946, 0.000595134450122714, 0.0006879004649817944, 0.0007806664216332138, 0.0008734323782846332, 0.0009661983931437135, 0.001058964291587472, 0.0011517303064465523, 0.0012444963213056326, 0.001337262219749391, 0.0014300282346084714, 0.0015227941330522299, 0.0016155601479113102, 0.0017083261627703905, 0.0018010921776294708, 0.0018938580760732293, 0.001986623974516988, 0.002079389989376068, 0.0021721560042351484, 0.0022649220190942287, 0.0023576878011226654, 0.0024504540488123894, 0.002543219830840826, 0.0026359858456999063]}, "gradients/graph_1base.mlp.fc2.0.2.bias": {"_type": "histogram", "values": [1.0, 0.0, 0.0, 0.0, 0.0, 0.0, 0.0, 0.0, 1.0, 0.0, 0.0, 0.0, 1.0, 3.0, 2.0, 1.0, 3.0, 1.0, 1.0, 1.0, 1.0, 1.0, 1.0, 1.0, 4.0, 1.0, 1.0, 1.0, 4.0, 3.0, 1.0, 3.0, 2.0, 1.0, 1.0, 3.0, 1.0, 4.0, 1.0, 0.0, 0.0, 0.0, 5.0, 0.0, 0.0, 2.0, 0.0, 3.0, 0.0, 2.0, 0.0, 0.0, 0.0, 0.0, 0.0, 1.0, 0.0, 0.0, 0.0, 0.0, 0.0, 0.0, 0.0, 1.0], "bins": [-0.0029002875089645386, -0.0028081978671252728, -0.002716108225286007, -0.002624018583446741, -0.0025319289416074753, -0.002439839066937566, -0.0023477494250983, -0.002255659783259034, -0.0021635701414197683, -0.0020714804995805025, -0.0019793908577412367, -0.001887301099486649, -0.0017952114576473832, -0.0017031218158081174, -0.0016110320575535297, -0.001518942415714264, -0.001426852773874998, -0.0013347631320357323, -0.0012426734901964664, -0.0011505837319418788, -0.001058494090102613, -0.0009664044482633471, -0.0008743147482164204, -0.0007822250481694937, -0.0006901354063302279, -0.000598045764490962, -0.0005059560644440353, -0.000413866393500939, -0.00032177672255784273, -0.00022968705161474645, -0.00013759738067165017, -4.5507680624723434e-05, 4.658196121454239e-05, 0.00013867163215763867, 0.00023076130310073495, 0.00032285097404383123, 0.0004149406449869275, 0.0005070302868261933, 0.0005991199868731201, 0.0006912096869200468, 0.0007832993287593126, 0.0008753889705985785, 0.0009674786706455052, 0.001059568370692432, 0.0011516580125316978, 0.0012437476543709636, 0.0013358374126255512, 0.001427927054464817, 0.0015200166963040829, 0.0016121063381433487, 0.0017041959799826145, 0.0017962857382372022, 0.001888375380076468, 0.0019804651383310556, 0.0020725547801703215, 0.0021646444220095873, 0.002256734063848853, 0.002348823705688119, 0.0024409133475273848, 0.0025330029893666506, 0.00262509286403656, 0.002717182505875826, 0.0028092721477150917, 0.0029013617895543575, 0.0029934514313936234]}, "gradients/graph_1base.mlp.fc2.0.0.bias": {"_type": "histogram", "values": [1.0, 1.0, 0.0, 0.0, 0.0, 2.0, 0.0, 1.0, 1.0, 1.0, 1.0, 1.0, 1.0, 0.0, 0.0, 1.0, 0.0, 0.0, 1.0, 0.0, 1.0, 2.0, 1.0, 1.0, 5.0, 20.0, 6.0, 1.0, 5.0, 0.0, 0.0, 0.0, 0.0, 2.0, 0.0, 0.0, 1.0, 0.0, 0.0, 0.0, 0.0, 1.0, 0.0, 0.0, 0.0, 0.0, 0.0, 0.0, 0.0, 0.0, 2.0, 1.0, 0.0, 1.0, 0.0, 0.0, 1.0, 0.0, 0.0, 0.0, 0.0, 0.0, 0.0, 1.0], "bins": [-0.0012037305859848857, -0.0011566054308786988, -0.001109480275772512, -0.001062355237081647, -0.00101523008197546, -0.0009681049268692732, -0.0009209797717630863, -0.0008738546166568995, -0.0008267295197583735, -0.0007796043646521866, -0.0007324792677536607, -0.0006853541126474738, -0.0006382289575412869, -0.000591103860642761, -0.0005439787055365741, -0.0004968536086380482, -0.0004497284535318613, -0.0004026033275295049, -0.0003554782015271485, -0.0003083530464209616, -0.0002612279204186052, -0.0002141027944162488, -0.00016697763931006193, -0.00011985251330770552, -7.272738730534911e-05, -2.5602254027035087e-05, 2.1522879251278937e-05, 6.864801980555058e-05, 0.00011577314580790699, 0.0001628982718102634, 0.00021002342691645026, 0.00025714855291880667, 0.0003042737953364849, 0.0003513989213388413, 0.00039852404734119773, 0.0004456492024473846, 0.0004927742993459105, 0.0005398994544520974, 0.0005870246095582843, 0.0006341497646644711, 0.0006812748615629971, 0.000728400016669184, 0.0007755251135677099, 0.0008226502686738968, 0.0008697754237800837, 0.0009169005206786096, 0.0009640256757847965, 0.0010111507726833224, 0.0010582759277895093, 0.0011054010828956962, 0.001152526238001883, 0.001199651276692748, 0.001246776431798935, 0.0012939015869051218, 0.0013410267420113087, 0.0013881518971174955, 0.0014352770522236824, 0.0014824022073298693, 0.0015295273624360561, 0.001576652517542243, 0.001623777556233108, 0.001670902711339295, 0.0017180278664454818, 0.0017651530215516686, 0.0018122780602425337]}, "gradients/graph_1base.mlp.fc2.0.0.weight": {"_type": "histogram", "values": [1.0, 2.0, 1.0, 0.0, 0.0, 1.0, 2.0, 3.0, 4.0, 3.0, 3.0, 5.0, 7.0, 9.0, 2.0, 11.0, 11.0, 11.0, 18.0, 57.0, 63.0, 128.0, 52.0, 120.0, 205.0, 2307.0, 442.0, 138.0, 212.0, 120.0, 50.0, 23.0, 14.0, 17.0, 3.0, 4.0, 3.0, 3.0, 3.0, 2.0, 3.0, 5.0, 3.0, 2.0, 5.0, 1.0, 2.0, 0.0, 1.0, 2.0, 4.0, 1.0, 2.0, 0.0, 1.0, 1.0, 1.0, 0.0, 0.0, 0.0, 0.0, 1.0, 0.0, 1.0], "bins": [-0.004596808925271034, -0.004418098367750645, -0.0042393882758915424, -0.004060677718371153, -0.0038819676265120506, -0.003703257068991661, -0.003524546744301915, -0.0033458364196121693, -0.0031671260949224234, -0.0029884157702326775, -0.0028097054455429316, -0.0026309951208531857, -0.002452284563332796, -0.002273574471473694, -0.0020948639139533043, -0.0019161535892635584, -0.0017374432645738125, -0.0015587329398840666, -0.0013800226151943207, -0.001201312174089253, -0.001022601849399507, -0.0008438915247097611, -0.0006651810836046934, -0.0004864707589149475, -0.0003077604342252016, -0.00012905008043162525, 4.966027336195111e-05, 0.00022837065625935793, 0.00040708098094910383, 0.0005857913056388497, 0.0007645017467439175, 0.0009432120714336634, 0.001121921930462122, 0.0013006322551518679, 0.0014793425798416138, 0.0016580530209466815, 0.0018367633456364274, 0.002015473786741495, 0.002194184111431241, 0.002372894436120987, 0.002551604760810733, 0.0027303150855004787, 0.0029090254101902246, 0.0030877357348799706, 0.00326644629240036, 0.0034451563842594624, 0.003623866941779852, 0.003802577266469598, 0.003981287591159344, 0.004159998148679733, 0.0043387082405388355, 0.004517418798059225, 0.004696128889918327, 0.004874839447438717, 0.0050535500049591064, 0.005232260096818209, 0.005410970188677311, 0.0055896807461977005, 0.005768390838056803, 0.005947101395577192, 0.0061258114874362946, 0.006304522044956684, 0.006483232602477074, 0.006661942694336176, 0.0068406532518565655]}, "gradients/graph_1base.mlp.fc1.2.weight": {"_type": "histogram", "values": [2.0, 0.0, 1.0, 0.0, 0.0, 0.0, 0.0, 1.0, 0.0, 0.0, 0.0, 0.0, 1.0, 0.0, 0.0, 2.0, 1.0, 1.0, 2.0, 1.0, 1.0, 3.0, 2.0, 3.0, 2.0, 3.0, 5.0, 7.0, 0.0, 3.0, 1.0, 2.0, 1.0, 6.0, 2.0, 1.0, 1.0, 0.0, 1.0, 1.0, 0.0, 0.0, 0.0, 0.0, 0.0, 2.0, 2.0, 1.0, 0.0, 0.0, 0.0, 0.0, 0.0, 0.0, 0.0, 0.0, 0.0, 0.0, 0.0, 0.0, 1.0, 0.0, 0.0, 1.0], "bins": [-0.0016205136198550463, -0.0015623258659616113, -0.0015041381120681763, -0.001445950474590063, -0.001387762720696628, -0.001329574966803193, -0.001271387212909758, -0.001213199459016323, -0.00115501182153821, -0.001096824067644775, -0.00103863631375134, -0.0009804486762732267, -0.0009222609223797917, -0.0008640731684863567, -0.0008058854145929217, -0.0007476976606994867, -0.0006895099068060517, -0.0006313221529126167, -0.0005731344572268426, -0.0005149467033334076, -0.0004567589785438031, -0.00039857125375419855, -0.00034038349986076355, -0.000282195775071159, -0.00022400805028155446, -0.00016582032549194992, -0.00010763258615043014, -4.944484680891037e-05, 8.742877980694175e-06, 6.693060277029872e-05, 0.00012511835666373372, 0.00018330608145333827, 0.0002414938062429428, 0.00029968153103254735, 0.0003578692558221519, 0.0004160570097155869, 0.00047424473450519145, 0.000532432459294796, 0.000590620213188231, 0.000648807967081666, 0.0007069956627674401, 0.0007651834166608751, 0.0008233711123466492, 0.0008815588662400842, 0.0009397466201335192, 0.0009979342576116323, 0.0010561221279203892, 0.0011143097653985023, 0.0011724975192919374, 0.0012306852731853724, 0.0012888730270788074, 0.0013470607809722424, 0.0014052484184503555, 0.0014634361723437905, 0.0015216239262372255, 0.0015798116801306605, 0.0016379994340240955, 0.0016961871879175305, 0.0017543749418109655, 0.0018125625792890787, 0.0018707503331825137, 0.0019289380870759487, 0.001987125724554062, 0.0020453135948628187, 0.002103501232340932]}, "gradients/graph_1base.mlp.fc1.2.bias": {"_type": "histogram", "values": [1.0, 2.0, 0.0, 0.0, 1.0, 0.0, 0.0, 0.0, 0.0, 1.0, 0.0, 0.0, 0.0, 2.0, 1.0, 2.0, 1.0, 2.0, 4.0, 1.0, 0.0, 1.0, 2.0, 2.0, 1.0, 2.0, 2.0, 2.0, 4.0, 2.0, 3.0, 4.0, 2.0, 4.0, 0.0, 2.0, 6.0, 1.0, 1.0, 1.0, 1.0, 0.0, 1.0, 0.0, 0.0, 0.0, 0.0, 1.0, 0.0, 0.0, 0.0, 0.0, 0.0, 0.0, 0.0, 0.0, 0.0, 0.0, 0.0, 0.0, 0.0, 0.0, 0.0, 1.0], "bins": [-0.0018096192507073283, -0.001740944222547114, -0.0016722693108022213, -0.0016035942826420069, -0.0015349192544817924, -0.001466244226321578, -0.0013975693145766854, -0.001328894286416471, -0.0012602193746715784, -0.001191544346511364, -0.0011228694347664714, -0.001054194406606257, -0.0009855193784460425, -0.000916844408493489, -0.0008481694385409355, -0.0007794944103807211, -0.0007108193822205067, -0.0006421444122679532, -0.0005734693841077387, -0.0005047944141551852, -0.00043611941509880126, -0.0003674444160424173, -0.0002987694460898638, -0.0002300944470334798, -0.00016141944797709584, -9.274445619666949e-05, -2.4069464416243136e-05, 4.46055200882256e-05, 0.00011328051914460957, 0.00018195551820099354, 0.00025063048815354705, 0.000319305487209931, 0.0003879806026816368, 0.0004566556017380208, 0.0005253306007944047, 0.0005940055707469583, 0.0006626805989071727, 0.0007313555688597262, 0.0008000305388122797, 0.0008687055669724941, 0.0009373805369250476, 0.0010060555068776011, 0.0010747305350378156, 0.0011434054467827082, 0.0012120804749429226, 0.001280755503103137, 0.0013494305312633514, 0.001418105443008244, 0.0014867804711684585, 0.0015554554993286729, 0.0016241304110735655, 0.00169280543923378, 0.0017614804673939943, 0.0018301554955542088, 0.0018988304072991014, 0.001967505319043994, 0.0020361803472042084, 0.002104855375364423, 0.0021735304035246372, 0.002242205198854208, 0.0023108802270144224, 0.002379555255174637, 0.0024482302833348513, 0.0025169053114950657, 0.00258558033965528]}, "gradients/graph_1base.mlp.fc1.0.bias": {"_type": "histogram", "values": [1.0, 0.0, 0.0, 0.0, 0.0, 0.0, 0.0, 0.0, 0.0, 0.0, 0.0, 0.0, 0.0, 0.0, 0.0, 0.0, 0.0, 0.0, 1.0, 0.0, 1.0, 0.0, 0.0, 1.0, 2.0, 2.0, 0.0, 0.0, 0.0, 1.0, 0.0, 2.0, 0.0, 1.0, 3.0, 7.0, 15.0, 5.0, 2.0, 2.0, 2.0, 1.0, 4.0, 0.0, 0.0, 0.0, 0.0, 1.0, 2.0, 3.0, 1.0, 1.0, 0.0, 0.0, 1.0, 0.0, 1.0, 0.0, 0.0, 0.0, 0.0, 0.0, 0.0, 1.0], "bins": [-0.0008196922717615962, -0.0007971480954438448, -0.0007746038609184325, -0.0007520596846006811, -0.0007295155082829297, -0.0007069712737575173, -0.0006844270974397659, -0.0006618829211220145, -0.0006393387448042631, -0.0006167945684865117, -0.0005942503339610994, -0.000571706157643348, -0.0005491619813255966, -0.0005266177468001842, -0.0005040735704824328, -0.00048152939416468143, -0.0004589851596392691, -0.00043644095421768725, -0.00041389677789993584, -0.000391352572478354, -0.00036880839616060257, -0.0003462641907390207, -0.00032371998531743884, -0.00030117580899968743, -0.00027863160357810557, -0.0002560873981565237, -0.0002335432218387723, -0.00021099901641719043, -0.0001884548255475238, -0.00016591063467785716, -0.0001433664292562753, -0.00012082223838660866, -9.827804751694202e-05, -7.573385664727539e-05, -5.318965850165114e-05, -3.064546035602689e-05, -8.101269486360252e-06, 1.4442921383306384e-05, 3.698712680488825e-05, 5.9531317674554884e-05, 8.207550854422152e-05, 0.00010461969941388816, 0.0001271638902835548, 0.00014970809570513666, 0.0001722522865748033, 0.00019479647744446993, 0.0002173406828660518, 0.00023988487373571843, 0.00026242906460538507, 0.00028497327002696693, 0.00030751744634471834, 0.0003300616517663002, 0.0003526058280840516, 0.0003751500335056335, 0.00039769423892721534, 0.00042023841524496675, 0.0004427826206665486, 0.0004653268260881305, 0.0004878710024058819, 0.0005104151787236333, 0.0005329594132490456, 0.000555503589566797, 0.0005780478240922093, 0.0006005920004099607, 0.0006231361767277122]}, "gradients/graph_1base.mlp.fc1.0.weight": {"_type": "histogram", "values": [1.0, 0.0, 0.0, 0.0, 0.0, 0.0, 0.0, 0.0, 0.0, 0.0, 0.0, 0.0, 1.0, 0.0, 0.0, 1.0, 3.0, 0.0, 1.0, 1.0, 0.0, 0.0, 2.0, 4.0, 4.0, 8.0, 5.0, 0.0, 4.0, 14.0, 34.0, 65.0, 125.0, 609.0, 31852.0, 16290.0, 809.0, 225.0, 41.0, 17.0, 21.0, 11.0, 4.0, 3.0, 2.0, 2.0, 4.0, 3.0, 0.0, 2.0, 0.0, 2.0, 2.0, 0.0, 2.0, 0.0, 0.0, 1.0, 0.0, 0.0, 0.0, 0.0, 0.0, 1.0], "bins": [-0.013621686957776546, -0.013232361525297165, -0.012843036092817783, -0.012453710660338402, -0.012064384296536446, -0.011675058864057064, -0.011285733431577682, -0.010896407999098301, -0.01050708256661892, -0.010117757134139538, -0.009728431701660156, -0.0093391053378582, -0.008949779905378819, -0.008560454472899437, -0.008171129040420055, -0.007781803607940674, -0.007392477709800005, -0.007003152277320623, -0.0066138263791799545, -0.006224500946700573, -0.005835175514221191, -0.00544585008174181, -0.005056524183601141, -0.004667198751121759, -0.0042778728529810905, -0.0038885471876710653, -0.0034992217551916838, -0.0031098960898816586, -0.002720570657402277, -0.0023312449920922518, -0.0019419193267822266, -0.001552593894302845, -0.0011632684618234634, -0.00077394291292876, -0.00038461730582639575, 4.708301275968552e-06, 0.00039403385017067194, 0.0007833593990653753, 0.0011726850643754005, 0.001562010496854782, 0.0019513361621648073, 0.0023406618274748325, 0.002729987259954214, 0.0031193129252642393, 0.0035086385905742645, 0.003897964023053646, 0.004287289455533028, 0.004676614888012409, 0.005065940786153078, 0.00545526621863246, 0.0058445921167731285, 0.00623391754925251, 0.006623242981731892, 0.007012568414211273, 0.007401894312351942, 0.007791219744831324, 0.008180545642971992, 0.008569871075451374, 0.008959196507930756, 0.009348522871732712, 0.009737848304212093, 0.010127173736691475, 0.010516499169170856, 0.010905824601650238, 0.01129515003412962]}, "gradients/graph_1base.feature_norm.weight": {"_type": "histogram", "values": [1.0, 0.0, 0.0, 0.0, 0.0, 0.0, 0.0, 0.0, 0.0, 0.0, 0.0, 0.0, 0.0, 0.0, 0.0, 0.0, 0.0, 0.0, 0.0, 0.0, 0.0, 0.0, 0.0, 0.0, 0.0, 0.0, 0.0, 0.0, 0.0, 1.0, 0.0, 0.0, 0.0, 0.0, 1.0, 4.0, 6.0, 69.0, 644.0, 45.0, 8.0, 1.0, 1.0, 1.0, 0.0, 0.0, 1.0, 0.0, 0.0, 0.0, 0.0, 0.0, 0.0, 0.0, 0.0, 0.0, 0.0, 0.0, 0.0, 0.0, 0.0, 0.0, 0.0, 1.0], "bins": [-0.0042708395048975945, -0.004159756936132908, -0.004048674833029509, -0.003937592264264822, -0.0038265101611614227, -0.003715427592396736, -0.003604345256462693, -0.0034932629205286503, -0.0033821805845946074, -0.0032710982486605644, -0.0031600159127265215, -0.0030489335767924786, -0.002937851008027792, -0.0028267689049243927, -0.002715686336159706, -0.002604604000225663, -0.0024935216642916203, -0.0023824393283575773, -0.0022713569924235344, -0.0021602746564894915, -0.0020491923205554485, -0.0019381098682060838, -0.001827027415856719, -0.001715945079922676, -0.0016048627439886332, -0.0014937804080545902, -0.0013826980721205473, -0.0012716156197711825, -0.0011605332838371396, -0.0010494509479030967, -0.0009383685537613928, -0.000827286159619689, -0.0007162035908550024, -0.0006051212549209595, -0.0004940388607792556, -0.00038295649574138224, -0.00027187413070350885, -0.00016079179476946592, -4.970940062776208e-05, 6.137299351394176e-05, 0.0001724553294479847, 0.0002835376944858581, 0.00039462005952373147, 0.0005057024536654353, 0.0006167847895994782, 0.0007278671255335212, 0.000838949519675225, 0.0009500319138169289, 0.0010611142497509718, 0.0011721965856850147, 0.0012832789216190577, 0.0013943613739684224, 0.0015054437099024653, 0.0016165260458365083, 0.001727608498185873, 0.001838690834119916, 0.001949773170053959, 0.002060855505988002, 0.0021719378419220448, 0.0022830201778560877, 0.0023941025137901306, 0.002505185082554817, 0.00261626741848886, 0.002727349754422903, 0.002838432090356946]}, "gradients/graph_1base.feature_norm.bias": {"_type": "histogram", "values": [1.0, 0.0, 0.0, 0.0, 0.0, 0.0, 0.0, 1.0, 1.0, 2.0, 0.0, 0.0, 2.0, 1.0, 4.0, 2.0, 6.0, 6.0, 12.0, 11.0, 14.0, 17.0, 21.0, 23.0, 26.0, 36.0, 32.0, 28.0, 32.0, 47.0, 41.0, 39.0, 49.0, 38.0, 30.0, 41.0, 28.0, 33.0, 17.0, 23.0, 26.0, 8.0, 19.0, 9.0, 11.0, 14.0, 7.0, 5.0, 5.0, 1.0, 2.0, 4.0, 3.0, 2.0, 0.0, 2.0, 1.0, 0.0, 0.0, 0.0, 0.0, 0.0, 0.0, 1.0], "bins": [-0.00036998919676989317, -0.0003584314836189151, -0.000346873770467937, -0.0003353160573169589, -0.00032375831506215036, -0.00031220060191117227, -0.0003006428887601942, -0.0002890851756092161, -0.000277527462458238, -0.0002659697493072599, -0.00025441203615628183, -0.0002428543084533885, -0.00023129659530241042, -0.0002197388675995171, -0.00020818115444853902, -0.00019662344129756093, -0.0001850657135946676, -0.00017350800044368953, -0.0001619502727407962, -0.00015039255958981812, -0.00013883484643884003, -0.00012727713328786194, -0.00011571940558496863, -0.00010416169243399054, -9.260397200705484e-05, -8.104625158011913e-05, -6.948853842914104e-05, -5.793081800220534e-05, -4.6373101213248447e-05, -3.481538442429155e-05, -2.325766399735585e-05, -1.169995084637776e-05, -1.422304194420576e-07, 1.141548727900954e-05, 2.2973204977461137e-05, 3.4530923585407436e-05, 4.608864037436433e-05, 5.764635716332123e-05, 6.920407759025693e-05, 8.076179074123502e-05, 9.231951116817072e-05, 0.00010387723159510642, 0.00011543494474608451, 0.00012699267244897783, 0.00013855038559995592, 0.000150108098750934, 0.0001616658119019121, 0.00017322352505289018, 0.0001847812527557835, 0.0001963389659067616, 0.0002078966936096549, 0.000219454406760633, 0.00023101211991161108, 0.00024256983306258917, 0.00025412754621356726, 0.00026568525936454535, 0.0002772430016193539, 0.000288800714770332, 0.00030035842792131007, 0.0003119161701761186, 0.0003234738833270967, 0.0003350315964780748, 0.0003465893096290529, 0.00035814702278003097, 0.00036970473593100905]}, "_wandb": {"runtime": 11819}}