{"value_loss": 0.19998469352722167, "_timestamp": 1665208145.0383158, "_runtime": 12777.516311883926, "policy_loss": -0.0008015877959858031, "dist_entropy": 0.9455874979496002, "actor_grad_norm": 0.0688990131020546, "critic_grad_norm": 0.14506883919239044, "ratio": 0.9999675750732422, "sm3_ratio_mean": 0.10030158730157959, "drop_ratio_mean": 0.011185110546648502, "drop_ratio_std": 0.10398657619953156, "drop_ratio_min": 0.0, "drop_ratio_max": 1.0, "ue_drop_ratio_mean": 0.007613750750512187, "ue_drop_ratio_std": 0.07630948725493046, "ue_drop_ratio_min": 0.0, "ue_drop_ratio_max": 0.9999990000010001, "delay_ratio_mean": 0.08638715744018555, "delay_ratio_std": 0.11445478349924088, "delay_ratio_min": 0.0, "delay_ratio_max": 1.0, "qos_reward_mean": -0.005257997200597363, "qos_reward_std": 0.07394109092955833, "qos_reward_min": -0.9999990000010001, "qos_reward_max": 0.003933329396526999, "pc_kw_mean": 0.22231705132257373, "pc_kw_std": 0.04180378634982228, "pc_kw_min": 0.11416983795166016, "pc_kw_max": 0.672208984375, "reward_mean": -0.24860703732556055, "reward_std": 0.37095057082912386, "reward_min": -5.272995061040157, "reward_max": -0.11416983795166016, "_step": 2520000, "gradients/act.action_outs.2.linear.bias": {"_type": "histogram", "values": [1.0, 0.0, 0.0, 0.0, 0.0, 0.0, 0.0, 0.0, 0.0, 0.0, 0.0, 0.0, 0.0, 0.0, 0.0, 0.0, 0.0, 0.0, 0.0, 0.0, 0.0, 0.0, 0.0, 0.0, 0.0, 0.0, 0.0, 0.0, 0.0, 0.0, 0.0, 0.0, 0.0, 0.0, 0.0, 0.0, 0.0, 0.0, 0.0, 0.0, 0.0, 0.0, 0.0, 0.0, 0.0, 0.0, 0.0, 0.0, 0.0, 0.0, 0.0, 0.0, 0.0, 1.0, 0.0, 0.0, 0.0, 0.0, 0.0, 0.0, 0.0, 0.0, 0.0, 1.0], "bins": [-0.002379966201260686, -0.0023192474618554115, -0.002258528722450137, -0.0021978099830448627, -0.0021370912436395884, -0.002076372504234314, -0.0020156537648290396, -0.001954935025423765, -0.001894216169603169, -0.0018334974301978946, -0.0017727786907926202, -0.0017120599513873458, -0.0016513410955667496, -0.0015906223561614752, -0.0015299036167562008, -0.0014691848773509264, -0.001408466137945652, -0.0013477473985403776, -0.0012870286591351032, -0.0012263099197298288, -0.0011655911803245544, -0.00110487244091928, -0.0010441535850986838, -0.0009834348456934094, -0.000922716106288135, -0.0008619973668828607, -0.0008012786274775863, -0.000740559829864651, -0.0006798410904593766, -0.0006191223510541022, -0.0005584035534411669, -0.0004976848140358925, -0.0004369661910459399, -0.00037624745164066553, -0.0003155286831315607, -0.00025480991462245584, -0.00019409117521718144, -0.00013337243581190705, -7.26536673028022e-05, -1.1934898793697357e-05, 4.8783840611577034e-05, 0.00010950259456876665, 0.00017022134852595627, 0.0002309401024831459, 0.0002916588564403355, 0.0003523775958456099, 0.00041309636435471475, 0.0004738151328638196, 0.000534533872269094, 0.0005952526116743684, 0.0006559713510796428, 0.0007166901486925781, 0.0007774088880978525, 0.0008381276275031269, 0.0008988464251160622, 0.0009595651645213366, 0.001020283903926611, 0.0010810026433318853, 0.0011417213827371597, 0.0012024401221424341, 0.0012631588615477085, 0.001323877600952983, 0.0013845964567735791, 0.0014453151961788535, 0.001506033935584128]}, "gradients/act.action_outs.2.linear.weight": {"_type": "histogram", "values": [2.0, 0.0, 0.0, 0.0, 0.0, 0.0, 0.0, 0.0, 0.0, 0.0, 0.0, 0.0, 0.0, 0.0, 0.0, 0.0, 0.0, 0.0, 2.0, 0.0, 2.0, 0.0, 0.0, 2.0, 1.0, 3.0, 2.0, 2.0, 3.0, 2.0, 10.0, 23.0, 21.0, 20.0, 8.0, 5.0, 3.0, 4.0, 4.0, 9.0, 6.0, 5.0, 12.0, 21.0, 8.0, 4.0, 0.0, 2.0, 2.0, 1.0, 0.0, 1.0, 0.0, 0.0, 0.0, 0.0, 0.0, 0.0, 1.0, 0.0, 0.0, 0.0, 0.0, 1.0], "bins": [-0.008101223967969418, -0.00787617638707161, -0.007651128340512514, -0.007426080293953419, -0.007201032247394323, -0.006975984200835228, -0.00675093661993742, -0.0065258885733783245, -0.006300840526819229, -0.006075792480260134, -0.005850744899362326, -0.00562569685280323, -0.005400648806244135, -0.0051756007596850395, -0.0049505531787872314, -0.004725505132228136, -0.004500457551330328, -0.004275409504771233, -0.0040503619238734245, -0.003825313877314329, -0.0036002658307552338, -0.003375218017026782, -0.0031501702032983303, -0.002925122156739235, -0.002700074343010783, -0.0024750265292823315, -0.002249978482723236, -0.0020249306689947844, -0.0017998827388510108, -0.0015748348087072372, -0.0013497869949787855, -0.001124739064835012, -0.0008996906690299511, -0.0006746427388861775, -0.0004495948669500649, -0.00022454699501395226, 5.009351298213005e-07, 0.00022554886527359486, 0.0004505966790020466, 0.0006756446091458201, 0.0009006925392895937, 0.0011257404694333673, 0.0013507883995771408, 0.0015758362133055925, 0.001800884143449366, 0.0020259320735931396, 0.0022509798873215914, 0.002476027701050043, 0.0027010757476091385, 0.0029261235613375902, 0.0031511716078966856, 0.0033762194216251373, 0.0036012674681842327, 0.0038263152819126844, 0.004051363095641136, 0.0042764111422002316, 0.004501459188759327, 0.004726507235318422, 0.00495155481621623, 0.005176602862775326, 0.005401650909334421, 0.0056266989558935165, 0.005851746536791325, 0.00607679458335042, 0.006301842164248228]}, "gradients/act.action_outs.1.linear.bias": {"_type": "histogram", "values": [1.0, 0.0, 0.0, 0.0, 0.0, 0.0, 0.0, 0.0, 0.0, 0.0, 0.0, 0.0, 0.0, 0.0, 0.0, 0.0, 0.0, 1.0, 0.0, 0.0, 0.0, 0.0, 0.0, 0.0, 0.0, 0.0, 0.0, 0.0, 0.0, 0.0, 0.0, 0.0, 0.0, 0.0, 0.0, 0.0, 0.0, 0.0, 0.0, 0.0, 0.0, 0.0, 0.0, 0.0, 0.0, 0.0, 1.0, 0.0, 0.0, 0.0, 0.0, 0.0, 0.0, 0.0, 0.0, 0.0, 0.0, 0.0, 0.0, 0.0, 0.0, 0.0, 0.0, 1.0], "bins": [-0.0009903787868097425, -0.0009595337905921042, -0.0009286888525821269, -0.0008978438563644886, -0.0008669989183545113, -0.000836153922136873, -0.0008053089259192348, -0.0007744639879092574, -0.0007436189916916192, -0.0007127739954739809, -0.0006819290574640036, -0.0006510840612463653, -0.0006202390650287271, -0.0005893941270187497, -0.0005585491308011115, -0.0005277041345834732, -0.0004968591965734959, -0.00046601422945968807, -0.00043516926234588027, -0.000404324266128242, -0.0003734792990144342, -0.0003426343319006264, -0.00031178933568298817, -0.00028094436856918037, -0.00025009940145537257, -0.00021925443434156477, -0.00018840945267584175, -0.00015756447101011872, -0.00012671950389631093, -9.587453678250313e-05, -6.50295551167801e-05, -3.4184573451057076e-05, -3.339489921927452e-06, 2.750548446783796e-05, 5.835045885760337e-05, 8.919543324736878e-05, 0.0001200404076371342, 0.000150885374750942, 0.00018173035641666502, 0.00021257533808238804, 0.00024342030519619584, 0.00027426527231000364, 0.00030511023942381144, 0.0003359552356414497, 0.0003668002027552575, 0.0003976451698690653, 0.00042849016608670354, 0.00045933513320051134, 0.0004901801003143191, 0.0005210250965319574, 0.0005518700345419347, 0.000582715030759573, 0.0006135599687695503, 0.0006444049649871886, 0.0006752499612048268, 0.0007060948992148042, 0.0007369398954324424, 0.0007677848916500807, 0.000798629829660058, 0.0008294748258776963, 0.0008603198220953345, 0.0008911647601053119, 0.0009220097563229501, 0.0009528547525405884, 0.0009836996905505657]}, "gradients/act.action_outs.1.linear.weight": {"_type": "histogram", "values": [1.0, 0.0, 0.0, 0.0, 0.0, 1.0, 0.0, 0.0, 1.0, 0.0, 0.0, 1.0, 0.0, 1.0, 1.0, 2.0, 3.0, 4.0, 10.0, 6.0, 11.0, 23.0, 10.0, 32.0, 15.0, 15.0, 26.0, 28.0, 14.0, 26.0, 8.0, 2.0, 3.0, 5.0, 1.0, 1.0, 0.0, 1.0, 2.0, 0.0, 0.0, 0.0, 0.0, 0.0, 0.0, 0.0, 0.0, 1.0, 0.0, 0.0, 0.0, 0.0, 0.0, 0.0, 0.0, 0.0, 0.0, 0.0, 0.0, 0.0, 0.0, 0.0, 0.0, 1.0], "bins": [-0.004397131036967039, -0.004222405143082142, -0.004047679249197245, -0.0038729531224817038, -0.0036982272285968065, -0.0035235013347119093, -0.0033487752079963684, -0.003174049314111471, -0.002999323420226574, -0.0028245975263416767, -0.0026498716324567795, -0.0024751455057412386, -0.0023004196118563414, -0.002125693717971444, -0.001950967707671225, -0.001776241697371006, -0.0016015158034861088, -0.0014267899096012115, -0.0012520638993009925, -0.0010773378890007734, -0.0009026119951158762, -0.000727886043023318, -0.0005531600909307599, -0.00037843408063054085, -0.00020370818674564362, -2.898223465308547e-05, 0.00014574371743947268, 0.0003204696695320308, 0.000495195621624589, 0.0006699215737171471, 0.0008446475258097053, 0.0010193735361099243, 0.0011940989643335342, 0.0013688248582184315, 0.0015435508685186505, 0.0017182768788188696, 0.0018930027727037668, 0.002067728666588664, 0.002242454793304205, 0.002417180687189102, 0.0025919065810739994, 0.0027666324749588966, 0.002941358368843794, 0.0031160844955593348, 0.003290810389444232, 0.0034655362833291292, 0.00364026241004467, 0.0038149883039295673, 0.003989714197814465, 0.004164440091699362, 0.004339165985584259, 0.004513891879469156, 0.0046886177733540535, 0.004863344132900238, 0.005038070026785135, 0.0052127959206700325, 0.00538752181455493, 0.005562247708439827, 0.005736973602324724, 0.005911699496209621, 0.006086425855755806, 0.006261151749640703, 0.0064358776435256, 0.006610603537410498, 0.006785329431295395]}, "gradients/act.action_outs.0.linear.bias": {"_type": "histogram", "values": [1.0, 0.0, 0.0, 0.0, 0.0, 0.0, 0.0, 0.0, 0.0, 0.0, 0.0, 0.0, 0.0, 0.0, 0.0, 0.0, 0.0, 0.0, 0.0, 0.0, 0.0, 0.0, 0.0, 0.0, 0.0, 0.0, 0.0, 0.0, 0.0, 0.0, 1.0, 0.0, 0.0, 0.0, 0.0, 0.0, 0.0, 0.0, 0.0, 0.0, 0.0, 0.0, 0.0, 0.0, 0.0, 0.0, 0.0, 0.0, 0.0, 0.0, 0.0, 0.0, 0.0, 0.0, 0.0, 0.0, 0.0, 0.0, 0.0, 0.0, 0.0, 0.0, 0.0, 1.0], "bins": [-0.0036015585064888, -0.0034870088566094637, -0.003372459439560771, -0.0032579097896814346, -0.0031433601398020983, -0.0030288107227534056, -0.002914261072874069, -0.0027997116558253765, -0.00268516200594604, -0.002570612356066704, -0.002456062939018011, -0.0023415132891386747, -0.0022269636392593384, -0.0021124142222106457, -0.0019978645723313093, -0.0018833150388672948, -0.0017687653889879584, -0.001654215855523944, -0.0015396662056446075, -0.001425116672180593, -0.0013105671387165785, -0.0011960174888372421, -0.0010814679553732276, -0.0009669184219092131, -0.0008523688302375376, -0.0007378192385658622, -0.0006232697051018476, -0.0005087201134301722, -0.0003941705508623272, -0.00027962098829448223, -0.0001650713966228068, -5.052186315879226e-05, 6.402772851288319e-05, 0.00017857729108072817, 0.00029312685364857316, 0.0004076764453202486, 0.0005222259787842631, 0.0006367755704559386, 0.000751325162127614, 0.0008658746955916286, 0.000980424229055643, 0.0010949737625196576, 0.001209523412398994, 0.0013240729458630085, 0.001438622479327023, 0.0015531720127910376, 0.001667721662670374, 0.0017822711961343884, 0.0018968208460137248, 0.0020113703794777393, 0.0021259200293570757, 0.002240469679236412, 0.0023550190962851048, 0.002469568746164441, 0.0025841183960437775, 0.00269866781309247, 0.0028132174629718065, 0.002927767112851143, 0.0030423165298998356, 0.003156866179779172, 0.0032714158296585083, 0.003385965246707201, 0.0035005148965865374, 0.0036150645464658737, 0.0037296139635145664]}, "gradients/act.action_outs.0.linear.weight": {"_type": "histogram", "values": [2.0, 0.0, 0.0, 0.0, 0.0, 0.0, 1.0, 0.0, 0.0, 1.0, 1.0, 2.0, 0.0, 0.0, 2.0, 0.0, 0.0, 2.0, 3.0, 8.0, 16.0, 3.0, 10.0, 2.0, 3.0, 3.0, 4.0, 7.0, 12.0, 27.0, 9.0, 8.0, 3.0, 6.0, 4.0, 2.0, 5.0, 7.0, 5.0, 23.0, 0.0, 2.0, 0.0, 2.0, 1.0, 1.0, 0.0, 1.0, 0.0, 0.0, 1.0, 1.0, 0.0, 0.0, 0.0, 0.0, 0.0, 1.0, 0.0, 0.0, 0.0, 0.0, 0.0, 1.0], "bins": [-0.009098956361413002, -0.008791225962340832, -0.008483496494591236, -0.008175766095519066, -0.007868035696446896, -0.007560305763036013, -0.00725257582962513, -0.0069448454305529594, -0.0066371154971420765, -0.0063293855637311935, -0.006021655164659023, -0.00571392523124814, -0.005406195297837257, -0.005098464898765087, -0.004790734965354204, -0.004483005031943321, -0.004175274632871151, -0.0038675444666296244, -0.0035598143003880978, -0.003252084366977215, -0.002944354200735688, -0.0026366240344941616, -0.0023288941010832787, -0.002021163934841752, -0.0017134337686002254, -0.0014057036023586988, -0.001097973552532494, -0.0007902434444986284, -0.0004825133364647627, -0.00017478317022323608, 0.0001329468796029687, 0.00044067692942917347, 0.0007484080269932747, 0.0010561381932348013, 0.001363868243061006, 0.0016715982928872108, 0.0019793284591287374, 0.002287058625370264, 0.002594788558781147, 0.0029025187250226736, 0.0032102488912642, 0.003517979057505727, 0.0038257092237472534, 0.004133439157158136, 0.004441169090569019, 0.00474889948964119, 0.0050566294230520725, 0.0053643593564629555, 0.005672089755535126, 0.005979819688946009, 0.006287550088018179, 0.006595280021429062, 0.006903010420501232, 0.007210740353912115, 0.007518470287322998, 0.007826200686395168, 0.008133931085467339, 0.008441661484539509, 0.008749390952289104, 0.009057121351361275, 0.009364851750433445, 0.009672582149505615, 0.009980311617255211, 0.010288042016327381, 0.010595771484076977]}, "gradients/base.mlp.fc2.0.2.weight": {"_type": "histogram", "values": [1.0, 1.0, 0.0, 2.0, 2.0, 5.0, 1.0, 3.0, 2.0, 5.0, 8.0, 8.0, 4.0, 1.0, 4.0, 2.0, 2.0, 2.0, 2.0, 2.0, 3.0, 0.0, 0.0, 2.0, 0.0, 1.0, 0.0, 0.0, 0.0, 0.0, 0.0, 0.0, 0.0, 0.0, 0.0, 0.0, 0.0, 0.0, 0.0, 0.0, 0.0, 0.0, 0.0, 0.0, 0.0, 0.0, 0.0, 0.0, 0.0, 0.0, 0.0, 0.0, 0.0, 0.0, 0.0, 0.0, 0.0, 0.0, 0.0, 0.0, 0.0, 0.0, 0.0, 1.0], "bins": [-0.00020741319167427719, -0.00019016207079403102, -0.00017291094991378486, -0.00015565981448162347, -0.0001384086936013773, -0.00012115757272113115, -0.00010390644456492737, -8.665531640872359e-05, -6.940419552847743e-05, -5.215307101025246e-05, -3.490194649202749e-05, -1.7650821973802522e-05, -3.996974555775523e-07, 1.685142342466861e-05, 3.410255158087239e-05, 5.135367973707616e-05, 6.860480061732233e-05, 8.585592149756849e-05, 0.00010310704965377226, 0.00012035817780997604, 0.0001376092986902222, 0.00015486041957046837, 0.00017211155500262976, 0.00018936267588287592, 0.00020661379676312208, 0.00022386491764336824, 0.0002411160385236144, 0.00025836715940386057, 0.00027561828028410673, 0.0002928694011643529, 0.0003101205511484295, 0.0003273716720286757, 0.0003446228220127523, 0.00036187394289299846, 0.0003791250637732446, 0.0003963761846534908, 0.00041362730553373694, 0.0004308784264139831, 0.0004481295763980597, 0.0004653806972783059, 0.00048263181815855205, 0.0004998829681426287, 0.0005171340890228748, 0.000534385209903121, 0.0005516363307833672, 0.0005688874516636133, 0.0005861385725438595, 0.0006033896934241056, 0.0006206408143043518, 0.000637891935184598, 0.0006551430560648441, 0.0006723941769450903, 0.0006896452978253365, 0.0007068964187055826, 0.0007241475395858288, 0.0007413986604660749, 0.0007586497813463211, 0.0007759009022265673, 0.0007931520231068134, 0.0008104031439870596, 0.0008276542648673058, 0.0008449053857475519, 0.0008621565066277981, 0.0008794076275080442, 0.0008966588065959513]}, "gradients/base.mlp.fc2.0.2.bias": {"_type": "histogram", "values": [1.0, 0.0, 0.0, 0.0, 0.0, 0.0, 0.0, 0.0, 0.0, 0.0, 0.0, 0.0, 1.0, 1.0, 0.0, 0.0, 1.0, 0.0, 0.0, 0.0, 0.0, 0.0, 0.0, 1.0, 2.0, 0.0, 0.0, 2.0, 0.0, 1.0, 0.0, 3.0, 1.0, 2.0, 2.0, 2.0, 3.0, 4.0, 3.0, 5.0, 3.0, 6.0, 2.0, 3.0, 1.0, 3.0, 2.0, 6.0, 0.0, 1.0, 0.0, 0.0, 0.0, 0.0, 0.0, 0.0, 0.0, 0.0, 0.0, 0.0, 1.0, 0.0, 0.0, 1.0], "bins": [-0.0005867537693120539, -0.0005711670964956284, -0.0005555803654715419, -0.0005399936926551163, -0.0005244070198386908, -0.0005088203470222652, -0.0004932336159981787, -0.00047764694318175316, -0.0004620602703653276, -0.0004464735684450716, -0.000430886895628646, -0.00041530019370839, -0.00039971352089196444, -0.0003841268189717084, -0.0003685401170514524, -0.00035295344423502684, -0.0003373667423147708, -0.0003217800403945148, -0.00030619336757808924, -0.0002906066656578332, -0.00027501999284140766, -0.00025943329092115164, -0.00024384660355281085, -0.00022825991618447006, -0.00021267322881612927, -0.00019708654144778848, -0.0001814998540794477, -0.0001659131667111069, -0.00015032646479085088, -0.00013473979197442532, -0.0001191530900541693, -0.00010356640268582851, -8.797974442131817e-05, -7.239305705297738e-05, -5.6806366046657786e-05, -4.121967504033819e-05, -2.5632987671997398e-05, -1.0046300303656608e-05, 5.540394340641797e-06, 2.1127081708982587e-05, 3.671376907732338e-05, 5.230045644566417e-05, 6.788714381400496e-05, 8.347383845830336e-05, 9.906052582664415e-05, 0.00011464721319498494, 0.00013023390783928335, 0.00014582059520762414, 0.00016140728257596493, 0.00017699396994430572, 0.0001925806573126465, 0.00020816735923290253, 0.0002237540320493281, 0.0002393407339695841, 0.0002549274358898401, 0.0002705141087062657, 0.00028610078152269125, 0.00030168748344294727, 0.00031727415625937283, 0.00033286085817962885, 0.0003484475309960544, 0.00036403423291631043, 0.00037962093483656645, 0.000395207607652992, 0.00041079430957324803]}, "gradients/base.mlp.fc2.0.0.bias": {"_type": "histogram", "values": [1.0, 0.0, 0.0, 0.0, 0.0, 0.0, 0.0, 1.0, 0.0, 1.0, 1.0, 2.0, 0.0, 0.0, 0.0, 0.0, 1.0, 1.0, 0.0, 0.0, 2.0, 0.0, 2.0, 1.0, 1.0, 3.0, 5.0, 3.0, 14.0, 9.0, 4.0, 0.0, 1.0, 1.0, 0.0, 3.0, 0.0, 1.0, 0.0, 1.0, 1.0, 0.0, 1.0, 1.0, 0.0, 0.0, 0.0, 0.0, 0.0, 0.0, 0.0, 0.0, 0.0, 0.0, 0.0, 0.0, 0.0, 1.0, 0.0, 0.0, 0.0, 0.0, 0.0, 1.0], "bins": [-0.0004148983280174434, -0.00040046783396974206, -0.00038603731081821024, -0.0003716068167705089, -0.00035717629361897707, -0.0003427457995712757, -0.00032831530552357435, -0.00031388478237204254, -0.0002994542592205107, -0.00028502376517280936, -0.00027059324202127755, -0.0002561627479735762, -0.00024173222482204437, -0.00022730173077434301, -0.00021287122217472643, -0.00019844071357510984, -0.00018401021952740848, -0.0001695797109277919, -0.0001551492023281753, -0.00014071870828047395, -0.00012628818512894213, -0.00011185768380528316, -9.742718248162419e-05, -8.29966738820076e-05, -6.856616528239101e-05, -5.4135656682774425e-05, -3.9705151721136644e-05, -2.5274646759498864e-05, -1.0844138159882277e-05, 3.58637043973431e-06, 1.8016871763393283e-05, 3.244738036300987e-05, 4.687788896262646e-05, 6.130839756224304e-05, 7.573890616185963e-05, 9.01694074855186e-05, 0.00010459991608513519, 0.00011903042468475178, 0.00013346092600841075, 0.00014789143460802734, 0.00016232194320764393, 0.0001767524518072605, 0.0001911829604068771, 0.0002056134690064937, 0.00022004396305419505, 0.00023447448620572686, 0.0002489049802534282, 0.0002633354743011296, 0.0002777659974526614, 0.00029219649150036275, 0.00030662701465189457, 0.00032105750869959593, 0.00033548803185112774, 0.0003499185258988291, 0.0003643490490503609, 0.0003787795430980623, 0.00039321003714576364, 0.000407640531193465, 0.0004220710543449968, 0.00043650154839269817, 0.00045093207154423, 0.00046536256559193134, 0.0004797930596396327, 0.0004942235536873341, 0.0005086541059426963]}, "gradients/base.mlp.fc2.0.0.weight": {"_type": "histogram", "values": [2.0, 0.0, 0.0, 2.0, 0.0, 0.0, 1.0, 0.0, 4.0, 3.0, 3.0, 3.0, 4.0, 3.0, 9.0, 4.0, 24.0, 25.0, 28.0, 26.0, 29.0, 35.0, 81.0, 137.0, 212.0, 400.0, 1948.0, 463.0, 229.0, 119.0, 72.0, 100.0, 35.0, 30.0, 28.0, 7.0, 3.0, 3.0, 3.0, 0.0, 1.0, 1.0, 2.0, 4.0, 3.0, 2.0, 1.0, 1.0, 2.0, 0.0, 0.0, 0.0, 0.0, 0.0, 1.0, 0.0, 1.0, 0.0, 0.0, 0.0, 0.0, 0.0, 1.0, 1.0], "bins": [-0.0010937154293060303, -0.001052413834258914, -0.0010111121227964759, -0.0009698104695416987, -0.0009285088162869215, -0.0008872071630321443, -0.0008459055097773671, -0.0008046038565225899, -0.0007633022032678127, -0.0007220005500130355, -0.0006806988967582583, -0.0006393972435034811, -0.000598095590248704, -0.0005567939369939268, -0.0005154922837391496, -0.0004741906304843724, -0.0004328889772295952, -0.000391587323974818, -0.0003502856707200408, -0.0003089840174652636, -0.0002676823642104864, -0.00022638071095570922, -0.00018507905770093203, -0.00014377740444615483, -0.00010247575119137764, -6.117409793660045e-05, -1.9872444681823254e-05, 2.142920857295394e-05, 6.273086182773113e-05, 0.00010403251508250833, 0.00014533416833728552, 0.0001866358215920627, 0.00022793735843151808, 0.00026923901168629527, 0.00031054066494107246, 0.00035184231819584966, 0.00039314397145062685, 0.00043444562470540404, 0.00047574727796018124, 0.0005170489312149584, 0.0005583505844697356, 0.0005996522377245128, 0.00064095389097929, 0.0006822555442340672, 0.0007235571974888444, 0.0007648588507436216, 0.0008061605039983988, 0.000847462157253176, 0.0008887638105079532, 0.0009300654637627304, 0.0009713671170175076, 0.0010126687120646238, 0.001053970423527062, 0.0010952721349895, 0.0011365737300366163, 0.0011778753250837326, 0.0012191770365461707, 0.0012604787480086088, 0.001301780343055725, 0.0013430819381028414, 0.0013843836495652795, 0.0014256853610277176, 0.0014669869560748339, 0.0015082885511219501, 0.0015495902625843883]}, "gradients/base.mlp.fc1.2.weight": {"_type": "histogram", "values": [1.0, 0.0, 0.0, 0.0, 1.0, 0.0, 1.0, 0.0, 0.0, 0.0, 0.0, 0.0, 0.0, 0.0, 2.0, 1.0, 0.0, 0.0, 2.0, 0.0, 0.0, 3.0, 2.0, 1.0, 2.0, 5.0, 1.0, 4.0, 1.0, 4.0, 7.0, 3.0, 4.0, 3.0, 4.0, 1.0, 2.0, 3.0, 0.0, 0.0, 0.0, 0.0, 1.0, 1.0, 0.0, 0.0, 0.0, 0.0, 0.0, 0.0, 0.0, 1.0, 0.0, 0.0, 0.0, 0.0, 0.0, 1.0, 0.0, 0.0, 1.0, 0.0, 0.0, 1.0], "bins": [-0.0005472739576362073, -0.0005288723623380065, -0.0005104707670398057, -0.0004920692299492657, -0.00047366763465106487, -0.000455266039352864, -0.0004368644440546632, -0.00041846284875646234, -0.00040006128256209195, -0.0003816596872638911, -0.0003632581210695207, -0.00034485652577131987, -0.000326454930473119, -0.00030805336427874863, -0.0002896517689805478, -0.0002712502027861774, -0.00025284860748797655, -0.00023444702674169093, -0.00021604544599540532, -0.00019764385069720447, -0.00017924226995091885, -0.00016084068920463324, -0.0001424390939064324, -0.00012403751316014677, -0.00010563593241386116, -8.723435166757554e-05, -6.88327636453323e-05, -5.043117926106788e-05, -3.202959487680346e-05, -1.362801413051784e-05, 4.773573891725391e-06, 2.3175161913968623e-05, 4.1576800867915154e-05, 5.997838525217958e-05, 7.8379969636444e-05, 9.678155765868723e-05, 0.00011518313840497285, 0.00013358471915125847, 0.00015198631444945931, 0.00017038789519574493, 0.00018878947594203055, 0.00020719105668831617, 0.00022559263743460178, 0.00024399423273280263, 0.0002623958280310035, 0.00028079739422537386, 0.0002991989895235747, 0.0003176005557179451, 0.00033600215101614594, 0.0003544037463143468, 0.0003728053125087172, 0.000391206907806918, 0.0004096084740012884, 0.00042801006929948926, 0.0004464116645976901, 0.00046481325989589095, 0.00048321482609026134, 0.0005016163922846317, 0.0005200179875828326, 0.0005384195828810334, 0.0005568211781792343, 0.0005752227734774351, 0.000593624310567975, 0.0006120259058661759, 0.0006304275011643767]}, "gradients/base.mlp.fc1.2.bias": {"_type": "histogram", "values": [1.0, 0.0, 0.0, 0.0, 0.0, 0.0, 0.0, 0.0, 0.0, 1.0, 0.0, 0.0, 0.0, 0.0, 0.0, 0.0, 0.0, 1.0, 0.0, 0.0, 0.0, 1.0, 0.0, 1.0, 1.0, 0.0, 0.0, 0.0, 4.0, 3.0, 2.0, 1.0, 3.0, 3.0, 1.0, 4.0, 3.0, 3.0, 0.0, 5.0, 4.0, 3.0, 1.0, 2.0, 0.0, 4.0, 3.0, 1.0, 2.0, 2.0, 0.0, 0.0, 0.0, 1.0, 1.0, 0.0, 0.0, 1.0, 0.0, 0.0, 0.0, 0.0, 0.0, 1.0], "bins": [-0.0008518566028214991, -0.000829325697850436, -0.0008067947928793728, -0.0007842638879083097, -0.0007617329247295856, -0.0007392020197585225, -0.0007166711147874594, -0.0006941402098163962, -0.0006716093048453331, -0.00064907839987427, -0.0006265474949032068, -0.0006040165899321437, -0.0005814856849610806, -0.0005589547217823565, -0.0005364238168112934, -0.0005138929118402302, -0.0004913620068691671, -0.00046883110189810395, -0.0004463001969270408, -0.0004237692628521472, -0.0004012383578810841, -0.00037870745291002095, -0.00035617651883512735, -0.0003336456138640642, -0.0003111147088930011, -0.00028858380392193794, -0.0002660528989508748, -0.0002435219648759812, -0.00022099105990491807, -0.00019846015493385494, -0.00017592923541087657, -0.0001533983158878982, -0.00013086746912449598, -0.00010833655687747523, -8.580564463045448e-05, -6.327473238343373e-05, -4.074382013641298e-05, -1.8212907889392227e-05, 4.318004357628524e-06, 2.684892388060689e-05, 4.937982885167003e-05, 7.191074109869078e-05, 9.444165334571153e-05, 0.00011697256559273228, 0.00013950347783975303, 0.00016203438281081617, 0.00018456530233379453, 0.0002070962218567729, 0.00022962712682783604, 0.0002521580317988992, 0.0002746889367699623, 0.0002972198708448559, 0.00031975077581591904, 0.0003422816807869822, 0.00036481261486187577, 0.0003873435198329389, 0.00040987442480400205, 0.0004324053297750652, 0.0004549362347461283, 0.0004774671688210219, 0.0004999981028959155, 0.0005225290078669786, 0.0005450599128380418, 0.0005675908178091049, 0.0005901217227801681]}, "gradients/base.mlp.fc1.0.bias": {"_type": "histogram", "values": [1.0, 0.0, 0.0, 0.0, 0.0, 0.0, 0.0, 0.0, 0.0, 0.0, 0.0, 1.0, 0.0, 0.0, 0.0, 0.0, 0.0, 0.0, 1.0, 0.0, 0.0, 0.0, 1.0, 1.0, 0.0, 0.0, 4.0, 0.0, 1.0, 1.0, 3.0, 1.0, 3.0, 0.0, 3.0, 15.0, 5.0, 4.0, 5.0, 1.0, 1.0, 1.0, 2.0, 2.0, 0.0, 1.0, 1.0, 1.0, 0.0, 2.0, 1.0, 0.0, 0.0, 0.0, 0.0, 0.0, 0.0, 0.0, 0.0, 0.0, 0.0, 0.0, 0.0, 1.0], "bins": [-0.000999143929220736, -0.0009711262537166476, -0.0009431086364202201, -0.0009150909609161317, -0.0008870733436197042, -0.0008590556681156158, -0.0008310379926115274, -0.0008030203753151, -0.0007750026998110116, -0.0007469850243069232, -0.0007189674070104957, -0.0006909497315064073, -0.0006629321142099798, -0.0006349144387058914, -0.0006068968214094639, -0.0005788791459053755, -0.0005508614704012871, -0.0005228437948971987, -0.0004948261776007712, -0.0004668085020966828, -0.00043879085569642484, -0.0004107732092961669, -0.00038275556289590895, -0.000354737916495651, -0.0003267202991992235, -0.0002987026527989656, -0.00027068500639870763, -0.00024266734544653445, -0.00021464968449436128, -0.00018663203809410334, -0.0001586143916938454, -0.00013059673074167222, -0.00010257906978949904, -7.456141611328349e-05, -4.654376607504673e-05, -1.852611603680998e-05, 9.491537639405578e-06, 3.750919131562114e-05, 6.552683771587908e-05, 9.354449866805226e-05, 0.0001215621450683102, 0.00014957979146856815, 0.00017759745242074132, 0.00020561509882099926, 0.0002336327452212572, 0.0002616504207253456, 0.0002896680380217731, 0.0003176857135258615, 0.00034570335992611945, 0.0003737210063263774, 0.00040173865272663534, 0.0004297562991268933, 0.0004577739746309817, 0.00048579162103123963, 0.0005138092674314976, 0.000541826942935586, 0.0005698445602320135, 0.0005978622357361019, 0.0006258798530325294, 0.0006538975285366178, 0.0006819151458330452, 0.0007099328213371336, 0.0007379504386335611, 0.0007659681141376495, 0.0007939857896417379]}, "gradients/base.mlp.fc1.0.weight": {"_type": "histogram", "values": [1.0, 1.0, 0.0, 1.0, 1.0, 0.0, 1.0, 3.0, 0.0, 0.0, 0.0, 1.0, 0.0, 5.0, 0.0, 2.0, 4.0, 1.0, 2.0, 2.0, 2.0, 7.0, 6.0, 8.0, 4.0, 8.0, 16.0, 18.0, 18.0, 35.0, 30.0, 107.0, 97.0, 1049.0, 4302.0, 1079.0, 229.0, 125.0, 54.0, 34.0, 19.0, 21.0, 15.0, 10.0, 8.0, 7.0, 9.0, 2.0, 4.0, 0.0, 3.0, 1.0, 1.0, 2.0, 0.0, 0.0, 0.0, 1.0, 2.0, 0.0, 1.0, 0.0, 0.0, 1.0], "bins": [-0.003549701301380992, -0.003446815302595496, -0.0033439293038100004, -0.0032410433050245047, -0.003138157306239009, -0.003035271540284157, -0.002932385541498661, -0.0028294995427131653, -0.0027266135439276695, -0.0026237275451421738, -0.002520841546356678, -0.0024179555475711823, -0.0023150695487856865, -0.0022121835500001907, -0.002109297551214695, -0.002006411785259843, -0.0019035256700590253, -0.0018006396712735295, -0.0016977536724880338, -0.0015948677901178598, -0.001491981791332364, -0.0013890957925468683, -0.0012862097937613726, -0.0011833237949758768, -0.001080437796190381, -0.0009775517974048853, -0.0008746658568270504, -0.0007717798580415547, -0.0006688939174637198, -0.0005660079186782241, -0.00046312191989272833, -0.0003602359793148935, -0.00025735003873705864, -0.00015446406905539334, -5.157808482181281e-05, 5.130789941176772e-05, 0.00015419386909343302, 0.0002570798387750983, 0.0003599658375605941, 0.0004628517781384289, 0.0005657377769239247, 0.0006686237757094204, 0.0007715097162872553, 0.000874395715072751, 0.0009772817138582468, 0.0010801677126437426, 0.0011830537114292383, 0.0012859395937994123, 0.001388825592584908, 0.0014917115913704038, 0.0015945975901558995, 0.0016974834725260735, 0.0018003694713115692, 0.001903255470097065, 0.0020061414688825607, 0.0021090274676680565, 0.0022119134664535522, 0.002314799465239048, 0.0024176854640245438, 0.0025205714628100395, 0.0026234574615955353, 0.002726343460381031, 0.002829229459166527, 0.002932115225121379, 0.0030350012239068747]}, "gradients/base.feature_norm.weight": {"_type": "histogram", "values": [1.0, 0.0, 0.0, 0.0, 0.0, 0.0, 0.0, 0.0, 0.0, 0.0, 0.0, 0.0, 0.0, 0.0, 0.0, 0.0, 0.0, 0.0, 0.0, 0.0, 1.0, 0.0, 0.0, 0.0, 0.0, 0.0, 1.0, 0.0, 0.0, 0.0, 0.0, 0.0, 0.0, 0.0, 0.0, 0.0, 0.0, 1.0, 0.0, 1.0, 3.0, 4.0, 5.0, 20.0, 40.0, 19.0, 6.0, 3.0, 1.0, 3.0, 0.0, 1.0, 1.0, 0.0, 0.0, 1.0, 1.0, 0.0, 0.0, 0.0, 0.0, 0.0, 1.0, 1.0], "bins": [-0.002845266368240118, -0.002781192073598504, -0.0027171180117875338, -0.00265304371714592, -0.0025889696553349495, -0.0025248953606933355, -0.0024608210660517216, -0.0023967470042407513, -0.0023326727095991373, -0.0022685984149575233, -0.002204524353146553, -0.002140450058504939, -0.002076375763863325, -0.002012301702052355, -0.0019482274074107409, -0.0018841532291844487, -0.0018200790509581566, -0.0017560048727318645, -0.0016919306945055723, -0.0016278563998639584, -0.0015637822216376662, -0.001499708043411374, -0.0014356337487697601, -0.001371559570543468, -0.0013074853923171759, -0.0012434112140908837, -0.0011793370358645916, -0.0011152627412229776, -0.0010511885629966855, -0.0009871143847703934, -0.0009230401483364403, -0.0008589659119024873, -0.0007948919665068388, -0.0007308177882805467, -0.0006667435518465936, -0.0006026693154126406, -0.0005385951371863484, -0.00047452092985622585, -0.00041044672252610326, -0.00034637251519598067, -0.0002822983078658581, -0.0002182241005357355, -0.0001541498932056129, -9.007568587549031e-05, -2.6001478545367718e-05, 3.807272878475487e-05, 0.00010214693611487746, 0.00016622114344500005, 0.00023029535077512264, 0.00029436955810524523, 0.0003584437654353678, 0.0004225179727654904, 0.000486592180095613, 0.0005506663583219051, 0.0006147405947558582, 0.0006788148311898112, 0.0007428890094161034, 0.0008069631876423955, 0.0008710374240763485, 0.0009351116605103016, 0.0009991858387365937, 0.0010632600169628859, 0.0011273343116044998, 0.001191408489830792, 0.001255482668057084]}, "gradients/base.feature_norm.bias": {"_type": "histogram", "values": [1.0, 0.0, 0.0, 0.0, 0.0, 0.0, 0.0, 0.0, 0.0, 0.0, 0.0, 0.0, 0.0, 0.0, 0.0, 0.0, 0.0, 0.0, 0.0, 0.0, 0.0, 0.0, 0.0, 0.0, 0.0, 0.0, 0.0, 0.0, 1.0, 0.0, 0.0, 0.0, 0.0, 1.0, 1.0, 0.0, 3.0, 2.0, 1.0, 2.0, 2.0, 1.0, 5.0, 6.0, 9.0, 9.0, 6.0, 5.0, 10.0, 13.0, 9.0, 5.0, 5.0, 4.0, 3.0, 1.0, 1.0, 2.0, 2.0, 1.0, 1.0, 2.0, 0.0, 1.0], "bins": [-0.002171869156882167, -0.0021264837123453617, -0.0020810982678085566, -0.0020357128232717514, -0.00199032761156559, -0.001944942050613463, -0.0018995567224919796, -0.0018541712779551744, -0.0018087858334183693, -0.0017634003888815641, -0.0017180150607600808, -0.0016726296162232757, -0.0016272441716864705, -0.0015818587271496654, -0.001536473399028182, -0.0014910879544913769, -0.0014457025099545717, -0.0014003170654177666, -0.0013549317372962832, -0.001309546292759478, -0.001264160848222673, -0.0012187754036858678, -0.0011733900755643845, -0.0011280046310275793, -0.001082619302906096, -0.0010372338583692908, -0.0009918485302478075, -0.0009464630857110023, -0.0009010776411741972, -0.000855692254845053, -0.0008103068685159087, -0.0007649214239791036, -0.0007195359794422984, -0.0006741505931131542, -0.000628765148576349, -0.0005833797622472048, -0.0005379943177103996, -0.0004926089313812554, -0.0004472235159482807, -0.000401838100515306, -0.0003564526850823313, -0.0003110672696493566, -0.0002656818542163819, -0.00022029645333532244, -0.00017491103790234774, -0.00012952562246937305, -8.414022158831358e-05, -3.8754806155338883e-05, 6.630609277635813e-06, 5.20160210726317e-05, 9.740143286762759e-05, 0.00014278684102464467, 0.00018817225645761937, 0.00023355767189059407, 0.00027894307277165353, 0.00032432848820462823, 0.0003697139036376029, 0.0004150993190705776, 0.0004604847345035523, 0.000505870149936527, 0.0005512555362656713, 0.0005966409808024764, 0.0006420263671316206, 0.0006874117534607649, 0.00073279719799757]}, "gradients/graph_1v_out.bias": {"_type": "histogram", "values": [0.0, 0.0, 0.0, 0.0, 0.0, 0.0, 0.0, 0.0, 0.0, 0.0, 0.0, 0.0, 0.0, 0.0, 0.0, 0.0, 0.0, 0.0, 0.0, 0.0, 0.0, 0.0, 0.0, 0.0, 0.0, 0.0, 0.0, 0.0, 0.0, 0.0, 0.0, 0.0, 1.0, 0.0, 0.0, 0.0, 0.0, 0.0, 0.0, 0.0, 0.0, 0.0, 0.0, 0.0, 0.0, 0.0, 0.0, 0.0, 0.0, 0.0, 0.0, 0.0, 0.0, 0.0, 0.0, 0.0, 0.0, 0.0, 0.0, 0.0, 0.0, 0.0, 0.0, 0.0], "bins": [0.00980052538216114, 0.00980052538216114, 0.00980052538216114, 0.00980052538216114, 0.00980052538216114, 0.00980052538216114, 0.00980052538216114, 0.00980052538216114, 0.00980052538216114, 0.00980052538216114, 0.00980052538216114, 0.00980052538216114, 0.00980052538216114, 0.00980052538216114, 0.00980052538216114, 0.00980052538216114, 0.00980052538216114, 0.00980052538216114, 0.00980052538216114, 0.00980052538216114, 0.00980052538216114, 0.00980052538216114, 0.00980052538216114, 0.00980052538216114, 0.00980052538216114, 0.00980052538216114, 0.00980052538216114, 0.00980052538216114, 0.00980052538216114, 0.00980052538216114, 0.00980052538216114, 0.00980052538216114, 0.00980052538216114, 0.00980052538216114, 0.00980052538216114, 0.00980052538216114, 0.00980052538216114, 0.00980052538216114, 0.00980052538216114, 0.00980052538216114, 0.00980052538216114, 0.00980052538216114, 0.00980052538216114, 0.00980052538216114, 0.00980052538216114, 0.00980052538216114, 0.00980052538216114, 0.00980052538216114, 0.00980052538216114, 0.00980052538216114, 0.00980052538216114, 0.00980052538216114, 0.00980052538216114, 0.00980052538216114, 0.00980052538216114, 0.00980052538216114, 0.00980052538216114, 0.00980052538216114, 0.00980052538216114, 0.00980052538216114, 0.00980052538216114, 0.00980052538216114, 0.00980052538216114, 0.00980052538216114, 0.00980052538216114]}, "gradients/graph_1v_out.weight": {"_type": "histogram", "values": [4.0, 28.0, 2.0, 0.0, 4.0, 1.0, 0.0, 2.0, 0.0, 1.0, 0.0, 1.0, 0.0, 2.0, 3.0, 1.0, 1.0, 1.0, 1.0, 0.0, 2.0, 0.0, 0.0, 0.0, 0.0, 0.0, 1.0, 2.0, 0.0, 1.0, 2.0, 0.0, 0.0, 0.0, 0.0, 0.0, 0.0, 0.0, 0.0, 0.0, 1.0, 0.0, 0.0, 0.0, 0.0, 0.0, 0.0, 0.0, 0.0, 0.0, 0.0, 1.0, 0.0, 0.0, 0.0, 0.0, 0.0, 0.0, 1.0, 0.0, 0.0, 0.0, 0.0, 1.0], "bins": [-0.007332697510719299, -0.006642704363912344, -0.005952711217105389, -0.005262717604637146, -0.004572724923491478, -0.003882731543853879, -0.00319273816421628, -0.0025027450174093246, -0.0018127518706023693, -0.001122758723795414, -0.0004327654605731368, 0.00025722780264914036, 0.0009472209494560957, 0.001637214096263051, 0.00232720747590065, 0.0030172006227076054, 0.0037071937695145607, 0.004397186916321516, 0.005087180063128471, 0.005777173675596714, 0.006467166356742382, 0.007157159969210625, 0.007847152650356293, 0.008537146262824535, 0.009227139875292778, 0.00991713348776102, 0.010607126168906689, 0.011297119781374931, 0.0119871124625206, 0.012677106074988842, 0.013367099687457085, 0.014057092368602753, 0.01474708504974842, 0.015437078662216663, 0.016127072274684906, 0.016817064955830574, 0.017507057636976242, 0.01819705031812191, 0.018887044861912727, 0.019577037543058395, 0.020267030224204063, 0.02095702290534973, 0.02164701744914055, 0.022337010130286217, 0.023027002811431885, 0.023716995492577553, 0.02440699003636837, 0.025096982717514038, 0.025786977261304855, 0.026476969942450523, 0.02716696448624134, 0.02785695716738701, 0.028546949848532677, 0.029236942529678345, 0.029926937073469162, 0.03061692975461483, 0.0313069224357605, 0.031996916979551315, 0.032686907798051834, 0.03337690234184265, 0.03406689688563347, 0.03475688770413399, 0.035446882247924805, 0.036136873066425323, 0.03682686761021614]}, "gradients/graph_1base.mlp.fc2.0.2.weight": {"_type": "histogram", "values": [2.0, 0.0, 0.0, 0.0, 1.0, 0.0, 0.0, 1.0, 2.0, 0.0, 3.0, 0.0, 3.0, 3.0, 6.0, 5.0, 8.0, 13.0, 1.0, 2.0, 3.0, 1.0, 2.0, 1.0, 3.0, 2.0, 0.0, 0.0, 1.0, 0.0, 0.0, 0.0, 0.0, 0.0, 0.0, 0.0, 0.0, 0.0, 0.0, 0.0, 0.0, 0.0, 0.0, 0.0, 0.0, 0.0, 0.0, 0.0, 0.0, 0.0, 0.0, 0.0, 0.0, 0.0, 0.0, 0.0, 0.0, 0.0, 0.0, 0.0, 0.0, 0.0, 0.0, 1.0], "bins": [-0.0025609945878386497, -0.0024095375556498766, -0.002258080756291747, -0.002106623724102974, -0.0019551669247448444, -0.0018037098925560713, -0.00165225297678262, -0.0015007960610091686, -0.0013493391452357173, -0.001197882229462266, -0.0010464253136888146, -0.0008949683397077024, -0.0007435114239342511, -0.0005920545081607997, -0.0004405975341796875, -0.00028914061840623617, -0.00013768370263278484, 1.3773227692581713e-05, 0.00016523015801794827, 0.00031668710289523005, 0.0004681440186686814, 0.0006196009344421327, 0.000771057908423245, 0.0009225148241966963, 0.0010739717399701476, 0.001225428655743599, 0.0013768855715170503, 0.0015283424872905016, 0.0016797995194792747, 0.0018312563188374043, 0.0019827133510261774, 0.0021341703832149506, 0.00228562718257308, 0.0024370842147618532, 0.0025885410141199827, 0.002739998046308756, 0.0028914548456668854, 0.0030429118778556585, 0.0031943689100444317, 0.003345825709402561, 0.0034972825087606907, 0.003648739540949464, 0.0038001963403075933, 0.0039516533724963665, 0.004103110171854496, 0.0042545669712126255, 0.004406024236232042, 0.004557481035590172, 0.004708938300609589, 0.004860395099967718, 0.005011852364987135, 0.0051633091643452644, 0.005314765963703394, 0.0054662227630615234, 0.00561768002808094, 0.00576913682743907, 0.005920593626797199, 0.006072050426155329, 0.0062235076911747456, 0.006374964490532875, 0.0065264212898910046, 0.006677878089249134, 0.006829335354268551, 0.00698079215362668, 0.00713224895298481]}, "gradients/graph_1base.mlp.fc2.0.2.bias": {"_type": "histogram", "values": [1.0, 0.0, 0.0, 0.0, 0.0, 1.0, 0.0, 1.0, 1.0, 2.0, 0.0, 0.0, 1.0, 3.0, 0.0, 1.0, 1.0, 3.0, 1.0, 0.0, 0.0, 2.0, 2.0, 0.0, 3.0, 4.0, 7.0, 0.0, 2.0, 2.0, 4.0, 0.0, 1.0, 3.0, 4.0, 1.0, 1.0, 3.0, 0.0, 1.0, 1.0, 2.0, 0.0, 0.0, 0.0, 0.0, 2.0, 1.0, 1.0, 0.0, 0.0, 0.0, 0.0, 0.0, 0.0, 0.0, 0.0, 0.0, 0.0, 0.0, 0.0, 0.0, 0.0, 1.0], "bins": [-0.0027202726341784, -0.0026169309858232737, -0.0025135893374681473, -0.002410247689113021, -0.0023069060407578945, -0.002203564392402768, -0.0021002227440476418, -0.001996881328523159, -0.0018935395637527108, -0.0017901979153975844, -0.001686856267042458, -0.0015835147351026535, -0.0014801730867475271, -0.0013768314383924007, -0.0012734897900372744, -0.001170148141682148, -0.0010668064933270216, -0.0009634648449718952, -0.0008601231966167688, -0.0007567816064693034, -0.000653439958114177, -0.0005500983097590506, -0.00044675671961158514, -0.00034341507125645876, -0.00024007342290133238, -0.00013673178909812123, -3.339015529491007e-05, 6.995146395638585e-05, 0.00017329311231151223, 0.0002766347606666386, 0.0003799763508141041, 0.00048331799916923046, 0.0005866596475243568, 0.0006900012958794832, 0.0007933429442346096, 0.0008966845343820751, 0.0010000262409448624, 0.0011033678892999887, 0.0012067094212397933, 0.0013100510695949197, 0.001413392717950046, 0.0015167343663051724, 0.0016200760146602988, 0.0017234175466001034, 0.0018267591949552298, 0.0019301008433103561, 0.0020334424916654825, 0.002136784140020609, 0.0022401257883757353, 0.0023434674367308617, 0.002446809085085988, 0.0025501507334411144, 0.002653492381796241, 0.002756834030151367, 0.00286017544567585, 0.00296351732686162, 0.0030668587423861027, 0.003170200390741229, 0.0032735420390963554, 0.003376883687451482, 0.003480225335806608, 0.0035835669841617346, 0.003686908632516861, 0.0037902500480413437, 0.0038935919292271137]}, "gradients/graph_1base.mlp.fc2.0.0.bias": {"_type": "histogram", "values": [1.0, 0.0, 0.0, 1.0, 0.0, 0.0, 1.0, 0.0, 0.0, 0.0, 0.0, 0.0, 1.0, 0.0, 0.0, 0.0, 1.0, 0.0, 0.0, 0.0, 0.0, 0.0, 2.0, 0.0, 1.0, 0.0, 1.0, 2.0, 0.0, 3.0, 1.0, 6.0, 17.0, 10.0, 2.0, 0.0, 2.0, 1.0, 1.0, 0.0, 0.0, 1.0, 0.0, 1.0, 1.0, 1.0, 0.0, 0.0, 2.0, 0.0, 0.0, 0.0, 2.0, 0.0, 0.0, 0.0, 1.0, 0.0, 0.0, 0.0, 0.0, 0.0, 0.0, 1.0], "bins": [-0.0023401875514537096, -0.002269074786454439, -0.0021979620214551687, -0.0021268490236252546, -0.002055736258625984, -0.0019846234936267138, -0.0019135107286274433, -0.0018423979636281729, -0.0017712850822135806, -0.0017001723172143102, -0.001629059435799718, -0.0015579466708004475, -0.001486833905801177, -0.0014157210243865848, -0.0013446082593873143, -0.001273495377972722, -0.0012023826129734516, -0.0011312698479741812, -0.001060156966559589, -0.0009890442015603185, -0.0009179313783533871, -0.0008468185551464558, -0.0007757057901471853, -0.000704592966940254, -0.0006334801437333226, -0.0005623673205263913, -0.0004912544973194599, -0.0004201417323201895, -0.0003490289091132581, -0.00027791608590632677, -0.00020680329180322587, -0.00013569049770012498, -6.457744166254997e-05, 6.535366992466152e-06, 7.764817564748228e-05, 0.0001487609843024984, 0.00021987379295751452, 0.0002909866161644459, 0.0003620994102675468, 0.00043321220437064767, 0.000504325027577579, 0.0005754378507845104, 0.0006465506739914417, 0.0007176634389907122, 0.0007887762621976435, 0.0008598890854045749, 0.0009310018504038453, 0.0010021147318184376, 0.001073227496817708, 0.0011443402618169785, 0.0012154531432315707, 0.0012865659082308412, 0.0013576787896454334, 0.0014287915546447039, 0.0014999043196439743, 0.0015710170846432447, 0.001642129966057837, 0.0017132427310571074, 0.0017843556124716997, 0.0018554683774709702, 0.0019265811424702406, 0.001997693907469511, 0.002068806905299425, 0.0021399196702986956, 0.002211032435297966]}, "gradients/graph_1base.mlp.fc2.0.0.weight": {"_type": "histogram", "values": [1.0, 0.0, 0.0, 1.0, 1.0, 0.0, 1.0, 1.0, 0.0, 0.0, 2.0, 1.0, 1.0, 1.0, 2.0, 2.0, 4.0, 2.0, 3.0, 3.0, 7.0, 2.0, 8.0, 9.0, 10.0, 11.0, 45.0, 43.0, 100.0, 119.0, 165.0, 227.0, 2126.0, 604.0, 209.0, 49.0, 92.0, 40.0, 80.0, 54.0, 14.0, 10.0, 6.0, 10.0, 6.0, 3.0, 6.0, 1.0, 3.0, 2.0, 2.0, 0.0, 3.0, 0.0, 1.0, 0.0, 1.0, 0.0, 0.0, 1.0, 0.0, 0.0, 0.0, 1.0], "bins": [-0.007771060336381197, -0.007533969357609749, -0.007296877913177013, -0.007059786934405565, -0.006822695955634117, -0.006585604511201382, -0.0063485135324299335, -0.006111422553658485, -0.00587433110922575, -0.005637240130454302, -0.005400148686021566, -0.005163057707250118, -0.00492596672847867, -0.004688875749707222, -0.0044517843052744865, -0.004214693326503038, -0.00397760234773159, -0.0037405111361294985, -0.0035034201573580503, -0.0032663289457559586, -0.0030292379669845104, -0.0027921467553824186, -0.002555055543780327, -0.0023179645650088787, -0.002080873353406787, -0.001843782258220017, -0.001606691163033247, -0.0013695999514311552, -0.0011325088562443852, -0.0008954177610576153, -0.0006583265494555235, -0.00042123545426875353, -0.00018414435908198357, 5.294676520861685e-05, 0.00029003788949921727, 0.0005271290428936481, 0.0007642201380804181, 0.001001311233267188, 0.0012384024448692799, 0.0014754935400560498, 0.0017125846352428198, 0.0019496757304295897, 0.0021867668256163597, 0.0024238580372184515, 0.0026609492488205433, 0.0028980402275919914, 0.003135131439194083, 0.003372222650796175, 0.003609313629567623, 0.003846404841169715, 0.004083496052771807, 0.004320587031543255, 0.004557678010314703, 0.004794768989086151, 0.0050318604335188866, 0.005268951412290335, 0.005506042391061783, 0.005743133369833231, 0.005980224814265966, 0.0062173157930374146, 0.006454406771808863, 0.006691497750580311, 0.006928589195013046, 0.007165680173784494, 0.00740277161821723]}, "gradients/graph_1base.mlp.fc1.2.weight": {"_type": "histogram", "values": [1.0, 0.0, 0.0, 0.0, 0.0, 0.0, 1.0, 0.0, 1.0, 0.0, 0.0, 1.0, 0.0, 0.0, 0.0, 0.0, 0.0, 0.0, 1.0, 0.0, 2.0, 1.0, 0.0, 2.0, 0.0, 3.0, 1.0, 1.0, 2.0, 3.0, 0.0, 3.0, 4.0, 3.0, 2.0, 2.0, 2.0, 4.0, 1.0, 0.0, 1.0, 8.0, 1.0, 1.0, 0.0, 0.0, 1.0, 1.0, 1.0, 1.0, 0.0, 2.0, 0.0, 1.0, 1.0, 2.0, 0.0, 0.0, 0.0, 0.0, 1.0, 0.0, 0.0, 1.0], "bins": [-0.0027075610123574734, -0.00263073667883873, -0.00255391257815063, -0.0024770882446318865, -0.0024002641439437866, -0.002323439810425043, -0.0022466157097369432, -0.0021697913762181997, -0.0020929672755301, -0.0020161429420113564, -0.0019393188413232565, -0.0018624946242198348, -0.0017856704071164131, -0.0017088460735976696, -0.001632021856494248, -0.0015551976393908262, -0.0014783733058720827, -0.001401549088768661, -0.0013247248716652393, -0.0012479006545618176, -0.001171076437458396, -0.0010942521039396524, -0.0010174278868362308, -0.0009406036697328091, -0.0008637794526293874, -0.0007869552355259657, -0.000710131018422544, -0.0006333067431114614, -0.0005564825260080397, -0.000479658308904618, -0.0004028340626973659, -0.00032600981649011374, -0.0002491853665560484, -0.00017236113490071148, -9.553690324537456e-05, -1.8712671590037644e-05, 5.811156006529927e-05, 0.00013493577716872096, 0.0002117600233759731, 0.00028858426958322525, 0.00036540848668664694, 0.0004422327037900686, 0.0005190569208934903, 0.0005958811962045729, 0.0006727054133079946, 0.0007495296304114163, 0.0008263539057224989, 0.0009031781228259206, 0.0009800023399293423, 0.001056826557032764, 0.0011336507741361856, 0.0012104749912396073, 0.001287299208343029, 0.0013641235418617725, 0.0014409477589651942, 0.001517771976068616, 0.0015945961931720376, 0.0016714204102754593, 0.001748244627378881, 0.0018250688444823027, 0.0019018931780010462, 0.001978717278689146, 0.0020555416122078896, 0.002132365945726633, 0.002209190046414733]}, "gradients/graph_1base.mlp.fc1.2.bias": {"_type": "histogram", "values": [1.0, 0.0, 0.0, 0.0, 0.0, 0.0, 0.0, 1.0, 1.0, 0.0, 0.0, 0.0, 0.0, 0.0, 2.0, 1.0, 1.0, 0.0, 0.0, 2.0, 1.0, 1.0, 2.0, 0.0, 1.0, 1.0, 1.0, 1.0, 0.0, 7.0, 4.0, 1.0, 1.0, 0.0, 0.0, 2.0, 1.0, 1.0, 2.0, 2.0, 1.0, 0.0, 0.0, 1.0, 3.0, 1.0, 3.0, 0.0, 2.0, 2.0, 1.0, 2.0, 1.0, 1.0, 2.0, 0.0, 2.0, 0.0, 1.0, 1.0, 0.0, 0.0, 1.0, 1.0], "bins": [-0.0028324981685727835, -0.0027620582841336727, -0.0026916181668639183, -0.0026211782824248075, -0.002550738165155053, -0.0024802982807159424, -0.002409858163446188, -0.0023394182790070772, -0.0022689783945679665, -0.0021985385101288557, -0.0021280983928591013, -0.0020576585084199905, -0.001987218391150236, -0.0019167785067111254, -0.0018463385058566928, -0.0017758985050022602, -0.0017054583877325058, -0.0016350183868780732, -0.0015645783860236406, -0.001494138385169208, -0.0014236983843147755, -0.0013532584998756647, -0.0012828184990212321, -0.0012123784981667995, -0.001141938497312367, -0.0010714984964579344, -0.0010010584956035018, -0.0009306185529567301, -0.0008601785521022975, -0.000789738551247865, -0.0007192986086010933, -0.0006488586077466607, -0.0005784184904769063, -0.0005079784896224737, -0.0004375385178718716, -0.00036709854612126946, -0.0002966585452668369, -0.0002262185444124043, -0.00015577857266180217, -8.533860091120005e-05, -1.4898600056767464e-05, 5.554138624574989e-05, 0.00012598137254826725, 0.0001964213588507846, 0.00026686134515330195, 0.00033730134600773454, 0.00040774131775833666, 0.0004781812895089388, 0.0005486212903633714, 0.000619061291217804, 0.0006895012920722365, 0.0007599412347190082, 0.0008303812355734408, 0.0009008212364278734, 0.000971261179074645, 0.0010417011799290776, 0.0011121411807835102, 0.0011825811816379428, 0.0012530211824923754, 0.001323461183346808, 0.0013939011842012405, 0.0014643410686403513, 0.0015347810694947839, 0.0016052210703492165, 0.001675661071203649]}, "gradients/graph_1base.mlp.fc1.0.bias": {"_type": "histogram", "values": [1.0, 0.0, 0.0, 0.0, 1.0, 0.0, 0.0, 2.0, 0.0, 1.0, 0.0, 0.0, 0.0, 1.0, 0.0, 1.0, 1.0, 0.0, 0.0, 1.0, 0.0, 1.0, 0.0, 0.0, 1.0, 0.0, 1.0, 0.0, 1.0, 0.0, 6.0, 23.0, 4.0, 1.0, 4.0, 0.0, 0.0, 0.0, 1.0, 0.0, 0.0, 1.0, 0.0, 0.0, 0.0, 1.0, 0.0, 2.0, 0.0, 0.0, 1.0, 0.0, 0.0, 1.0, 1.0, 0.0, 0.0, 0.0, 0.0, 1.0, 1.0, 0.0, 2.0, 1.0], "bins": [-0.001205716165713966, -0.001167312148027122, -0.0011289080139249563, -0.0010905039962381124, -0.0010520998621359468, -0.0010136958444491029, -0.0009752917103469372, -0.0009368876926600933, -0.0008984835585579276, -0.0008600794826634228, -0.000821675406768918, -0.0007832713308744133, -0.0007448672549799085, -0.0007064631790854037, -0.0006680591031908989, -0.000629655085504055, -0.0005912510096095502, -0.0005528469337150455, -0.0005144428578205407, -0.0004760387819260359, -0.0004376347060315311, -0.0003992306301370263, -0.000360826583346352, -0.0003224225074518472, -0.0002840184315573424, -0.0002456143556628376, -0.00020721027976833284, -0.00016880621842574328, -0.0001304021425312385, -9.199806663673371e-05, -5.3594005294144154e-05, -1.5189929399639368e-05, 2.3214146494865417e-05, 6.16182223893702e-05, 0.00010002229100791737, 0.00013842635962646455, 0.00017683043552096933, 0.00021523451141547412, 0.0002536385727580637, 0.00029204264865256846, 0.00033044672454707325, 0.00036885080044157803, 0.0004072548763360828, 0.00044565892312675714, 0.00048406299902126193, 0.0005224670749157667, 0.0005608711508102715, 0.0005992752267047763, 0.0006376793025992811, 0.0006760833784937859, 0.0007144874543882906, 0.0007528915302827954, 0.0007912956061773002, 0.000829699682071805, 0.0008681036997586489, 0.0009065078338608146, 0.0009449118515476584, 0.0009833158692345023, 0.001021720003336668, 0.0010601240210235119, 0.0010985281551256776, 0.0011369321728125215, 0.0011753363069146872, 0.001213740324601531, 0.0012521444587036967]}, "gradients/graph_1base.mlp.fc1.0.weight": {"_type": "histogram", "values": [1.0, 0.0, 0.0, 1.0, 0.0, 0.0, 2.0, 0.0, 0.0, 1.0, 0.0, 0.0, 1.0, 3.0, 1.0, 1.0, 1.0, 1.0, 3.0, 0.0, 1.0, 2.0, 0.0, 0.0, 4.0, 0.0, 16.0, 129.0, 322.0, 760.0, 48797.0, 1401.0, 513.0, 206.0, 93.0, 4.0, 1.0, 1.0, 2.0, 0.0, 1.0, 1.0, 1.0, 0.0, 2.0, 0.0, 4.0, 1.0, 1.0, 1.0, 0.0, 1.0, 1.0, 0.0, 1.0, 0.0, 0.0, 0.0, 2.0, 0.0, 0.0, 2.0, 0.0, 1.0], "bins": [-0.023608338087797165, -0.02283681556582451, -0.022065293043851852, -0.021293768659234047, -0.02052224613726139, -0.019750723615288734, -0.01897919923067093, -0.018207676708698273, -0.017436154186725616, -0.01666463166475296, -0.015893109142780304, -0.015121584758162498, -0.014350062236189842, -0.013578539714217186, -0.012807016260921955, -0.012035492807626724, -0.011263970285654068, -0.010492447763681412, -0.009720924310386181, -0.00894940085709095, -0.008177878335118294, -0.00740635534748435, -0.006634832359850407, -0.005863309372216463, -0.0050917863845825195, -0.004320263396948576, -0.0035487404093146324, -0.002777217421680689, -0.0020056944340467453, -0.0012341714464128017, -0.0004626484587788582, 0.0003088745288550854, 0.001080397516489029, 0.0018519205041229725, 0.002623443491756916, 0.0033949664793908596, 0.004166489467024803, 0.004938012454658747, 0.00570953544229269, 0.006481058429926634, 0.007252581417560577, 0.008024103939533234, 0.008795627392828465, 0.009567150846123695, 0.010338673368096352, 0.011110195890069008, 0.011881719343364239, 0.01265324279665947, 0.013424765318632126, 0.014196287840604782, 0.014967811293900013, 0.015739334747195244, 0.0165108572691679, 0.017282379791140556, 0.018053904175758362, 0.018825426697731018, 0.019596949219703674, 0.02036847174167633, 0.021139994263648987, 0.021911518648266792, 0.02268304117023945, 0.023454563692212105, 0.02422608807682991, 0.024997610598802567, 0.025769133120775223]}, "gradients/graph_1base.feature_norm.weight": {"_type": "histogram", "values": [1.0, 0.0, 0.0, 0.0, 0.0, 0.0, 0.0, 0.0, 0.0, 0.0, 1.0, 2.0, 3.0, 2.0, 5.0, 6.0, 3.0, 4.0, 54.0, 363.0, 316.0, 39.0, 3.0, 6.0, 5.0, 0.0, 2.0, 0.0, 0.0, 0.0, 0.0, 0.0, 0.0, 0.0, 1.0, 0.0, 0.0, 0.0, 0.0, 0.0, 0.0, 0.0, 0.0, 0.0, 0.0, 0.0, 0.0, 0.0, 0.0, 0.0, 0.0, 0.0, 0.0, 0.0, 0.0, 0.0, 0.0, 0.0, 0.0, 0.0, 0.0, 0.0, 0.0, 1.0], "bins": [-0.0019938054028898478, -0.0018935872940346599, -0.001793369185179472, -0.0016931509599089622, -0.0015929328510537744, -0.0014927147421985865, -0.0013924965169280767, -0.0012922784080728889, -0.001192060299217701, -0.001091842190362513, -0.0009916240815073252, -0.0008914058562368155, -0.0007911877473816276, -0.0006909696385264397, -0.0005907514714635909, -0.000490533304400742, -0.00039031519554555416, -0.0002900970575865358, -0.00018987891962751746, -8.966078166849911e-05, 1.0557356290519238e-05, 0.00011077546514570713, 0.00021099363220855594, 0.00031121179927140474, 0.00041142990812659264, 0.0005116480169817805, 0.0006118661840446293, 0.0007120843511074781, 0.000812302459962666, 0.0009125205688178539, 0.0010127387940883636, 0.0011129569029435515, 0.001213175244629383, 0.001313393353484571, 0.0014136114623397589, 0.0015138296876102686, 0.0016140477964654565, 0.0017142659053206444, 0.001814484130591154, 0.001914702239446342, 0.00201492034830153, 0.0021151385735720396, 0.0022153565660119057, 0.0023155747912824154, 0.002415793016552925, 0.002516011008992791, 0.002616229234263301, 0.002716447226703167, 0.0028166654519736767, 0.0029168836772441864, 0.0030171016696840525, 0.003117319894954562, 0.0032175378873944283, 0.003317756112664938, 0.0034179743379354477, 0.0035181925632059574, 0.0036184105556458235, 0.003718628780916333, 0.0038188467733561993, 0.003919064998626709, 0.004019283223897219, 0.004119501449167728, 0.004219719208776951, 0.0043199374340474606, 0.00442015565931797]}, "gradients/graph_1base.feature_norm.bias": {"_type": "histogram", "values": [1.0, 0.0, 0.0, 0.0, 0.0, 0.0, 0.0, 0.0, 0.0, 0.0, 0.0, 0.0, 0.0, 0.0, 0.0, 0.0, 0.0, 0.0, 0.0, 0.0, 0.0, 0.0, 0.0, 0.0, 1.0, 0.0, 1.0, 3.0, 5.0, 13.0, 13.0, 27.0, 36.0, 40.0, 62.0, 71.0, 83.0, 98.0, 89.0, 80.0, 55.0, 45.0, 33.0, 22.0, 15.0, 9.0, 6.0, 3.0, 0.0, 0.0, 0.0, 0.0, 0.0, 0.0, 0.0, 1.0, 0.0, 0.0, 1.0, 0.0, 0.0, 2.0, 1.0, 1.0], "bins": [-0.002143481047824025, -0.0020864701364189386, -0.0020294594578444958, -0.0019724485464394093, -0.0019154376350343227, -0.001858426840044558, -0.0018014160450547934, -0.0017444051336497068, -0.0016873942222446203, -0.0016303834272548556, -0.0015733725158497691, -0.0015163617208600044, -0.001459350809454918, -0.0014023400144651532, -0.0013453292194753885, -0.001288318308070302, -0.0012313075130805373, -0.0011742967180907726, -0.0011172858066856861, -0.0010602750116959214, -0.001003264100290835, -0.0009462533053010702, -0.0008892424521036446, -0.000832231598906219, -0.0007752207457087934, -0.0007182098925113678, -0.0006611990393139422, -0.0006041881861165166, -0.0005471773911267519, -0.0004901664797216654, -0.0004331556847319007, -0.0003761448315344751, -0.0003191339783370495, -0.0002621231251396239, -0.0002051122864941135, -0.00014810144784860313, -9.109059465117753e-05, -3.407974145375192e-05, 2.2931082639843225e-05, 7.994193583726883e-05, 0.00013695278903469443, 0.00019396364223212004, 0.00025097449542954564, 0.0003079853195231408, 0.0003649961727205664, 0.000422007025917992, 0.00047901785001158714, 0.0005360287032090127, 0.0005930395564064384, 0.000650050409603864, 0.0007070612628012896, 0.0007640720577910542, 0.0008210829691961408, 0.0008780937641859055, 0.0009351046173833311, 0.0009921154705807567, 0.0010491262655705214, 0.001106137060560286, 0.0011631479719653726, 0.0012201587669551373, 0.0012771696783602238, 0.0013341804733499885, 0.0013911912683397532, 0.0014482021797448397, 0.0015052130911499262]}, "_wandb": {"runtime": 12777}}