{"value_loss": 0.22616081982851027, "_timestamp": 1665252053.202401, "_runtime": 9777.127508878708, "policy_loss": -0.0007263484302029611, "dist_entropy": 1.04074524641037, "actor_grad_norm": 0.046338751912117004, "critic_grad_norm": 0.16071316599845886, "ratio": 0.9999141693115234, "sm3_ratio_mean": 0.6465490362812124, "drop_mean": 0.004513044184171281, "drop_std": 0.03541947920029663, "drop_min": 0.0, "drop_max": 0.47077928483486176, "delay_mean": 0.06856703053645764, "delay_std": 0.10494385306211336, "delay_min": 0.0, "delay_max": 0.7661111321714189, "pc_mean": 195.64659118652344, "pc_std": 53.841243743896484, "pc_min": 109.99205780029297, "pc_max": 739.0990600585938, "reward_mean": -0.22506850633030417, "reward_std": 0.19117948883724492, "reward_min": -2.5520279058946507, "reward_max": -0.10999205780029297, "_step": 2520000, "gradients/act.action_outs.2.linear.bias": {"_type": "histogram", "values": [1.0, 0.0, 0.0, 0.0, 0.0, 0.0, 0.0, 0.0, 0.0, 0.0, 0.0, 0.0, 0.0, 0.0, 0.0, 0.0, 0.0, 0.0, 0.0, 0.0, 0.0, 0.0, 0.0, 0.0, 0.0, 0.0, 0.0, 0.0, 0.0, 0.0, 0.0, 0.0, 0.0, 0.0, 0.0, 0.0, 0.0, 0.0, 0.0, 0.0, 0.0, 0.0, 0.0, 0.0, 0.0, 0.0, 0.0, 0.0, 0.0, 0.0, 0.0, 0.0, 0.0, 0.0, 0.0, 0.0, 0.0, 1.0, 0.0, 0.0, 0.0, 0.0, 0.0, 1.0], "bins": [-0.0004947552224621177, -0.00048253958811983466, -0.00047032395377755165, -0.00045810831943526864, -0.0004458926559891552, -0.00043367702164687216, -0.00042146138730458915, -0.00040924575296230614, -0.0003970300895161927, -0.00038481445517390966, -0.00037259882083162665, -0.00036038318648934364, -0.0003481675230432302, -0.00033595188870094717, -0.00032373625435866416, -0.00031152062001638114, -0.00029930498567409813, -0.0002870893513318151, -0.0002748737169895321, -0.00026265805354341865, -0.00025044241920113564, -0.00023822678485885262, -0.00022601115051656961, -0.0002137955161742866, -0.00020157986728008837, -0.00018936423293780535, -0.00017714858404360712, -0.0001649329497013241, -0.0001527173153590411, -0.00014050166646484286, -0.00012828603212255985, -0.00011607039050431922, -0.00010385477798990905, -9.163913637166843e-05, -7.94234947534278e-05, -6.720786041114479e-05, -5.499221879290417e-05, -4.2776577174663544e-05, -3.056094283238053e-05, -1.834530121413991e-05, -6.129659595899284e-06, 6.085980203351937e-06, 1.830162000260316e-05, 3.0517257982864976e-05, 4.27328996011056e-05, 5.4948541219346225e-05, 6.716417556162924e-05, 7.937981717986986e-05, 9.159545879811049e-05, 0.00010381110041635111, 0.00011602674203459173, 0.00012824237637687474, 0.00014045802527107298, 0.000152673659613356, 0.000164889293955639, 0.00017710492829792202, 0.00018932057719212025, 0.00020153621153440326, 0.0002137518604286015, 0.00022596749477088451, 0.00023818312911316752, 0.00025039876345545053, 0.00026261439779773355, 0.000274830061243847, 0.00028704569558613]}, "gradients/act.action_outs.2.linear.weight": {"_type": "histogram", "values": [1.0, 0.0, 0.0, 1.0, 1.0, 0.0, 0.0, 0.0, 1.0, 0.0, 0.0, 0.0, 0.0, 0.0, 2.0, 3.0, 0.0, 2.0, 4.0, 1.0, 7.0, 4.0, 8.0, 6.0, 6.0, 8.0, 10.0, 16.0, 16.0, 17.0, 11.0, 11.0, 7.0, 7.0, 8.0, 3.0, 3.0, 1.0, 3.0, 3.0, 2.0, 4.0, 5.0, 0.0, 4.0, 0.0, 0.0, 0.0, 2.0, 2.0, 0.0, 0.0, 0.0, 0.0, 1.0, 0.0, 0.0, 0.0, 0.0, 0.0, 0.0, 0.0, 0.0, 1.0], "bins": [-0.002703796373680234, -0.0026117954403162003, -0.00251979473978281, -0.0024277938064187765, -0.002335792873054743, -0.002243791939690709, -0.0021517910063266754, -0.0020597903057932854, -0.0019677893724292517, -0.001875788439065218, -0.001783787622116506, -0.0016917868051677942, -0.0015997858718037605, -0.0015077849384397268, -0.001415784121491015, -0.001323783304542303, -0.0012317823711782694, -0.0011397814378142357, -0.0010477806208655238, -0.000955779745709151, -0.0008637788705527782, -0.0007717779953964055, -0.0006797771202400327, -0.0005877762450836599, -0.0004957753699272871, -0.0004037744947709143, -0.00031177361961454153, -0.00021977274445816875, -0.00012777186930179596, -3.5770994145423174e-05, 5.622988101094961e-05, 0.0001482307561673224, 0.00024023163132369518, 0.00033223250648006797, 0.00042423338163644075, 0.0005162342567928135, 0.0006082351319491863, 0.0007002360071055591, 0.0007922368822619319, 0.0008842377574183047, 0.0009762386325746775, 0.0010682395659387112, 0.001160240382887423, 0.001252241199836135, 0.0013442421332001686, 0.0014362430665642023, 0.0015282438835129142, 0.001620244700461626, 0.0017122456338256598, 0.0018042465671896935, 0.0018962473841384053, 0.001988248201087117, 0.002080249134451151, 0.0021722500678151846, 0.0022642510011792183, 0.0023562517017126083, 0.002448252635076642, 0.0025402535684406757, 0.0026322542689740658, 0.0027242552023380995, 0.002816256135702133, 0.002908257069066167, 0.0030002580024302006, 0.0030922587029635906, 0.0031842596363276243]}, "gradients/act.action_outs.1.linear.bias": {"_type": "histogram", "values": [1.0, 0.0, 0.0, 0.0, 0.0, 1.0, 0.0, 0.0, 0.0, 0.0, 0.0, 0.0, 0.0, 0.0, 0.0, 0.0, 0.0, 0.0, 0.0, 0.0, 0.0, 0.0, 0.0, 0.0, 0.0, 0.0, 0.0, 0.0, 1.0, 0.0, 0.0, 0.0, 0.0, 0.0, 0.0, 0.0, 0.0, 0.0, 0.0, 0.0, 0.0, 0.0, 0.0, 0.0, 0.0, 0.0, 0.0, 0.0, 0.0, 0.0, 0.0, 0.0, 0.0, 0.0, 0.0, 0.0, 0.0, 0.0, 0.0, 0.0, 0.0, 0.0, 0.0, 1.0], "bins": [-0.0015339507954195142, -0.0014711658004671335, -0.0014083809219300747, -0.001345595926977694, -0.0012828110484406352, -0.0012200260534882545, -0.0011572411749511957, -0.001094456179998815, -0.0010316711850464344, -0.0009688862483017147, -0.0009061013115569949, -0.0008433163166046143, -0.0007805314380675554, -0.0007177464431151748, -0.000654961506370455, -0.0005921765696257353, -0.0005293916910886765, -0.0004666067543439567, -0.00040382181759923697, -0.00034103685175068676, -0.000278251915005967, -0.00021546697826124728, -0.00015268201241269708, -8.989707566797733e-05, -2.711213892325759e-05, 3.567280509741977e-05, 9.845774911809713e-05, 0.0001612427004147321, 0.00022402763715945184, 0.0002868125739041716, 0.0003495975397527218, 0.00041238247649744153, 0.0004751675296574831, 0.0005379524664022028, 0.0006007374031469226, 0.0006635223980993032, 0.0007263072766363621, 0.0007890922715887427, 0.0008518772083334625, 0.0009146621450781822, 0.000977447023615241, 0.0010402320185676217, 0.0011030168971046805, 0.0011658018920570612, 0.00122858677059412, 0.0012913717655465007, 0.0013541567604988813, 0.0014169416390359402, 0.0014797266339883208, 0.0015425116289407015, 0.0016052965074777603, 0.001668081502430141, 0.0017308663809671998, 0.0017936513759195805, 0.0018564362544566393, 0.00191922124940902, 0.0019820062443614006, 0.0020447911228984594, 0.002107576234266162, 0.0021703611128032207, 0.0022331459913402796, 0.0022959308698773384, 0.002358715981245041, 0.0024215008597820997, 0.0024842857383191586]}, "gradients/act.action_outs.1.linear.weight": {"_type": "histogram", "values": [1.0, 0.0, 0.0, 0.0, 2.0, 2.0, 4.0, 1.0, 6.0, 3.0, 5.0, 11.0, 17.0, 7.0, 8.0, 10.0, 8.0, 5.0, 7.0, 24.0, 11.0, 8.0, 20.0, 25.0, 20.0, 18.0, 7.0, 5.0, 3.0, 2.0, 0.0, 1.0, 1.0, 2.0, 1.0, 2.0, 3.0, 0.0, 1.0, 1.0, 1.0, 1.0, 0.0, 0.0, 0.0, 1.0, 0.0, 0.0, 0.0, 0.0, 0.0, 0.0, 0.0, 0.0, 0.0, 0.0, 0.0, 0.0, 0.0, 0.0, 0.0, 0.0, 0.0, 1.0], "bins": [-0.0042193131521344185, -0.004010854288935661, -0.003802394960075617, -0.0035939360968768597, -0.003385477000847459, -0.003177017904818058, -0.002968559041619301, -0.0027600999455899, -0.002551640849560499, -0.0023431817535310984, -0.0021347226575016975, -0.0019262637943029404, -0.0017178046982735395, -0.0015093456022441387, -0.0013008866226300597, -0.0010924276430159807, -0.0008839685469865799, -0.00067550950916484, -0.00046705047134310007, -0.00025859143352136016, -5.013239569962025e-05, 0.00015832670032978058, 0.0003667856799438596, 0.0005752446595579386, 0.0007837037555873394, 0.0009921628516167402, 0.0012006218312308192, 0.0014090808108448982, 0.001617539906874299, 0.0018259990029036999, 0.002034457866102457, 0.002242916962131858, 0.0024513760581612587, 0.0026598351541906595, 0.0028682942502200603, 0.0030767531134188175, 0.0032852122094482183, 0.003493671305477619, 0.0037021301686763763, 0.0039105890318751335, 0.004119048360735178, 0.004327507223933935, 0.00453596655279398, 0.004744425415992737, 0.004952884279191494, 0.0051613436080515385, 0.005369802471250296, 0.00557826180011034, 0.005786720663309097, 0.0059951795265078545, 0.006203638855367899, 0.006412097718566656, 0.006620557047426701, 0.006829015910625458, 0.007037474773824215, 0.007245933637022972, 0.007454392965883017, 0.007662851829081774, 0.007871311157941818, 0.008079770021140575, 0.008288228884339333, 0.008496688678860664, 0.008705147542059422, 0.008913606405258179, 0.009122065268456936]}, "gradients/act.action_outs.0.linear.bias": {"_type": "histogram", "values": [1.0, 0.0, 0.0, 0.0, 0.0, 0.0, 0.0, 0.0, 0.0, 0.0, 0.0, 0.0, 0.0, 0.0, 1.0, 0.0, 0.0, 0.0, 0.0, 0.0, 0.0, 0.0, 0.0, 0.0, 0.0, 0.0, 0.0, 0.0, 0.0, 0.0, 0.0, 0.0, 0.0, 0.0, 0.0, 0.0, 0.0, 0.0, 0.0, 0.0, 0.0, 0.0, 0.0, 0.0, 0.0, 0.0, 0.0, 0.0, 0.0, 0.0, 0.0, 0.0, 0.0, 0.0, 0.0, 0.0, 0.0, 0.0, 0.0, 0.0, 0.0, 0.0, 0.0, 1.0], "bins": [-0.0007747410563752055, -0.0007449918193742633, -0.0007152425823733211, -0.0006854933453723788, -0.0006557441083714366, -0.0006259948713704944, -0.0005962456343695521, -0.000566496339160949, -0.0005367471021600068, -0.0005069978651590645, -0.0004772486281581223, -0.00044749939115718007, -0.0004177501250524074, -0.00038800088805146515, -0.0003582516510505229, -0.00032850238494575024, -0.00029875317704863846, -0.00026900394004769623, -0.00023925468849483877, -0.00020950545149389654, -0.00017975619994103909, -0.00015000696294009686, -0.00012025772593915462, -9.050847438629717e-05, -6.0759237385354936e-05, -3.100999310845509e-05, -1.2607524695340544e-06, 2.8488488169386983e-05, 5.823773244628683e-05, 8.798697672318667e-05, 0.0001177362137241289, 0.00014748546527698636, 0.0001772347022779286, 0.00020698393927887082, 0.00023673319083172828, 0.0002664824132807553, 0.00029623167938552797, 0.0003259809163864702, 0.00035573015338741243, 0.0003854794194921851, 0.00041522865649312735, 0.0004449778934940696, 0.0004747271304950118, 0.000504476367495954, 0.0005342256044968963, 0.0005639748414978385, 0.0005937240784987807, 0.0006234733737073839, 0.0006532225525006652, 0.0006829717895016074, 0.0007127210265025496, 0.0007424702635034919, 0.0007722195005044341, 0.0008019687375053763, 0.0008317179745063186, 0.0008614672697149217, 0.0008912165067158639, 0.0009209657437168062, 0.0009507149807177484, 0.0009804642759263515, 0.0010102135129272938, 0.001039962749928236, 0.0010697119869291782, 0.0010994612239301205, 0.0011292104609310627]}, "gradients/act.action_outs.0.linear.weight": {"_type": "histogram", "values": [1.0, 0.0, 0.0, 0.0, 0.0, 0.0, 0.0, 1.0, 1.0, 0.0, 1.0, 0.0, 0.0, 1.0, 1.0, 1.0, 1.0, 0.0, 2.0, 0.0, 3.0, 0.0, 2.0, 2.0, 1.0, 2.0, 8.0, 8.0, 9.0, 7.0, 8.0, 4.0, 7.0, 5.0, 5.0, 8.0, 12.0, 12.0, 8.0, 18.0, 9.0, 6.0, 5.0, 5.0, 4.0, 3.0, 3.0, 2.0, 3.0, 1.0, 1.0, 1.0, 1.0, 1.0, 2.0, 0.0, 2.0, 1.0, 0.0, 0.0, 0.0, 1.0, 0.0, 2.0], "bins": [-0.004206582438200712, -0.004088463261723518, -0.0039703440852463245, -0.003852224675938487, -0.0037341052666306496, -0.0036159860901534557, -0.0034978666808456182, -0.0033797475043684244, -0.003261628095060587, -0.003143508918583393, -0.0030253895092755556, -0.0029072703327983618, -0.0027891509234905243, -0.0026710317470133305, -0.002552912337705493, -0.002434793161228299, -0.0023166737519204617, -0.002198554575443268, -0.0020804351661354303, -0.0019623159896582365, -0.001844196580350399, -0.0017260774038732052, -0.0016079579945653677, -0.0014898388180881739, -0.00137171964161098, -0.0012536003487184644, -0.0011354810558259487, -0.001017361762933433, -0.0008992424700409174, -0.0007811232353560627, -0.000663003942463547, -0.0005448846495710313, -0.00042676529847085476, -0.0003086460055783391, -0.00019052672723773867, -7.240744889713824e-05, 4.571184399537742e-05, 0.00016383110778406262, 0.0002819504006765783, 0.00040006969356909394, 0.0005181889864616096, 0.0006363082793541253, 0.0007544275722466409, 0.0008725468069314957, 0.0009906660998240113, 0.001108785392716527, 0.0012269046856090426, 0.0013450239785015583, 0.001463143271394074, 0.0015812625642865896, 0.0016993818571791053, 0.001817501150071621, 0.0019356204429641366, 0.0020537397358566523, 0.002171858912333846, 0.0022899783216416836, 0.0024080974981188774, 0.0025262166745960712, 0.0026443360839039087, 0.0027624552603811026, 0.00288057466968894, 0.002998693846166134, 0.0031168132554739714, 0.003234932431951165, 0.0033530518412590027]}, "gradients/base.mlp.fc2.0.2.weight": {"_type": "histogram", "values": [1.0, 0.0, 0.0, 0.0, 0.0, 0.0, 0.0, 0.0, 0.0, 0.0, 0.0, 0.0, 0.0, 0.0, 0.0, 0.0, 0.0, 0.0, 0.0, 0.0, 0.0, 0.0, 0.0, 0.0, 0.0, 0.0, 0.0, 0.0, 0.0, 0.0, 0.0, 0.0, 0.0, 0.0, 0.0, 1.0, 0.0, 0.0, 0.0, 1.0, 0.0, 0.0, 2.0, 0.0, 3.0, 1.0, 1.0, 2.0, 7.0, 6.0, 4.0, 12.0, 9.0, 4.0, 3.0, 3.0, 1.0, 0.0, 1.0, 0.0, 1.0, 0.0, 0.0, 1.0], "bins": [-0.001011575572192669, -0.0009919197764247656, -0.0009722639224492013, -0.0009526080684736371, -0.0009329522727057338, -0.0009132964187301695, -0.0008936406229622662, -0.000873984768986702, -0.0008543289732187986, -0.0008346731192432344, -0.0008150173234753311, -0.0007953614694997668, -0.0007757056737318635, -0.0007560498197562993, -0.0007363940239883959, -0.0007167381700128317, -0.0006970823742449284, -0.0006774265202693641, -0.0006577707245014608, -0.0006381148705258965, -0.0006184590747579932, -0.000598803220782429, -0.0005791474250145257, -0.0005594915710389614, -0.0005398357170633972, -0.0005201798630878329, -0.0005005240673199296, -0.0004808682424481958, -0.00046121241757646203, -0.00044155659270472825, -0.00042190076783299446, -0.0004022449138574302, -0.00038258908898569643, -0.00036293326411396265, -0.00034327743924222887, -0.0003236216143704951, -0.0003039657894987613, -0.0002843099646270275, -0.00026465411065146327, -0.00024499831488355994, -0.00022534247545991093, -0.00020568665058817714, -0.00018603082571644336, -0.00016637498629279435, -0.00014671916142106056, -0.00012706333654932678, -0.00010740751167759299, -8.775168680585921e-05, -6.809586193412542e-05, -4.844003706239164e-05, -2.8784208552679047e-05, -9.128380042966455e-06, 1.052744482876733e-05, 3.0183269700501114e-05, 4.983910184819251e-05, 6.94949267199263e-05, 8.915075159166008e-05, 0.00010880657646339387, 0.00012846240133512765, 0.00014811824075877666, 0.00016777406563051045, 0.00018742989050224423, 0.00020708571537397802, 0.0002267415402457118, 0.0002463973651174456]}, "gradients/base.mlp.fc2.0.2.bias": {"_type": "histogram", "values": [1.0, 0.0, 0.0, 0.0, 0.0, 0.0, 0.0, 0.0, 0.0, 0.0, 0.0, 0.0, 0.0, 1.0, 1.0, 0.0, 0.0, 3.0, 1.0, 0.0, 3.0, 2.0, 2.0, 2.0, 5.0, 4.0, 4.0, 4.0, 5.0, 5.0, 1.0, 2.0, 1.0, 2.0, 0.0, 4.0, 0.0, 1.0, 2.0, 3.0, 0.0, 0.0, 1.0, 1.0, 1.0, 0.0, 0.0, 0.0, 0.0, 1.0, 0.0, 0.0, 0.0, 0.0, 0.0, 0.0, 0.0, 0.0, 0.0, 0.0, 0.0, 0.0, 0.0, 1.0], "bins": [-0.00035920992377214134, -0.00034693285124376416, -0.000334655778715387, -0.0003223787061870098, -0.0003101016045548022, -0.00029782456113025546, -0.00028554745949804783, -0.00027327038696967065, -0.0002609933144412935, -0.0002487162419129163, -0.00023643916938453913, -0.00022416208230424672, -0.00021188500977586955, -0.00019960793724749237, -0.00018733085016719997, -0.0001750537776388228, -0.00016277670511044562, -0.00015049963258206844, -0.00013822256005369127, -0.00012594547297339886, -0.00011366840044502169, -0.00010139132791664451, -8.911424811230972e-05, -7.683716830797493e-05, -6.456009577959776e-05, -5.228301961324178e-05, -4.0005943446885794e-05, -2.7728867280529812e-05, -1.545179111417383e-05, -3.1747185857966542e-06, 9.102361218538135e-06, 2.1379441022872925e-05, 3.365654265508056e-05, 4.593361882143654e-05, 5.821069498779252e-05, 7.048777479212731e-05, 8.276484732050449e-05, 9.504191984888166e-05, 0.00010731899965321645, 0.00011959607945755124, 0.00013187315198592842, 0.0001441502245143056, 0.00015642729704268277, 0.00016870438412297517, 0.00018098145665135235, 0.00019325852917972952, 0.00020553561626002192, 0.0002178126887883991, 0.00023008976131677628, 0.00024236683384515345, 0.0002546439063735306, 0.0002669209789019078, 0.000279198051430285, 0.0002914751530624926, 0.0003037522255908698, 0.00031602929811924696, 0.00032830637064762414, 0.0003405834431760013, 0.0003528605157043785, 0.00036513758823275566, 0.0003774146898649633, 0.00038969173328951, 0.00040196883492171764, 0.0004142459074500948, 0.000426522979978472]}, "gradients/base.mlp.fc2.0.0.bias": {"_type": "histogram", "values": [1.0, 0.0, 0.0, 0.0, 0.0, 0.0, 0.0, 1.0, 0.0, 0.0, 0.0, 0.0, 0.0, 1.0, 1.0, 0.0, 0.0, 0.0, 0.0, 0.0, 0.0, 0.0, 0.0, 0.0, 1.0, 4.0, 2.0, 2.0, 3.0, 3.0, 4.0, 1.0, 11.0, 4.0, 2.0, 5.0, 3.0, 3.0, 0.0, 1.0, 0.0, 1.0, 3.0, 1.0, 0.0, 0.0, 0.0, 1.0, 2.0, 0.0, 0.0, 0.0, 0.0, 0.0, 0.0, 0.0, 1.0, 0.0, 0.0, 1.0, 0.0, 0.0, 0.0, 1.0], "bins": [-0.00039281396311707795, -0.0003807359898928553, -0.0003686580457724631, -0.0003565800725482404, -0.00034450209932401776, -0.00033242415520362556, -0.0003203461819794029, -0.0003082682378590107, -0.00029619026463478804, -0.0002841122914105654, -0.0002720343472901732, -0.0002599563740659505, -0.00024787840084172785, -0.00023580045672133565, -0.000223722483497113, -0.00021164452482480556, -0.0001995665516005829, -0.00018748859292827547, -0.0001754106197040528, -0.00016333266103174537, -0.00015125470235943794, -0.00013917672913521528, -0.00012709877046290785, -0.00011502081179060042, -0.00010294284584233537, -9.086487989407033e-05, -7.87869212217629e-05, -6.670895527349785e-05, -5.463099296321161e-05, -4.255303065292537e-05, -3.0475064704660326e-05, -1.8397106032352895e-05, -6.319140084087849e-06, 5.758823135693092e-06, 1.7836786355474032e-05, 2.9914750484749675e-05, 4.1992712795035914e-05, 5.407067510532215e-05, 6.61486410535872e-05, 7.822659972589463e-05, 9.030456567415968e-05, 0.00010238253162242472, 0.00011446049029473215, 0.00012653844896703959, 0.00013861642219126225, 0.00015069438086356968, 0.0001627723395358771, 0.00017485031276009977, 0.0001869282714324072, 0.00019900623010471463, 0.0002110842033289373, 0.00022316216200124472, 0.00023524012067355216, 0.0002473180938977748, 0.000259396038018167, 0.0002714740112423897, 0.00028355198446661234, 0.000295629957690835, 0.0003077079018112272, 0.00031978587503544986, 0.0003318638482596725, 0.0003439417923800647, 0.0003560197656042874, 0.00036809773882851005, 0.00038017568294890225]}, "gradients/base.mlp.fc2.0.0.weight": {"_type": "histogram", "values": [1.0, 0.0, 0.0, 0.0, 0.0, 0.0, 0.0, 0.0, 0.0, 0.0, 0.0, 0.0, 1.0, 1.0, 1.0, 0.0, 0.0, 2.0, 5.0, 4.0, 2.0, 1.0, 2.0, 5.0, 9.0, 5.0, 4.0, 8.0, 26.0, 40.0, 49.0, 39.0, 87.0, 159.0, 275.0, 461.0, 1326.0, 743.0, 336.0, 111.0, 104.0, 81.0, 66.0, 43.0, 33.0, 9.0, 13.0, 9.0, 5.0, 4.0, 3.0, 3.0, 3.0, 2.0, 4.0, 2.0, 1.0, 3.0, 0.0, 1.0, 2.0, 0.0, 1.0, 1.0], "bins": [-0.0012938656145706773, -0.0012586492812260985, -0.001223432831466198, -0.0011882164981216192, -0.0011530001647770405, -0.0011177838314324617, -0.0010825673816725612, -0.0010473510483279824, -0.0010121347149834037, -0.000976918381638825, -0.0009417019900865853, -0.0009064855985343456, -0.0008712692651897669, -0.0008360528736375272, -0.0008008364820852876, -0.0007656201487407088, -0.0007304037571884692, -0.0006951873656362295, -0.0006599710322916508, -0.0006247546407394111, -0.0005895383073948324, -0.0005543219158425927, -0.000519105582498014, -0.0004838891909457743, -0.0004486728284973651, -0.0004134564660489559, -0.0003782401036005467, -0.0003430237411521375, -0.00030780734959989786, -0.0002725910162553191, -0.00023737462470307946, -0.00020215826225467026, -0.00016694184159860015, -0.00013172547915019095, -9.650910942582414e-05, -6.129273970145732e-05, -2.6076377253048122e-05, 9.139985195361078e-06, 4.4356362195685506e-05, 7.95727246440947e-05, 0.0001147890870925039, 0.0001500054495409131, 0.0001852218119893223, 0.00022043818898964673, 0.00025565456598997116, 0.0002908708993345499, 0.00032608729088678956, 0.00036130365333519876, 0.00039652001578360796, 0.00043173637823201716, 0.00046695274068042636, 0.000502169132232666, 0.0005373854655772448, 0.0005726018571294844, 0.0006078182486817241, 0.0006430345820263028, 0.0006782509153708816, 0.0007134673069231212, 0.0007486836402677, 0.0007839000318199396, 0.0008191163651645184, 0.000854332756716758, 0.0008895491482689977, 0.0009247654816135764, 0.0009599818731658161]}, "gradients/base.mlp.fc1.2.weight": {"_type": "histogram", "values": [1.0, 0.0, 2.0, 0.0, 0.0, 1.0, 1.0, 0.0, 0.0, 0.0, 0.0, 1.0, 0.0, 2.0, 0.0, 4.0, 1.0, 0.0, 3.0, 0.0, 7.0, 6.0, 2.0, 7.0, 2.0, 2.0, 4.0, 2.0, 4.0, 2.0, 0.0, 2.0, 1.0, 0.0, 2.0, 0.0, 0.0, 2.0, 0.0, 0.0, 0.0, 0.0, 0.0, 0.0, 0.0, 0.0, 1.0, 0.0, 0.0, 1.0, 0.0, 0.0, 0.0, 0.0, 0.0, 0.0, 0.0, 0.0, 0.0, 0.0, 0.0, 0.0, 0.0, 1.0], "bins": [-0.0004569801385514438, -0.0004375455901026726, -0.00041811104165390134, -0.0003986764932051301, -0.00037924194475635886, -0.0003598073963075876, -0.00034037281875498593, -0.0003209382703062147, -0.00030150372185744345, -0.0002820691734086722, -0.000262634624959901, -0.0002432000619592145, -0.00022376551351044327, -0.00020433096506167203, -0.00018489640206098557, -0.00016546185361221433, -0.0001460273051634431, -0.00012659275671467185, -0.000107158200989943, -8.772364526521415e-05, -6.828909681644291e-05, -4.885454836767167e-05, -2.9419992642942816e-05, -9.985436918213964e-06, 9.449111530557275e-06, 2.888366361730732e-05, 4.8318215704057366e-05, 6.775277142878622e-05, 8.718731987755746e-05, 0.0001066218683263287, 0.00012605643132701516, 0.0001454909797757864, 0.00016492547001689672, 0.00018436001846566796, 0.0002037945669144392, 0.00022322912991512567, 0.0002426636783638969, 0.0002620982122607529, 0.0002815327898133546, 0.00030096733826212585, 0.0003204018867108971, 0.0003398364351596683, 0.00035927098360843956, 0.0003787055320572108, 0.0003981401096098125, 0.00041757465805858374, 0.000437009206507355, 0.0004564437549561262, 0.00047587830340489745, 0.0004953128518536687, 0.0005147474003024399, 0.0005341819487512112, 0.0005536164971999824, 0.0005730510456487536, 0.0005924855940975249, 0.0006119201425462961, 0.0006313547492027283, 0.0006507892976514995, 0.0006702238461002707, 0.000689658394549042, 0.0007090929429978132, 0.0007285274914465845, 0.0007479620398953557, 0.0007673966465517879, 0.0007868311367928982]}, "gradients/base.mlp.fc1.2.bias": {"_type": "histogram", "values": [2.0, 0.0, 0.0, 0.0, 0.0, 0.0, 0.0, 0.0, 0.0, 0.0, 0.0, 0.0, 1.0, 0.0, 0.0, 0.0, 1.0, 0.0, 1.0, 0.0, 1.0, 2.0, 0.0, 3.0, 1.0, 1.0, 2.0, 4.0, 0.0, 1.0, 0.0, 0.0, 3.0, 2.0, 1.0, 2.0, 2.0, 2.0, 2.0, 0.0, 3.0, 1.0, 3.0, 0.0, 4.0, 0.0, 1.0, 2.0, 0.0, 1.0, 1.0, 3.0, 0.0, 1.0, 1.0, 1.0, 0.0, 2.0, 0.0, 1.0, 1.0, 2.0, 1.0, 1.0], "bins": [-0.0005293040885590017, -0.0005151473451405764, -0.000500990601722151, -0.00048683382919989526, -0.0004726770566776395, -0.00045852031325921416, -0.00044436356984078884, -0.0004302068264223635, -0.00041605005390010774, -0.0004018933104816824, -0.00038773653795942664, -0.0003735797945410013, -0.000359423051122576, -0.0003452662786003202, -0.0003311095351818949, -0.0003169527626596391, -0.0003027960192412138, -0.0002886392758227885, -0.0002744825033005327, -0.0002603257598821074, -0.0002461689873598516, -0.00023201224394142628, -0.00021785550052300096, -0.0002036987425526604, -0.00018954198458231986, -0.0001753852266119793, -0.00016122846864163876, -0.00014707172522321343, -0.00013291496725287288, -0.00011875820928253233, -0.0001046014585881494, -9.044470789376646e-05, -7.628794992342591e-05, -6.213119195308536e-05, -4.797444125870243e-05, -3.3817686926340684e-05, -1.966093259397894e-05, -5.5041746236383915e-06, 8.652576070744544e-06, 2.280932676512748e-05, 3.696608473546803e-05, 5.112283906782977e-05, 6.527959340019152e-05, 7.943634409457445e-05, 9.3593102064915e-05, 0.00010774986003525555, 0.00012190661072963849, 0.00013606336142402142, 0.00015022011939436197, 0.00016437687736470252, 0.00017853363533504307, 0.0001926903787534684, 0.00020684713672380894, 0.0002210038946941495, 0.00023516063811257482, 0.00024931738153100014, 0.0002634741540532559, 0.00027763089747168124, 0.000291787669993937, 0.00030594441341236234, 0.00032010115683078766, 0.00033425792935304344, 0.00034841467277146876, 0.00036257144529372454, 0.00037672818871214986]}, "gradients/base.mlp.fc1.0.bias": {"_type": "histogram", "values": [1.0, 0.0, 0.0, 0.0, 0.0, 0.0, 0.0, 0.0, 0.0, 0.0, 1.0, 0.0, 0.0, 0.0, 0.0, 0.0, 2.0, 0.0, 1.0, 0.0, 0.0, 0.0, 1.0, 1.0, 0.0, 1.0, 2.0, 0.0, 1.0, 4.0, 1.0, 3.0, 5.0, 5.0, 6.0, 9.0, 3.0, 1.0, 0.0, 0.0, 0.0, 0.0, 1.0, 0.0, 1.0, 2.0, 1.0, 0.0, 3.0, 1.0, 0.0, 0.0, 1.0, 0.0, 0.0, 2.0, 0.0, 1.0, 0.0, 1.0, 0.0, 1.0, 0.0, 1.0], "bins": [-0.0005507336463779211, -0.0005350117571651936, -0.0005192898097448051, -0.0005035678623244166, -0.0004878459731116891, -0.0004721240547951311, -0.0004564021364785731, -0.0004406802181620151, -0.0004249582998454571, -0.0004092363815288991, -0.00039351446321234107, -0.00037779254489578307, -0.00036207062657922506, -0.00034634870826266706, -0.00033062678994610906, -0.00031490487162955105, -0.00029918295331299305, -0.00028346103499643505, -0.00026773911667987704, -0.00025201719836331904, -0.00023629528004676104, -0.00022057336173020303, -0.00020485144341364503, -0.00018912952509708703, -0.00017340760678052902, -0.00015768568846397102, -0.00014196377014741302, -0.000126241851830855, -0.00011051993351429701, -9.4798015197739e-05, -7.9076096881181e-05, -6.3354178564623e-05, -4.763223114423454e-05, -3.1910312827676535e-05, -1.618839451111853e-05, -4.664761945605278e-07, 1.5255442121997476e-05, 3.097736043855548e-05, 4.669927875511348e-05, 6.242119707167149e-05, 7.814311538822949e-05, 9.386503370478749e-05, 0.0001095869520213455, 0.0001253088703379035, 0.0001410307886544615, 0.0001567527069710195, 0.0001724746252875775, 0.0001881965436041355, 0.00020391846192069352, 0.00021964038023725152, 0.00023536229855380952, 0.0002510842168703675, 0.00026680613518692553, 0.00028252805350348353, 0.00029824997182004154, 0.00031397189013659954, 0.00032969380845315754, 0.00034541572676971555, 0.00036113764508627355, 0.00037685956340283155, 0.00039258148171938956, 0.00040830340003594756, 0.00042402531835250556, 0.00043974723666906357, 0.00045546915498562157]}, "gradients/base.mlp.fc1.0.weight": {"_type": "histogram", "values": [1.0, 0.0, 0.0, 0.0, 0.0, 0.0, 0.0, 1.0, 0.0, 0.0, 0.0, 0.0, 0.0, 0.0, 1.0, 3.0, 3.0, 0.0, 4.0, 3.0, 3.0, 5.0, 4.0, 6.0, 5.0, 8.0, 15.0, 13.0, 10.0, 13.0, 18.0, 24.0, 36.0, 43.0, 55.0, 169.0, 606.0, 892.0, 3694.0, 699.0, 321.0, 97.0, 39.0, 41.0, 25.0, 25.0, 26.0, 16.0, 20.0, 16.0, 11.0, 11.0, 7.0, 8.0, 12.0, 8.0, 9.0, 5.0, 3.0, 1.0, 2.0, 2.0, 0.0, 1.0], "bins": [-0.0023481613025069237, -0.0022870118264108896, -0.0022258625831454992, -0.002164713107049465, -0.002103563630953431, -0.002042414154857397, -0.0019812649115920067, -0.0019201154354959726, -0.0018589660758152604, -0.0017978167161345482, -0.0017366672400385141, -0.001675517880357802, -0.0016143685206770897, -0.0015532190445810556, -0.0014920696849003434, -0.0014309203252196312, -0.0013697708491235971, -0.001308621489442885, -0.0012474720133468509, -0.0011863226536661386, -0.0011251731775701046, -0.0010640238178893924, -0.0010028744582086802, -0.000941725040320307, -0.0008805756224319339, -0.0008194262045435607, -0.0007582767866551876, -0.0006971274269744754, -0.0006359780090861022, -0.0005748285911977291, -0.0005136792315170169, -0.00045252981362864375, -0.00039138051215559244, -0.0003302310942672193, -0.0002690817054826766, -0.00020793230214621872, -0.0001467828988097608, -8.563348092138767e-05, -2.4484092136844993e-05, 3.666529664769769e-05, 9.781471453607082e-05, 0.00015896411787252873, 0.00022011352120898664, 0.0002812629099935293, 0.00034241232788190246, 0.0004035617457702756, 0.00046471113455481827, 0.000525860523339361, 0.0005870099412277341, 0.0006481593591161072, 0.0007093087770044804, 0.0007704581366851926, 0.0008316075545735657, 0.0008927569724619389, 0.0009539063321426511, 0.0010150556918233633, 0.0010762051679193974, 0.0011373545276001096, 0.0011985040036961436, 0.0012596533633768559, 0.00132080283947289, 0.0013819521991536021, 0.0014431015588343143, 0.0015042510349303484, 0.0015654003946110606]}, "gradients/base.feature_norm.weight": {"_type": "histogram", "values": [1.0, 0.0, 0.0, 0.0, 0.0, 0.0, 0.0, 0.0, 0.0, 0.0, 0.0, 0.0, 0.0, 0.0, 0.0, 0.0, 0.0, 0.0, 0.0, 0.0, 0.0, 0.0, 0.0, 1.0, 1.0, 1.0, 0.0, 1.0, 1.0, 2.0, 5.0, 19.0, 35.0, 27.0, 8.0, 3.0, 1.0, 0.0, 1.0, 1.0, 0.0, 0.0, 1.0, 0.0, 0.0, 0.0, 0.0, 0.0, 0.0, 0.0, 0.0, 0.0, 0.0, 0.0, 0.0, 0.0, 0.0, 0.0, 0.0, 0.0, 0.0, 0.0, 0.0, 1.0], "bins": [-0.0022193684708327055, -0.002151215448975563, -0.0020830624271184206, -0.002014909405261278, -0.0019467564998194575, -0.001878603477962315, -0.0018104505725204945, -0.001742297550663352, -0.0016741445288062096, -0.0016059915069490671, -0.0015378384850919247, -0.001469685579650104, -0.0014015325577929616, -0.0013333795359358191, -0.0012652266304939985, -0.001197073608636856, -0.0011289205867797136, -0.0010607675649225712, -0.0009926145430654287, -0.0009244616376236081, -0.0008563086157664657, -0.0007881555939093232, -0.0007200026302598417, -0.0006518496666103601, -0.0005836966447532177, -0.0005155436228960752, -0.0004473906592465937, -0.0003792376664932817, -0.00031108467373996973, -0.00024293168098665774, -0.00017477868823334575, -0.00010662569548003376, -3.847293555736542e-05, 2.9680057195946574e-05, 9.783304994925857e-05, 0.00016598604270257056, 0.00023413903545588255, 0.00030229202820919454, 0.00037044502096250653, 0.0004385980137158185, 0.0005067510064691305, 0.000574904028326273, 0.0006430569919757545, 0.000711209955625236, 0.0007793629774823785, 0.0008475159993395209, 0.0009156689629890025, 0.000983821926638484, 0.0010519749484956264, 0.001120127970352769, 0.0011882809922099113, 0.001256433897651732, 0.0013245869195088744, 0.0013927399413660169, 0.0014608928468078375, 0.00152904586866498, 0.0015971988905221224, 0.0016653519123792648, 0.0017335049342364073, 0.001801657839678228, 0.0018698108615353703, 0.0019379638833925128, 0.0020061167888343334, 0.002074269810691476, 0.0021424228325486183]}, "gradients/base.feature_norm.bias": {"_type": "histogram", "values": [1.0, 0.0, 0.0, 0.0, 0.0, 0.0, 0.0, 1.0, 0.0, 0.0, 3.0, 1.0, 1.0, 0.0, 3.0, 2.0, 2.0, 6.0, 5.0, 7.0, 0.0, 7.0, 2.0, 5.0, 1.0, 4.0, 3.0, 8.0, 3.0, 10.0, 4.0, 2.0, 5.0, 5.0, 4.0, 4.0, 0.0, 2.0, 0.0, 3.0, 0.0, 0.0, 0.0, 2.0, 0.0, 3.0, 0.0, 0.0, 0.0, 0.0, 0.0, 0.0, 0.0, 0.0, 0.0, 0.0, 0.0, 0.0, 0.0, 0.0, 0.0, 0.0, 0.0, 1.0], "bins": [-0.0006150531698949635, -0.0005915560759603977, -0.0005680589820258319, -0.0005445618880912662, -0.0005210647359490395, -0.0004975676420144737, -0.0004740705480799079, -0.0004505734541453421, -0.00042707636021077633, -0.00040357926627621055, -0.00038008217234164476, -0.0003565850493032485, -0.00033308795536868274, -0.00030959086143411696, -0.0002860937383957207, -0.00026259664446115494, -0.00023909955052658916, -0.00021560245659202337, -0.00019210534810554236, -0.00016860823961906135, -0.00014511114568449557, -0.00012161404447397217, -9.811694326344877e-05, -7.461983477696776e-05, -5.112274084240198e-05, -2.7625639631878585e-05, -4.128538421355188e-06, 1.936856278916821e-05, 4.2865663999691606e-05, 6.6362765210215e-05, 8.98598664207384e-05, 0.00011335697490721941, 0.0001368541270494461, 0.0001603512209840119, 0.0001838483294704929, 0.0002073454379569739, 0.0002308425318915397, 0.0002543396258261055, 0.0002778367488645017, 0.0003013338427990675, 0.0003248309367336333, 0.00034832803066819906, 0.00037182512460276484, 0.0003953222476411611, 0.00041881934157572687, 0.00044231643551029265, 0.0004658135585486889, 0.0004893106524832547, 0.0005128077464178205, 0.0005363048403523862, 0.000559801934286952, 0.0005832990282215178, 0.0006067961221560836, 0.0006302932742983103, 0.0006537903682328761, 0.0006772874621674418, 0.0007007845561020076, 0.0007242816500365734, 0.0007477787439711392, 0.000771275837905705, 0.0007947729900479317, 0.0008182700839824975, 0.0008417671779170632, 0.000865264271851629, 0.0008887613657861948]}, "gradients/graph_1v_out.bias": {"_type": "histogram", "values": [0.0, 0.0, 0.0, 0.0, 0.0, 0.0, 0.0, 0.0, 0.0, 0.0, 0.0, 0.0, 0.0, 0.0, 0.0, 0.0, 0.0, 0.0, 0.0, 0.0, 0.0, 0.0, 0.0, 0.0, 0.0, 0.0, 0.0, 0.0, 0.0, 0.0, 0.0, 0.0, 1.0, 0.0, 0.0, 0.0, 0.0, 0.0, 0.0, 0.0, 0.0, 0.0, 0.0, 0.0, 0.0, 0.0, 0.0, 0.0, 0.0, 0.0, 0.0, 0.0, 0.0, 0.0, 0.0, 0.0, 0.0, 0.0, 0.0, 0.0, 0.0, 0.0, 0.0, 0.0], "bins": [-0.015757080167531967, -0.015757080167531967, -0.015757080167531967, -0.015757080167531967, -0.015757080167531967, -0.015757080167531967, -0.015757080167531967, -0.015757080167531967, -0.015757080167531967, -0.015757080167531967, -0.015757080167531967, -0.015757080167531967, -0.015757080167531967, -0.015757080167531967, -0.015757080167531967, -0.015757080167531967, -0.015757080167531967, -0.015757080167531967, -0.015757080167531967, -0.015757080167531967, -0.015757080167531967, -0.015757080167531967, -0.015757080167531967, -0.015757080167531967, -0.015757080167531967, -0.015757080167531967, -0.015757080167531967, -0.015757080167531967, -0.015757080167531967, -0.015757080167531967, -0.015757080167531967, -0.015757080167531967, -0.015757080167531967, -0.015757080167531967, -0.015757080167531967, -0.015757080167531967, -0.015757080167531967, -0.015757080167531967, -0.015757080167531967, -0.015757080167531967, -0.015757080167531967, -0.015757080167531967, -0.015757080167531967, -0.015757080167531967, -0.015757080167531967, -0.015757080167531967, -0.015757080167531967, -0.015757080167531967, -0.015757080167531967, -0.015757080167531967, -0.015757080167531967, -0.015757080167531967, -0.015757080167531967, -0.015757080167531967, -0.015757080167531967, -0.015757080167531967, -0.015757080167531967, -0.015757080167531967, -0.015757080167531967, -0.015757080167531967, -0.015757080167531967, -0.015757080167531967, -0.015757080167531967, -0.015757080167531967, -0.015757080167531967]}, "gradients/graph_1v_out.weight": {"_type": "histogram", "values": [1.0, 0.0, 0.0, 0.0, 0.0, 0.0, 0.0, 0.0, 0.0, 0.0, 0.0, 1.0, 0.0, 0.0, 0.0, 0.0, 0.0, 0.0, 0.0, 1.0, 1.0, 1.0, 0.0, 0.0, 2.0, 1.0, 0.0, 0.0, 1.0, 0.0, 0.0, 1.0, 0.0, 1.0, 0.0, 0.0, 0.0, 1.0, 0.0, 1.0, 0.0, 1.0, 0.0, 1.0, 1.0, 1.0, 2.0, 0.0, 0.0, 0.0, 0.0, 0.0, 0.0, 1.0, 1.0, 2.0, 1.0, 0.0, 0.0, 0.0, 3.0, 34.0, 2.0, 1.0], "bins": [-0.05256526917219162, -0.05155520141124725, -0.05054513365030289, -0.04953506588935852, -0.048524998128414154, -0.04751492664217949, -0.04650485888123512, -0.045494791120290756, -0.04448472335934639, -0.04347465559840202, -0.04246458783745766, -0.04145452007651329, -0.040444448590278625, -0.03943438082933426, -0.03842431306838989, -0.037414245307445526, -0.03640417754650116, -0.03539410978555679, -0.03438404202461243, -0.03337397426366806, -0.032363906502723694, -0.03135383501648903, -0.030343767255544662, -0.029333699494600296, -0.02832363173365593, -0.027313563972711563, -0.026303496211767197, -0.02529342658817768, -0.024283358827233315, -0.023273291066288948, -0.022263221442699432, -0.021253153681755066, -0.020243089646100998, -0.01923302188515663, -0.018222954124212265, -0.01721288450062275, -0.016202816739678383, -0.015192748978734016, -0.014182680286467075, -0.013172611594200134, -0.012162542901933193, -0.011152474209666252, -0.010142406448721886, -0.00913233868777752, -0.008122269995510578, -0.007112201768904924, -0.006102133542299271, -0.005092065315693617, -0.004081997089087963, -0.0030719288624823093, -0.0020618606358766556, -0.0010517924092710018, -4.172418266534805e-05, 0.0009683440439403057, 0.0019784122705459595, 0.0029884804971516132, 0.003998548723757267, 0.005008616950362921, 0.0060186851769685745, 0.007028753403574228, 0.008038821630179882, 0.009048890322446823, 0.01005895808339119, 0.011069025844335556, 0.012079094536602497]}, "gradients/graph_1base.mlp.fc2.0.2.weight": {"_type": "histogram", "values": [1.0, 0.0, 0.0, 1.0, 1.0, 0.0, 0.0, 1.0, 0.0, 0.0, 0.0, 1.0, 1.0, 0.0, 1.0, 1.0, 1.0, 2.0, 2.0, 4.0, 1.0, 3.0, 2.0, 4.0, 6.0, 2.0, 3.0, 4.0, 2.0, 0.0, 2.0, 1.0, 4.0, 2.0, 0.0, 0.0, 1.0, 1.0, 0.0, 1.0, 2.0, 2.0, 0.0, 1.0, 0.0, 0.0, 0.0, 0.0, 0.0, 0.0, 0.0, 1.0, 0.0, 0.0, 0.0, 0.0, 1.0, 0.0, 0.0, 0.0, 0.0, 0.0, 0.0, 1.0], "bins": [-0.0035786095540970564, -0.0034485473297536373, -0.003318485338240862, -0.003188423113897443, -0.0030583608895540237, -0.0029282986652106047, -0.0027982364408671856, -0.00266817444935441, -0.002538112225010991, -0.002408050000667572, -0.0022779880091547966, -0.0021479257848113775, -0.0020178635604679585, -0.0018878013361245394, -0.0017577392281964421, -0.0016276771202683449, -0.0014976148959249258, -0.0013675526715815067, -0.0012374905636534095, -0.0011074284557253122, -0.0009773662313818932, -0.000847304065246135, -0.0007172418991103768, -0.0005871797329746187, -0.0004571175668388605, -0.00032705540070310235, -0.0001969932345673442, -6.693106843158603e-05, 6.313109770417213e-05, 0.0001931932638399303, 0.00032325542997568846, 0.0004533175961114466, 0.0005833795294165611, 0.0007134416955523193, 0.0008435038616880774, 0.0009735660278238356, 0.0011036281939595938, 0.0012336904183030128, 0.00136375252623111, 0.0014938146341592073, 0.0016238768585026264, 0.0017539390828460455, 0.0018840011907741427, 0.00201406329870224, 0.002144125523045659, 0.002274187747389078, 0.0024042497389018536, 0.0025343119632452726, 0.0026643741875886917, 0.002794436411932111, 0.00292449863627553, 0.0030545606277883053, 0.0031846228521317244, 0.0033146850764751434, 0.003444747067987919, 0.003574809292331338, 0.003704871516674757, 0.003834933741018176, 0.003964995965361595, 0.004095057956874371, 0.004225119948387146, 0.004355182405561209, 0.004485244397073984, 0.004615306854248047, 0.004745368845760822]}, "gradients/graph_1base.mlp.fc2.0.2.bias": {"_type": "histogram", "values": [1.0, 0.0, 0.0, 0.0, 0.0, 0.0, 0.0, 0.0, 1.0, 0.0, 0.0, 1.0, 1.0, 3.0, 1.0, 3.0, 1.0, 1.0, 1.0, 1.0, 1.0, 1.0, 1.0, 1.0, 4.0, 1.0, 2.0, 2.0, 1.0, 4.0, 1.0, 3.0, 2.0, 1.0, 2.0, 2.0, 2.0, 2.0, 2.0, 0.0, 0.0, 1.0, 3.0, 1.0, 0.0, 2.0, 1.0, 2.0, 1.0, 1.0, 0.0, 0.0, 0.0, 0.0, 0.0, 1.0, 0.0, 0.0, 0.0, 0.0, 0.0, 0.0, 0.0, 1.0], "bins": [-0.0048629045486450195, -0.004707931540906429, -0.004552958998829126, -0.004397986456751823, -0.004243013449013233, -0.004088040441274643, -0.00393306789919734, -0.0037780951242893934, -0.003623122349381447, -0.0034681495744735003, -0.0033131767995655537, -0.003158204024657607, -0.0030032312497496605, -0.002848258474841714, -0.0026932856999337673, -0.0025383129250258207, -0.002383340150117874, -0.0022283673752099276, -0.002073394600301981, -0.0019184218253940344, -0.0017634490504860878, -0.0016084762755781412, -0.0014535035006701946, -0.001298530725762248, -0.0011435579508543015, -0.0009885851759463549, -0.0008336124010384083, -0.0006786396261304617, -0.0005236668512225151, -0.0003686940763145685, -0.00021372130140662193, -5.8748526498675346e-05, 9.622378274798393e-05, 0.0002511965576559305, 0.0004061693325638771, 0.0005611421074718237, 0.0007161148823797703, 0.0008710876572877169, 0.0010260604321956635, 0.00118103320710361, 0.0013360059820115566, 0.0014909787569195032, 0.0016459515318274498, 0.0018009243067353964, 0.001955897081643343, 0.0021108698565512896, 0.002265842631459236, 0.0024208154063671827, 0.0025757881812751293, 0.002730760956183076, 0.0028857337310910225, 0.003040706505998969, 0.0031956792809069157, 0.0033506520558148623, 0.003505624830722809, 0.0036605976056307554, 0.003815570380538702, 0.003970542922616005, 0.004125515930354595, 0.004280488938093185, 0.004435461480170488, 0.004590434022247791, 0.0047454070299863815, 0.004900380037724972, 0.005055352579802275]}, "gradients/graph_1base.mlp.fc2.0.0.bias": {"_type": "histogram", "values": [1.0, 1.0, 0.0, 0.0, 1.0, 1.0, 1.0, 0.0, 0.0, 1.0, 0.0, 1.0, 0.0, 0.0, 1.0, 0.0, 1.0, 0.0, 0.0, 0.0, 0.0, 0.0, 0.0, 1.0, 0.0, 2.0, 2.0, 3.0, 7.0, 22.0, 4.0, 1.0, 2.0, 2.0, 0.0, 0.0, 0.0, 1.0, 0.0, 0.0, 2.0, 0.0, 0.0, 0.0, 1.0, 0.0, 0.0, 0.0, 0.0, 0.0, 0.0, 0.0, 0.0, 0.0, 0.0, 0.0, 1.0, 0.0, 1.0, 1.0, 0.0, 1.0, 0.0, 1.0], "bins": [-0.0020612324588000774, -0.001990846125409007, -0.0019204600248485804, -0.0018500738078728318, -0.0017796875908970833, -0.0017093013739213347, -0.0016389151569455862, -0.0015685288235545158, -0.0014981427229940891, -0.0014277565060183406, -0.001357370289042592, -0.0012869840720668435, -0.001216597855091095, -0.0011462116381153464, -0.001075825421139598, -0.0010054390877485275, -0.000935052870772779, -0.0008646666537970304, -0.0007942804368212819, -0.0007238942198455334, -0.0006535080028697848, -0.0005831217858940363, -0.0005127355107106268, -0.0004423492937348783, -0.00037196307675912976, -0.0003015768597833812, -0.00023119062825571746, -0.0001608043967280537, -9.041817975230515e-05, -2.003196277655661e-05, 5.0354283303022385e-05, 0.00012074050027877092, 0.00019112671725451946, 0.000261512934230268, 0.00033189915120601654, 0.00040228539728559554, 0.0004726716142613441, 0.0005430578021332622, 0.0006134440773166716, 0.0006838302942924201, 0.0007542165112681687, 0.0008246027282439172, 0.0008949889452196658, 0.0009653752204030752, 0.0010357614373788238, 0.0011061476543545723, 0.0011765338713303208, 0.0012469200883060694, 0.001317306305281818, 0.0013876925222575665, 0.001458078739233315, 0.0015284649562090635, 0.001598851173184812, 0.0016692373901605606, 0.001739623723551631, 0.0018100098241120577, 0.001880396157503128, 0.0019507823744788766, 0.002021168591454625, 0.0020915549248456955, 0.002161941025406122, 0.0022323273587971926, 0.0023027134593576193, 0.0023730997927486897, 0.0024434858933091164]}, "gradients/graph_1base.mlp.fc2.0.0.weight": {"_type": "histogram", "values": [1.0, 0.0, 1.0, 0.0, 1.0, 1.0, 2.0, 1.0, 1.0, 3.0, 3.0, 3.0, 2.0, 2.0, 4.0, 3.0, 4.0, 4.0, 4.0, 6.0, 8.0, 12.0, 11.0, 55.0, 131.0, 52.0, 87.0, 148.0, 473.0, 2433.0, 134.0, 171.0, 135.0, 92.0, 24.0, 13.0, 11.0, 7.0, 10.0, 5.0, 7.0, 4.0, 0.0, 3.0, 2.0, 0.0, 3.0, 1.0, 2.0, 1.0, 3.0, 1.0, 2.0, 2.0, 0.0, 2.0, 1.0, 0.0, 1.0, 1.0, 0.0, 1.0, 0.0, 1.0], "bins": [-0.007941562682390213, -0.007669566199183464, -0.007397569715976715, -0.007125573698431253, -0.0068535772152245045, -0.0065815807320177555, -0.006309584714472294, -0.006037588231265545, -0.005765591748058796, -0.005493595264852047, -0.005221598781645298, -0.004949602764099836, -0.004677606280893087, -0.004405609797686338, -0.004133613780140877, -0.003861617296934128, -0.003589620813727379, -0.00331762433052063, -0.0030456280801445246, -0.0027736318297684193, -0.0025016353465616703, -0.0022296388633549213, -0.001957642612978816, -0.001685646246187389, -0.0014136498793959618, -0.0011416535126045346, -0.0008696571458131075, -0.0005976607790216804, -0.0003256644122302532, -5.3668045438826084e-05, 0.00021832832135260105, 0.0004903246881440282, 0.0007623219862580299, 0.001034318353049457, 0.0013063147198408842, 0.0015783110866323113, 0.0018503074534237385, 0.0021223039366304874, 0.0023943001870065928, 0.002666296437382698, 0.002938292920589447, 0.003210289403796196, 0.0034822856541723013, 0.0037542819045484066, 0.0040262783877551556, 0.0042982748709619045, 0.004570270888507366, 0.004842267371714115, 0.005114263854920864, 0.005386260338127613, 0.005658256821334362, 0.005930252838879824, 0.006202249322086573, 0.006474245805293322, 0.006746241822838783, 0.007018238306045532, 0.007290234789252281, 0.00756223127245903, 0.007834227755665779, 0.008106224238872528, 0.008378220722079277, 0.008650216273963451, 0.0089222127571702, 0.00919420924037695, 0.009466205723583698]}, "gradients/graph_1base.mlp.fc1.2.weight": {"_type": "histogram", "values": [1.0, 0.0, 0.0, 0.0, 0.0, 0.0, 0.0, 1.0, 0.0, 0.0, 0.0, 1.0, 1.0, 0.0, 1.0, 2.0, 3.0, 3.0, 1.0, 3.0, 0.0, 4.0, 4.0, 3.0, 6.0, 4.0, 4.0, 2.0, 1.0, 4.0, 1.0, 1.0, 1.0, 1.0, 1.0, 1.0, 0.0, 0.0, 3.0, 0.0, 1.0, 2.0, 0.0, 1.0, 1.0, 0.0, 0.0, 0.0, 0.0, 0.0, 0.0, 0.0, 0.0, 0.0, 0.0, 0.0, 0.0, 0.0, 0.0, 0.0, 0.0, 0.0, 0.0, 1.0], "bins": [-0.0021147076040506363, -0.0020323835778981447, -0.0019500593189150095, -0.001867735292762518, -0.0017854110337793827, -0.0017030870076268911, -0.0016207628650590777, -0.0015384387224912643, -0.001456114579923451, -0.0013737904373556376, -0.0012914662947878242, -0.0012091421522200108, -0.0011268181260675192, -0.001044493867084384, -0.0009621698409318924, -0.000879845698364079, -0.0007975215557962656, -0.0007151974132284522, -0.0006328732706606388, -0.0005505491863004863, -0.00046822504373267293, -0.00038590090116485953, -0.00030357681680470705, -0.00022125267423689365, -0.00013892853166908026, -5.660440365318209e-05, 2.571972436271608e-05, 0.00010804383782669902, 0.00019036798039451241, 0.0002726921229623258, 0.0003550162073224783, 0.0004373403498902917, 0.0005196647252887487, 0.0006019888678565621, 0.0006843130104243755, 0.000766637094784528, 0.0008489612373523414, 0.0009312853799201548, 0.0010136094642803073, 0.0010959336068481207, 0.001178257749415934, 0.0012605818919837475, 0.0013429060345515609, 0.0014252301771193743, 0.0015075542032718658, 0.001589878462255001, 0.0016722024884074926, 0.001754526630975306, 0.0018368507735431194, 0.0019191749161109328, 0.0020014990586787462, 0.002083823084831238, 0.002166147343814373, 0.0022484713699668646, 0.002330795396119356, 0.0024131196551024914, 0.0024954439140856266, 0.002577767940238118, 0.0026600921992212534, 0.002742416225373745, 0.00282474048435688, 0.0029070645105093718, 0.0029893885366618633, 0.0030717127956449986, 0.00315403682179749]}, "gradients/graph_1base.mlp.fc1.2.bias": {"_type": "histogram", "values": [1.0, 1.0, 0.0, 1.0, 1.0, 0.0, 1.0, 0.0, 0.0, 1.0, 2.0, 0.0, 2.0, 1.0, 0.0, 1.0, 2.0, 0.0, 2.0, 3.0, 4.0, 2.0, 2.0, 4.0, 2.0, 1.0, 3.0, 2.0, 3.0, 3.0, 1.0, 3.0, 1.0, 2.0, 5.0, 0.0, 1.0, 2.0, 1.0, 0.0, 0.0, 2.0, 0.0, 0.0, 0.0, 0.0, 0.0, 0.0, 0.0, 0.0, 0.0, 0.0, 0.0, 0.0, 0.0, 0.0, 0.0, 0.0, 0.0, 0.0, 0.0, 0.0, 0.0, 1.0], "bins": [-0.0025397755671292543, -0.0024340078234672546, -0.0023282403126358986, -0.002222472568973899, -0.002116704825311899, -0.002010937314480543, -0.0019051695708185434, -0.0017994018271565437, -0.0016936341999098659, -0.001587866572663188, -0.0014820988290011883, -0.0013763312017545104, -0.0012705635745078325, -0.0011647958308458328, -0.001059028203599155, -0.0009532605181448162, -0.0008474928326904774, -0.0007417251472361386, -0.0006359574617817998, -0.0005301898345351219, -0.00042442214908078313, -0.00031865446362644434, -0.00021288683637976646, -0.00010711915092542768, -1.3514654710888863e-06, 0.00010441620543133467, 0.00021018387633375823, 0.00031595153268426657, 0.00042171921813860536, 0.0005274869035929441, 0.000633254530839622, 0.0007390222162939608, 0.0008447901345789433, 0.000950557820033282, 0.0010563255054876208, 0.0011620931327342987, 0.0012678608763962984, 0.0013736285036429763, 0.0014793961308896542, 0.0015851638745516539, 0.0016909315017983317, 0.0017966991290450096, 0.0019024668727070093, 0.002008234616369009, 0.002114002127200365, 0.0022197698708623648, 0.0023255376145243645, 0.0024313051253557205, 0.0025370728690177202, 0.00264284061267972, 0.002748608123511076, 0.0028543758671730757, 0.0029601436108350754, 0.0030659111216664314, 0.003171678865328431, 0.003277446608990431, 0.003383214119821787, 0.0034889818634837866, 0.0035947493743151426, 0.0037005171179771423, 0.003806284861639142, 0.003912052605301142, 0.004017820116132498, 0.004123587626963854, 0.004229355603456497]}, "gradients/graph_1base.mlp.fc1.0.bias": {"_type": "histogram", "values": [1.0, 0.0, 0.0, 0.0, 0.0, 0.0, 0.0, 0.0, 1.0, 2.0, 0.0, 0.0, 0.0, 2.0, 2.0, 2.0, 4.0, 5.0, 13.0, 11.0, 2.0, 3.0, 2.0, 2.0, 1.0, 1.0, 2.0, 0.0, 0.0, 1.0, 1.0, 2.0, 0.0, 0.0, 2.0, 0.0, 0.0, 0.0, 1.0, 0.0, 0.0, 0.0, 0.0, 0.0, 0.0, 0.0, 0.0, 0.0, 0.0, 0.0, 0.0, 0.0, 0.0, 0.0, 0.0, 0.0, 0.0, 0.0, 0.0, 0.0, 0.0, 0.0, 0.0, 1.0], "bins": [-0.0007442240021191537, -0.0007047945982776582, -0.0006653651362285018, -0.0006259357323870063, -0.0005865063285455108, -0.0005470769247040153, -0.0005076475208625197, -0.0004682180588133633, -0.0004287886549718678, -0.0003893592511303723, -0.0003499298181850463, -0.00031050038523972034, -0.00027107098139822483, -0.0002316415630048141, -0.00019221214461140335, -0.00015278271166607738, -0.00011335330782458186, -7.392388943117112e-05, -3.449447103776038e-05, 4.934947355650365e-06, 4.436436574906111e-05, 8.379378414247185e-05, 0.0001232232025358826, 0.00016265263548120856, 0.00020208203932270408, 0.00024151145771611482, 0.00028094087610952556, 0.00032037030905485153, 0.00035979971289634705, 0.00039922911673784256, 0.00043865854968316853, 0.0004780879826284945, 0.0005175174446776509, 0.0005569468485191464, 0.000596376252360642, 0.0006358057144097984, 0.0006752351182512939, 0.0007146645220927894, 0.0007540939841419458, 0.0007935233879834414, 0.0008329527918249369, 0.0008723821956664324, 0.0009118115995079279, 0.0009512410615570843, 0.000990670407190919, 0.0010300999274477363, 0.0010695293312892318, 0.0011089587351307273, 0.0011483881389722228, 0.0011878175428137183, 0.0012272469466552138, 0.0012666763504967093, 0.0013061058707535267, 0.0013455352745950222, 0.0013849646784365177, 0.0014243940822780132, 0.0014638234861195087, 0.0015032528899610043, 0.0015426822938024998, 0.0015821116976439953, 0.0016215411014854908, 0.0016609706217423081, 0.0017004000255838037, 0.0017398294294252992, 0.0017792588332667947]}, "gradients/graph_1base.mlp.fc1.0.weight": {"_type": "histogram", "values": [1.0, 0.0, 0.0, 1.0, 1.0, 0.0, 1.0, 4.0, 1.0, 2.0, 1.0, 6.0, 6.0, 4.0, 39.0, 178.0, 6378.0, 42541.0, 657.0, 222.0, 14.0, 16.0, 55.0, 31.0, 3.0, 2.0, 2.0, 2.0, 1.0, 1.0, 1.0, 0.0, 2.0, 0.0, 0.0, 1.0, 0.0, 1.0, 0.0, 0.0, 0.0, 0.0, 0.0, 0.0, 0.0, 0.0, 0.0, 0.0, 0.0, 0.0, 0.0, 0.0, 0.0, 0.0, 0.0, 0.0, 0.0, 0.0, 0.0, 0.0, 0.0, 0.0, 0.0, 1.0], "bins": [-0.010385469533503056, -0.009781109169125557, -0.009176748804748058, -0.00857238844037056, -0.007968028075993061, -0.0073636677116155624, -0.0067593068815767765, -0.006154946517199278, -0.005550586152821779, -0.004946225788444281, -0.004341865424066782, -0.0037375048268586397, -0.003133144462481141, -0.0025287840981036425, -0.0019244235008955002, -0.0013200631365180016, -0.0007157027721405029, -0.00011134234955534339, 0.0004930180730298162, 0.0010973785538226366, 0.0017017389182001352, 0.002306099282577634, 0.002910459879785776, 0.0035148202441632748, 0.004119180608540773, 0.004723540972918272, 0.005327901337295771, 0.005932262167334557, 0.006536622531712055, 0.007140982896089554, 0.0077453432604670525, 0.008349703624844551, 0.008954064920544624, 0.009558425284922123, 0.010162785649299622, 0.01076714601367712, 0.011371506378054619, 0.011975866742432117, 0.012580227106809616, 0.01318458840250969, 0.013788947835564613, 0.014393308199942112, 0.01499766856431961, 0.01560202892869711, 0.016206389293074608, 0.01681075058877468, 0.017415110021829605, 0.01801947131752968, 0.01862383261322975, 0.019228193908929825, 0.01983255334198475, 0.020436914637684822, 0.021041274070739746, 0.02164563536643982, 0.022249994799494743, 0.022854356095194817, 0.02345871552824974, 0.024063076823949814, 0.024667436257004738, 0.02527179755270481, 0.025876156985759735, 0.02648051828145981, 0.027084877714514732, 0.027689239010214806, 0.02829359844326973]}, "gradients/graph_1base.feature_norm.weight": {"_type": "histogram", "values": [1.0, 0.0, 0.0, 0.0, 0.0, 0.0, 0.0, 0.0, 0.0, 0.0, 0.0, 0.0, 0.0, 0.0, 0.0, 0.0, 0.0, 0.0, 0.0, 0.0, 0.0, 0.0, 0.0, 0.0, 0.0, 0.0, 0.0, 0.0, 0.0, 0.0, 0.0, 0.0, 0.0, 0.0, 1.0, 0.0, 0.0, 0.0, 0.0, 0.0, 2.0, 0.0, 1.0, 1.0, 3.0, 3.0, 0.0, 5.0, 7.0, 9.0, 23.0, 220.0, 383.0, 85.0, 11.0, 7.0, 6.0, 6.0, 4.0, 4.0, 1.0, 0.0, 0.0, 1.0], "bins": [-0.00349253136664629, -0.0034255834762007, -0.0033586358185857534, -0.0032916879281401634, -0.0032247400376945734, -0.003157792380079627, -0.003090844489634037, -0.003023896599188447, -0.0029569489415735006, -0.0028900010511279106, -0.0028230533935129642, -0.0027561055030673742, -0.002689157612621784, -0.002622209955006838, -0.002555262064561248, -0.002488314174115658, -0.0024213665165007114, -0.0023544186260551214, -0.002287470968440175, -0.002220523077994585, -0.002153575187548995, -0.0020866275299340487, -0.0020196796394884586, -0.0019527318654581904, -0.0018857838585972786, -0.0018188360845670104, -0.0017518881941214204, -0.0016849404200911522, -0.001617992646060884, -0.0015510448720306158, -0.0014840969815850258, -0.0014171492075547576, -0.001350201666355133, -0.0012832538923248649, -0.0012163060018792748, -0.0011493582278490067, -0.0010824104538187385, -0.0010154626797884703, -0.0009485147893428802, -0.0008815670153126121, -0.000814619124867022, -0.0007476712926290929, -0.0006807235185988247, -0.0006137756863608956, -0.0005468279123306274, -0.00047988008009269834, -0.00041293224785476923, -0.0003459844447206706, -0.00027903664158657193, -0.00021208883845247328, -0.0001451410207664594, -7.819320308044553e-05, -1.1245399946346879e-05, 5.570240318775177e-05, 0.00012265023542568088, 0.00018959803855977952, 0.0002565458416938782, 0.0003234936448279768, 0.00039044144796207547, 0.0004573892802000046, 0.0005243370542302728, 0.0005912848864682019, 0.000658232718706131, 0.0007251804927363992, 0.0007921283249743283]}, "gradients/graph_1base.feature_norm.bias": {"_type": "histogram", "values": [1.0, 0.0, 0.0, 1.0, 1.0, 1.0, 0.0, 2.0, 2.0, 1.0, 6.0, 5.0, 3.0, 8.0, 10.0, 10.0, 15.0, 18.0, 20.0, 21.0, 23.0, 31.0, 28.0, 24.0, 25.0, 25.0, 28.0, 35.0, 35.0, 28.0, 29.0, 38.0, 30.0, 26.0, 34.0, 25.0, 20.0, 21.0, 18.0, 27.0, 14.0, 11.0, 17.0, 19.0, 6.0, 9.0, 9.0, 4.0, 6.0, 4.0, 3.0, 0.0, 0.0, 2.0, 0.0, 2.0, 1.0, 0.0, 0.0, 1.0, 0.0, 0.0, 0.0, 1.0], "bins": [-0.00043806032044813037, -0.00042350267176516354, -0.00040894505218602717, -0.00039438740350306034, -0.00037982978392392397, -0.00036527213524095714, -0.0003507144865579903, -0.00033615686697885394, -0.0003215992182958871, -0.0003070415696129203, -0.0002924839500337839, -0.0002779263013508171, -0.00026336865266785026, -0.0002488110330887139, -0.00023425338440574706, -0.00021969575027469546, -0.00020513811614364386, -0.00019058048201259226, -0.00017602284788154066, -0.00016146519919857383, -0.00014690756506752223, -0.00013234993093647063, -0.00011779228952946141, -0.0001032346481224522, -8.86770139914006e-05, -7.4119379860349e-05, -5.9561738453339785e-05, -4.500410068430938e-05, -3.044646291527897e-05, -1.588882878422737e-05, -1.331187377218157e-06, 1.3226454029791057e-05, 2.7784088160842657e-05, 4.2341725929873064e-05, 5.689936369890347e-05, 7.145700510591269e-05, 8.601463923696429e-05, 0.00010057227336801589, 0.0001151299147750251, 0.00012968755618203431, 0.00014424519031308591, 0.00015880282444413751, 0.00017336045857518911, 0.00018791810725815594, 0.00020247574138920754, 0.00021703337552025914, 0.00023159102420322597, 0.0002461486728861928, 0.00026070629246532917, 0.000275263941148296, 0.00028982156072743237, 0.0003043792094103992, 0.00031893682898953557, 0.0003334944776725024, 0.0003480521263554692, 0.0003626097459346056, 0.0003771673946175724, 0.00039172504330053926, 0.0004062826628796756, 0.00042084031156264246, 0.0004353979602456093, 0.00044995557982474566, 0.0004645132285077125, 0.0004790708771906793, 0.0004936284967698157]}, "_wandb": {"runtime": 9776}}