{"value_loss": 0.3103544175624847, "_timestamp": 1665261780.6758628, "_runtime": 9716.133695840836, "policy_loss": -0.0008724170332442327, "dist_entropy": 1.0407721638679504, "actor_grad_norm": 0.03786345198750496, "critic_grad_norm": 0.17332038283348083, "ratio": 0.9999524354934692, "sm3_ratio_mean": 0.5669438775510532, "drop_mean": 0.004761471355411592, "drop_std": 0.03394135584122503, "drop_min": 0.0, "drop_max": 0.7, "delay_mean": 0.0934561047652725, "delay_std": 0.11394134354174665, "delay_min": 0.0, "delay_max": 0.87333335644669, "pc_mean": 234.8411865234375, "pc_std": 57.49495315551758, "pc_min": 118.33969116210938, "pc_max": 751.0859375, "reward_mean": -0.2679941517852058, "reward_std": 0.18530814699441733, "reward_min": -3.791103420807256, "reward_max": -0.11833969116210938, "_step": 2520000, "gradients/act.action_outs.2.linear.bias": {"_type": "histogram", "values": [2.0, 0.0, 0.0, 0.0, 0.0, 0.0, 0.0, 0.0, 0.0, 0.0, 0.0, 0.0, 0.0, 0.0, 0.0, 0.0, 0.0, 0.0, 0.0, 0.0, 0.0, 0.0, 0.0, 0.0, 0.0, 0.0, 0.0, 0.0, 0.0, 0.0, 0.0, 0.0, 0.0, 0.0, 0.0, 0.0, 0.0, 0.0, 0.0, 0.0, 0.0, 0.0, 0.0, 0.0, 0.0, 0.0, 0.0, 0.0, 0.0, 0.0, 0.0, 0.0, 0.0, 0.0, 0.0, 0.0, 0.0, 0.0, 0.0, 0.0, 0.0, 0.0, 0.0, 1.0], "bins": [-0.00017634817049838603, -0.00016811725799925625, -0.00015988634550012648, -0.0001516554330009967, -0.00014342452050186694, -0.00013519360800273716, -0.00012696271005552262, -0.00011873179755639285, -0.00011050088505726308, -0.0001022699725581333, -9.403906005900353e-05, -8.580815483583137e-05, -7.75772423367016e-05, -6.934632983757183e-05, -6.111542461439967e-05, -5.28845121152699e-05, -4.465359961614013e-05, -3.6422687117010355e-05, -2.819177825585939e-05, -1.996086757571902e-05, -1.1729956895578653e-05, -3.4990443964488804e-06, 4.731864464702085e-06, 1.296277332585305e-05, 2.1193685824982822e-05, 2.942459650512319e-05, 3.765550718526356e-05, 4.5886416046414524e-05, 5.4117328545544297e-05, 6.234824104467407e-05, 7.057914626784623e-05, 7.8810058766976e-05, 8.704094216227531e-05, 9.527185466140509e-05, 0.00010350276716053486, 0.00011173367238370702, 0.00011996458488283679, 0.00012819550465792418, 0.00013642640260513872, 0.0001446573151042685, 0.00015288822760339826, 0.00016111914010252804, 0.0001693500526016578, 0.00017758096510078758, 0.00018581186304800212, 0.0001940427755471319, 0.00020227368804626167, 0.00021050460054539144, 0.0002187355130445212, 0.00022696642554365098, 0.00023519733804278076, 0.00024342825054191053, 0.0002516591630410403, 0.0002598900755401701, 0.00026812098803929985, 0.00027635187143459916, 0.00028458278393372893, 0.0002928136964328587, 0.0003010446089319885, 0.00030927552143111825, 0.000317506433930248, 0.0003257373464293778, 0.00033396825892850757, 0.00034219917142763734, 0.0003504300839267671]}, "gradients/act.action_outs.2.linear.weight": {"_type": "histogram", "values": [2.0, 0.0, 1.0, 1.0, 0.0, 1.0, 1.0, 1.0, 1.0, 0.0, 0.0, 2.0, 1.0, 2.0, 3.0, 1.0, 3.0, 3.0, 6.0, 7.0, 3.0, 6.0, 13.0, 8.0, 4.0, 12.0, 10.0, 8.0, 3.0, 5.0, 10.0, 8.0, 5.0, 8.0, 11.0, 4.0, 4.0, 3.0, 3.0, 3.0, 2.0, 7.0, 1.0, 3.0, 3.0, 0.0, 3.0, 1.0, 1.0, 2.0, 1.0, 0.0, 0.0, 0.0, 0.0, 0.0, 0.0, 0.0, 0.0, 0.0, 0.0, 0.0, 0.0, 1.0], "bins": [-0.0018032263033092022, -0.0017394325695931911, -0.00167563883587718, -0.0016118452185764909, -0.0015480514848604798, -0.0014842577511444688, -0.0014204641338437796, -0.0013566704001277685, -0.0012928766664117575, -0.0012290829326957464, -0.0011652891989797354, -0.0011014955816790462, -0.001037701847963035, -0.0009739081142470241, -0.0009101144387386739, -0.0008463207632303238, -0.0007825270295143127, -0.0007187332957983017, -0.0006549396202899516, -0.0005911459447816014, -0.0005273522110655904, -0.0004635585064534098, -0.0003997648018412292, -0.0003359710972290486, -0.000272177392616868, -0.00020838368800468743, -0.00014458998339250684, -8.079627878032625e-05, -1.7002574168145657e-05, 4.6791130444034934e-05, 0.00011058483505621552, 0.00017437853966839612, 0.00023817201144993305, 0.00030196571606211364, 0.00036575942067429423, 0.0004295531252864748, 0.0004933468298986554, 0.0005571405636146665, 0.0006209342391230166, 0.0006847279146313667, 0.0007485216483473778, 0.0008123153820633888, 0.000876109057571739, 0.0009399027330800891, 0.0010036964667961001, 0.0010674902005121112, 0.0011312838178128004, 0.0011950775515288115, 0.0012588712852448225, 0.0013226650189608335, 0.0013864587526768446, 0.0014502523699775338, 0.0015140461036935449, 0.001577839837409556, 0.0016416334547102451, 0.0017054271884262562, 0.0017692209221422672, 0.0018330146558582783, 0.0018968083895742893, 0.0019606021232903004, 0.0020243958570063114, 0.002088189357891679, 0.00215198309160769, 0.002215776825323701, 0.002279570559039712]}, "gradients/act.action_outs.1.linear.bias": {"_type": "histogram", "values": [2.0, 0.0, 0.0, 0.0, 0.0, 0.0, 0.0, 0.0, 0.0, 0.0, 0.0, 0.0, 0.0, 0.0, 0.0, 0.0, 0.0, 0.0, 0.0, 0.0, 0.0, 0.0, 0.0, 0.0, 0.0, 0.0, 0.0, 0.0, 0.0, 0.0, 0.0, 0.0, 0.0, 0.0, 0.0, 0.0, 0.0, 0.0, 0.0, 0.0, 0.0, 0.0, 0.0, 0.0, 0.0, 0.0, 0.0, 0.0, 0.0, 0.0, 0.0, 0.0, 0.0, 0.0, 1.0, 0.0, 0.0, 0.0, 0.0, 0.0, 0.0, 0.0, 0.0, 1.0], "bins": [-0.0004761654417961836, -0.0004601457912940532, -0.00044412616989575326, -0.0004281065193936229, -0.00041208689799532294, -0.00039606724749319255, -0.00038004759699106216, -0.00036402797559276223, -0.00034800832509063184, -0.00033198867458850145, -0.0003159690531902015, -0.00029994940268807113, -0.00028392975218594074, -0.0002679101307876408, -0.0002518904802855104, -0.00023587084433529526, -0.0002198512083850801, -0.00020383157243486494, -0.00018781193648464978, -0.0001717922859825194, -0.00015577265003230423, -0.00013975301408208907, -0.00012373336357995868, -0.00010771372762974352, -9.169409167952836e-05, -7.56744557293132e-05, -5.965481250314042e-05, -4.363517291494645e-05, -2.7615533326752484e-05, -1.1595897376537323e-05, 4.423745849635452e-06, 2.0443389075808227e-05, 3.6462966818362474e-05, 5.248260640655644e-05, 6.850224599475041e-05, 8.452188922092319e-05, 0.00010054152517113835, 0.00011656116112135351, 0.0001325808116234839, 0.00014860044757369906, 0.00016462008352391422, 0.00018063971947412938, 0.00019665935542434454, 0.00021267900592647493, 0.0002286986418766901, 0.00024471827782690525, 0.00026073792832903564, 0.00027675757883116603, 0.00029277720022946596, 0.00030879685073159635, 0.0003248164721298963, 0.00034083612263202667, 0.0003568557440303266, 0.000372875394532457, 0.0003888950450345874, 0.0004049146664328873, 0.0004209343169350177, 0.0004369539674371481, 0.000452973588835448, 0.0004689932393375784, 0.0004850128898397088, 0.0005010325112380087, 0.0005170521326363087, 0.0005330718122422695, 0.0005490914336405694]}, "gradients/act.action_outs.1.linear.weight": {"_type": "histogram", "values": [1.0, 0.0, 1.0, 0.0, 0.0, 0.0, 1.0, 0.0, 0.0, 1.0, 0.0, 0.0, 1.0, 0.0, 0.0, 1.0, 1.0, 2.0, 3.0, 5.0, 5.0, 8.0, 6.0, 2.0, 9.0, 9.0, 9.0, 12.0, 17.0, 18.0, 14.0, 13.0, 6.0, 3.0, 17.0, 19.0, 10.0, 12.0, 7.0, 3.0, 5.0, 3.0, 5.0, 2.0, 2.0, 4.0, 3.0, 2.0, 0.0, 3.0, 4.0, 1.0, 1.0, 2.0, 0.0, 0.0, 0.0, 0.0, 0.0, 0.0, 0.0, 0.0, 1.0, 2.0], "bins": [-0.003526822431012988, -0.0034168947022408247, -0.003306967206299305, -0.0031970394775271416, -0.003087111748754978, -0.0029771842528134584, -0.002867256524041295, -0.0027573290280997753, -0.002647401299327612, -0.0025374735705554485, -0.002427546074613929, -0.0023176183458417654, -0.002207690617069602, -0.0020977631211280823, -0.001987835392355919, -0.0018779077799990773, -0.001767980051226914, -0.0016580524388700724, -0.001548124710097909, -0.0014381970977410674, -0.0013282694853842258, -0.0012183417566120625, -0.0011084141442552209, -0.0009984865318983793, -0.0008885588613338768, -0.0007786311907693744, -0.0006687035784125328, -0.0005587759078480303, -0.0004488482663873583, -0.0003389206249266863, -0.0002289929543621838, -0.00011906534200534225, -9.137671440839767e-06, 0.00010078997729578987, 0.0002107176260324195, 0.00032064528204500675, 0.0004305729235056788, 0.0005405005649663508, 0.0006504282355308533, 0.0007603558478876948, 0.0008702835184521973, 0.0009802111890166998, 0.0010901388013735414, 0.001200066413730383, 0.0013099941425025463, 0.0014199217548593879, 0.0015298493672162294, 0.0016397770959883928, 0.0017497047083452344, 0.001859632320702076, 0.0019695600494742393, 0.0020794877782464027, 0.0021894152741879225, 0.002299343002960086, 0.0024092704989016056, 0.002519198227673769, 0.0026291259564459324, 0.0027390536852180958, 0.0028489811811596155, 0.002958908909931779, 0.0030688366387039423, 0.003178764134645462, 0.0032886918634176254, 0.003398619592189789, 0.0035085470881313086]}, "gradients/act.action_outs.0.linear.bias": {"_type": "histogram", "values": [1.0, 0.0, 0.0, 0.0, 0.0, 0.0, 0.0, 0.0, 0.0, 0.0, 0.0, 1.0, 0.0, 0.0, 0.0, 0.0, 0.0, 0.0, 0.0, 0.0, 0.0, 0.0, 0.0, 0.0, 0.0, 0.0, 0.0, 0.0, 0.0, 0.0, 0.0, 0.0, 0.0, 0.0, 0.0, 0.0, 0.0, 0.0, 0.0, 0.0, 0.0, 0.0, 0.0, 0.0, 0.0, 0.0, 0.0, 0.0, 0.0, 0.0, 0.0, 0.0, 0.0, 0.0, 0.0, 0.0, 0.0, 0.0, 0.0, 0.0, 0.0, 0.0, 0.0, 1.0], "bins": [-0.000616902660112828, -0.0005924711003899574, -0.0005680394824594259, -0.0005436079227365553, -0.0005191763630136847, -0.0004947447450831532, -0.00047031318536028266, -0.00044588162563741207, -0.000421450036810711, -0.00039701844798401, -0.0003725868882611394, -0.00034815529943443835, -0.0003237237106077373, -0.0002992921508848667, -0.00027486056205816567, -0.0002504289732314646, -0.00022599741350859404, -0.00020156583923380822, -0.0001771342649590224, -0.00015270267613232136, -0.00012827110185753554, -0.00010383952758274972, -7.940793875604868e-05, -5.497636448126286e-05, -3.0544790206477046e-05, -6.113212293712422e-06, 1.83183656190522e-05, 4.274994716979563e-05, 6.718152144458145e-05, 9.161309571936727e-05, 0.00011604468454606831, 0.00014047625882085413, 0.00016490783309563994, 0.00018933940737042576, 0.00021377098164521158, 0.00023820257047191262, 0.0002626341301947832, 0.00028706571902148426, 0.0003114973078481853, 0.0003359288675710559, 0.00036036045639775693, 0.000384792045224458, 0.00040922360494732857, 0.0004336551937740296, 0.00045808678260073066, 0.00048251834232360125, 0.0005069499602541327, 0.0005313815199770033, 0.0005558130796998739, 0.0005802446394227445, 0.000604676257353276, 0.0006291078170761466, 0.0006535393767990172, 0.0006779709365218878, 0.0007024025544524193, 0.0007268341141752899, 0.0007512656738981605, 0.000775697233621031, 0.0008001288515515625, 0.0008245604112744331, 0.0008489919709973037, 0.0008734235307201743, 0.0008978551486507058, 0.0009222867083735764, 0.0009467183263041079]}, "gradients/act.action_outs.0.linear.weight": {"_type": "histogram", "values": [1.0, 0.0, 0.0, 0.0, 0.0, 0.0, 0.0, 0.0, 0.0, 0.0, 0.0, 0.0, 1.0, 0.0, 0.0, 0.0, 1.0, 2.0, 1.0, 2.0, 1.0, 1.0, 1.0, 4.0, 1.0, 0.0, 4.0, 3.0, 6.0, 8.0, 8.0, 9.0, 8.0, 4.0, 7.0, 6.0, 2.0, 10.0, 13.0, 14.0, 10.0, 9.0, 11.0, 7.0, 8.0, 6.0, 3.0, 0.0, 1.0, 4.0, 5.0, 2.0, 0.0, 0.0, 2.0, 1.0, 2.0, 0.0, 1.0, 1.0, 0.0, 0.0, 0.0, 1.0], "bins": [-0.0036273428704589605, -0.003530111163854599, -0.0034328794572502375, -0.003335647750645876, -0.0032384160440415144, -0.003141184337437153, -0.0030439526308327913, -0.00294672092422843, -0.0028494892176240683, -0.0027522575110197067, -0.002655025804415345, -0.0025577940978109837, -0.002460562391206622, -0.0023633306846022606, -0.002266098977997899, -0.0021688672713935375, -0.002071635564789176, -0.0019744038581848145, -0.001877172151580453, -0.0017799404449760914, -0.0016827087383717299, -0.0015854770317673683, -0.0014882453251630068, -0.0013910136185586452, -0.0012937819119542837, -0.0011965502053499222, -0.0010993184987455606, -0.0010020867921411991, -0.0009048550855368376, -0.000807623378932476, -0.0007103916723281145, -0.000613159965723753, -0.0005159284919500351, -0.00041869678534567356, -0.000321465078741312, -0.0002242333721369505, -0.00012700166553258896, -2.9769958928227425e-05, 6.746174767613411e-05, 0.00016469345428049564, 0.0002619251608848572, 0.0003591568674892187, 0.00045638857409358025, 0.0005536202806979418, 0.0006508519873023033, 0.0007480836939066648, 0.0008453154005110264, 0.0009425471071153879, 0.0010397788137197495, 0.001137010520324111, 0.0012342422269284725, 0.001331473933532834, 0.0014287056401371956, 0.0015259373467415571, 0.0016231690533459187, 0.0017204007599502802, 0.0018176324665546417, 0.0019148641731590033, 0.002012095879763365, 0.0021093275863677263, 0.002206559292972088, 0.0023037909995764494, 0.002401022706180811, 0.0024982544127851725, 0.002595486119389534]}, "gradients/base.mlp.fc2.0.2.weight": {"_type": "histogram", "values": [1.0, 0.0, 1.0, 0.0, 1.0, 0.0, 1.0, 0.0, 1.0, 1.0, 0.0, 0.0, 1.0, 1.0, 1.0, 0.0, 2.0, 1.0, 2.0, 0.0, 0.0, 1.0, 2.0, 2.0, 0.0, 1.0, 1.0, 3.0, 3.0, 2.0, 3.0, 8.0, 3.0, 5.0, 4.0, 1.0, 2.0, 1.0, 0.0, 0.0, 3.0, 1.0, 0.0, 1.0, 0.0, 1.0, 0.0, 0.0, 0.0, 0.0, 0.0, 0.0, 1.0, 0.0, 0.0, 0.0, 0.0, 0.0, 0.0, 0.0, 0.0, 0.0, 0.0, 1.0], "bins": [-0.00028637575451284647, -0.0002773531014099717, -0.0002683304774109274, -0.00025930782430805266, -0.00025028520030900836, -0.00024126256175804883, -0.0002322399232070893, -0.00022321727010421455, -0.00021419464610517025, -0.00020517200755421072, -0.0001961493690032512, -0.00018712673045229167, -0.00017810409190133214, -0.0001690814533503726, -0.00016005881479941308, -0.00015103616169653833, -0.0001420135231455788, -0.00013299088459461927, -0.00012396824604365975, -0.00011494560749270022, -0.00010592296894174069, -9.690033039078116e-05, -8.787768456386402e-05, -7.88550460129045e-05, -6.983240746194497e-05, -6.080976891098544e-05, -5.178713036002591e-05, -4.276448817108758e-05, -3.374184962012805e-05, -2.4719211069168523e-05, -1.569656888023019e-05, -6.673930329270661e-06, 2.3487082216888666e-06, 1.1371347682143096e-05, 2.0393987142597325e-05, 2.9416627512546256e-05, 3.8439266063505784e-05, 4.746190461446531e-05, 5.6484546803403646e-05, 6.550718535436317e-05, 7.45298239053227e-05, 8.355246245628223e-05, 9.257510100724176e-05, 0.0001015977468341589, 0.00011062038538511842, 0.00011964302393607795, 0.00012866566248703748, 0.000137688301037997, 0.00014671093958895653, 0.00015573357813991606, 0.0001647562166908756, 0.00017377885524183512, 0.00018280149379279464, 0.00019182413234375417, 0.00020084678544662893, 0.00020986940944567323, 0.00021889206254854798, 0.0002279147010995075, 0.00023693733965046704, 0.0002459599927533418, 0.0002549826167523861, 0.00026400526985526085, 0.00027302789385430515, 0.0002820505469571799, 0.0002910731709562242]}, "gradients/base.mlp.fc2.0.2.bias": {"_type": "histogram", "values": [1.0, 1.0, 0.0, 0.0, 0.0, 1.0, 1.0, 0.0, 2.0, 1.0, 0.0, 0.0, 1.0, 0.0, 1.0, 1.0, 1.0, 0.0, 1.0, 2.0, 3.0, 2.0, 5.0, 1.0, 1.0, 4.0, 4.0, 2.0, 3.0, 2.0, 5.0, 0.0, 1.0, 2.0, 0.0, 2.0, 1.0, 2.0, 0.0, 2.0, 1.0, 0.0, 0.0, 0.0, 0.0, 0.0, 0.0, 0.0, 0.0, 0.0, 0.0, 0.0, 1.0, 0.0, 1.0, 1.0, 0.0, 0.0, 1.0, 0.0, 0.0, 0.0, 2.0, 1.0], "bins": [-0.00015196294407360256, -0.00014630048826802522, -0.00014063803246244788, -0.00013497556210495532, -0.00012931310629937798, -0.00012365065049380064, -0.0001179881946882233, -0.00011232573888264596, -0.00010666327580111101, -0.00010100081999553367, -9.533835691399872e-05, -8.967590110842139e-05, -8.401344530284405e-05, -7.83509822213091e-05, -7.268852641573176e-05, -6.70260633341968e-05, -6.136360752861947e-05, -5.570114808506332e-05, -5.003868864150718e-05, -4.437623283592984e-05, -3.8713773392373696e-05, -3.305131394881755e-05, -2.7388858143240213e-05, -2.172639869968407e-05, -1.6063939256127924e-05, -1.040148072206648e-05, -4.739022188005038e-06, 9.234354365617037e-07, 6.5858948801178485e-06, 1.2248354323673993e-05, 1.791081012925133e-05, 2.3573269572807476e-05, 2.923572901636362e-05, 3.4898188459919766e-05, 4.056064790347591e-05, 4.622310370905325e-05, 5.188556315260939e-05, 5.754802259616554e-05, 6.321047840174288e-05, 6.887293420732021e-05, 7.453539728885517e-05, 8.01978530944325e-05, 8.586031617596745e-05, 9.152277198154479e-05, 9.718522778712213e-05, 0.00010284769086865708, 0.00010851014667423442, 0.00011417260975576937, 0.00011983506556134671, 0.00012549752136692405, 0.00013115997717250139, 0.00013682243297807872, 0.0001424849033355713, 0.00014814735914114863, 0.00015380981494672596, 0.0001594722707523033, 0.00016513472655788064, 0.00017079718236345798, 0.00017645963816903532, 0.00018212210852652788, 0.00018778456433210522, 0.00019344702013768256, 0.0001991094759432599, 0.00020477193174883723, 0.0002104344021063298]}, "gradients/base.mlp.fc2.0.0.bias": {"_type": "histogram", "values": [1.0, 0.0, 0.0, 0.0, 0.0, 0.0, 0.0, 0.0, 0.0, 1.0, 0.0, 0.0, 1.0, 1.0, 1.0, 0.0, 0.0, 1.0, 0.0, 2.0, 1.0, 0.0, 1.0, 1.0, 1.0, 1.0, 1.0, 1.0, 0.0, 3.0, 1.0, 1.0, 3.0, 2.0, 2.0, 6.0, 3.0, 3.0, 1.0, 1.0, 2.0, 1.0, 2.0, 2.0, 1.0, 0.0, 0.0, 1.0, 0.0, 0.0, 1.0, 2.0, 2.0, 0.0, 0.0, 2.0, 0.0, 0.0, 1.0, 1.0, 2.0, 1.0, 1.0, 1.0], "bins": [-0.00018953777907881886, -0.00018428312614560127, -0.00017902845866046846, -0.00017377380572725087, -0.0001685191527940333, -0.00016326448530890048, -0.0001580098323756829, -0.0001527551794424653, -0.0001475005119573325, -0.0001422458590241149, -0.0001369911915389821, -0.0001317365386057645, -0.00012648188567254692, -0.00012122722546337172, -0.00011597256525419652, -0.00011071791232097894, -0.00010546325938776135, -0.00010020859917858616, -9.495394624536857e-05, -8.969928603619337e-05, -8.444463310297579e-05, -7.918997289380059e-05, -7.393531268462539e-05, -6.86806597514078e-05, -6.34259995422326e-05, -5.817134297103621e-05, -5.291668639983982e-05, -4.766202619066462e-05, -4.240736961946823e-05, -3.7152713048271835e-05, -3.1898052839096636e-05, -2.6643396267900243e-05, -2.138873969670385e-05, -1.613408312550746e-05, -1.0879424735321663e-05, -5.624766345135868e-06, -3.701097739394754e-07, 4.884546797256917e-06, 1.0139207006432116e-05, 1.5393863577628508e-05, 2.06485201488249e-05, 2.5903176720021293e-05, 3.1157833291217685e-05, 3.6412493500392884e-05, 4.1667150071589276e-05, 4.692180664278567e-05, 5.217646685196087e-05, 5.743112342315726e-05, 6.268577999435365e-05, 6.794044020352885e-05, 7.319509313674644e-05, 7.844975334592164e-05, 8.370440627913922e-05, 8.895906648831442e-05, 9.421372669748962e-05, 9.94683796307072e-05, 0.0001047230398398824, 0.0001099777000490576, 0.00011523235298227519, 0.00012048701319145039, 0.0001257416734006256, 0.00013099632633384317, 0.00013625097926706076, 0.00014150564675219357, 0.00014676029968541116]}, "gradients/base.mlp.fc2.0.0.weight": {"_type": "histogram", "values": [1.0, 0.0, 0.0, 0.0, 0.0, 0.0, 0.0, 0.0, 1.0, 0.0, 3.0, 3.0, 2.0, 5.0, 9.0, 8.0, 9.0, 17.0, 13.0, 22.0, 43.0, 61.0, 63.0, 106.0, 187.0, 243.0, 243.0, 398.0, 928.0, 596.0, 299.0, 218.0, 207.0, 116.0, 85.0, 52.0, 30.0, 30.0, 24.0, 18.0, 8.0, 11.0, 5.0, 9.0, 4.0, 0.0, 2.0, 3.0, 5.0, 1.0, 3.0, 2.0, 0.0, 1.0, 0.0, 0.0, 0.0, 0.0, 1.0, 0.0, 0.0, 0.0, 0.0, 1.0], "bins": [-0.0006287704454734921, -0.0006068706279620528, -0.0005849708104506135, -0.0005630709929391742, -0.0005411711754277349, -0.0005192714161239564, -0.0004973715986125171, -0.0004754717811010778, -0.00045357196358963847, -0.00043167214607819915, -0.0004097723285667598, -0.00038787254015915096, -0.00036597272264771163, -0.0003440729051362723, -0.00032217311672866344, -0.0003002732992172241, -0.0002783734817057848, -0.0002564736641943455, -0.00023457386123482138, -0.00021267405827529728, -0.00019077424076385796, -0.00016887442325241864, -0.00014697462029289454, -0.00012507481733337045, -0.00010317499982193112, -8.127518958644941e-05, -5.9375379350967705e-05, -3.7475569115485996e-05, -1.5575758880004287e-05, 6.3240513554774225e-06, 2.8223861590959132e-05, 5.012366455048323e-05, 7.202342385426164e-05, 9.392323408974335e-05, 0.00011582304432522506, 0.00013772284728474915, 0.00015962266479618847, 0.0001815224823076278, 0.0002034222852671519, 0.000225322088226676, 0.0002472219057381153, 0.00026912172324955463, 0.00029102154076099396, 0.0003129213291686028, 0.00033482114668004215, 0.00035672096419148147, 0.00037862075259909034, 0.00040052057011052966, 0.000422420387621969, 0.0004443202051334083, 0.00046622002264484763, 0.0004881198110524565, 0.0005100195994600654, 0.0005319194169715047, 0.000553819234482944, 0.0005757190519943833, 0.0005976188695058227, 0.000619518687017262, 0.0006414185045287013, 0.0006633183220401406, 0.00068521813955158, 0.0007071178988553584, 0.0007290177163667977, 0.000750917533878237, 0.0007728173513896763]}, "gradients/base.mlp.fc1.2.weight": {"_type": "histogram", "values": [1.0, 0.0, 0.0, 0.0, 0.0, 0.0, 0.0, 0.0, 0.0, 0.0, 0.0, 0.0, 0.0, 0.0, 0.0, 0.0, 0.0, 0.0, 0.0, 0.0, 0.0, 0.0, 0.0, 0.0, 1.0, 0.0, 0.0, 0.0, 0.0, 3.0, 0.0, 0.0, 2.0, 1.0, 5.0, 2.0, 6.0, 6.0, 2.0, 4.0, 5.0, 7.0, 4.0, 3.0, 1.0, 3.0, 2.0, 2.0, 0.0, 1.0, 1.0, 0.0, 0.0, 0.0, 0.0, 0.0, 0.0, 0.0, 0.0, 1.0, 0.0, 0.0, 0.0, 1.0], "bins": [-0.0008404873078688979, -0.0008191161905415356, -0.0007977451314218342, -0.0007763740140944719, -0.0007550029549747705, -0.0007336318376474082, -0.0007122607785277069, -0.0006908896612003446, -0.0006695186020806432, -0.0006481474847532809, -0.0006267764256335795, -0.0006054053083062172, -0.0005840342491865158, -0.0005626631318591535, -0.0005412920727394521, -0.0005199209554120898, -0.0004985498962923884, -0.0004771788080688566, -0.00045580771984532475, -0.0004344366316217929, -0.00041306554339826107, -0.00039169445517472923, -0.0003703233669511974, -0.0003489522496238351, -0.0003275811322964728, -0.00030621004407294095, -0.0002848389558494091, -0.00026346786762587726, -0.00024209677940234542, -0.00022072569117881358, -0.0001993545884033665, -0.00017798350017983466, -0.00015661242650821805, -0.0001352413382846862, -0.00011387025006115437, -9.249915456166491e-05, -7.112806633813307e-05, -4.9756978114601225e-05, -2.8385882615111768e-05, -7.014794391579926e-06, 1.4356293831951916e-05, 3.572738205548376e-05, 5.709847391699441e-05, 7.846956577850506e-05, 9.98406540020369e-05, 0.00012121174222556874, 0.0001425828377250582, 0.00016395392594859004, 0.00018532501417212188, 0.00020669610239565372, 0.00022806719061918557, 0.0002494382788427174, 0.00027080936706624925, 0.0002921804552897811, 0.0003135515726171434, 0.0003349226317368448, 0.0003562937490642071, 0.0003776648372877389, 0.00039903592551127076, 0.0004204070137348026, 0.00044177810195833445, 0.0004631491901818663, 0.00048452027840539813, 0.0005058913957327604, 0.0005272624548524618]}, "gradients/base.mlp.fc1.2.bias": {"_type": "histogram", "values": [1.0, 0.0, 0.0, 0.0, 0.0, 0.0, 0.0, 1.0, 0.0, 0.0, 0.0, 0.0, 0.0, 0.0, 1.0, 1.0, 1.0, 1.0, 1.0, 1.0, 3.0, 2.0, 0.0, 0.0, 1.0, 3.0, 3.0, 0.0, 2.0, 1.0, 1.0, 3.0, 1.0, 5.0, 2.0, 3.0, 1.0, 0.0, 4.0, 1.0, 2.0, 1.0, 1.0, 0.0, 2.0, 1.0, 2.0, 1.0, 1.0, 0.0, 0.0, 2.0, 0.0, 0.0, 1.0, 1.0, 1.0, 0.0, 1.0, 0.0, 1.0, 1.0, 0.0, 1.0], "bins": [-0.00032888539135456085, -0.00031948331161402166, -0.00031008123187348247, -0.00030067915213294327, -0.0002912770723924041, -0.0002818749926518649, -0.0002724729129113257, -0.0002630708331707865, -0.0002536687534302473, -0.0002442666736897081, -0.00023486459394916892, -0.00022546251420862973, -0.00021606043446809053, -0.00020665835472755134, -0.00019725627498701215, -0.00018785419524647295, -0.00017845211550593376, -0.00016905003576539457, -0.00015964795602485538, -0.00015024587628431618, -0.000140843796543777, -0.0001314417168032378, -0.0001220396370626986, -0.00011263755732215941, -0.00010323547758162022, -9.383339784108102e-05, -8.443131810054183e-05, -7.502923836000264e-05, -6.562715861946344e-05, -5.622507887892425e-05, -4.682299913838506e-05, -3.7420919397845864e-05, -2.801883965730667e-05, -1.8616759916767478e-05, -9.214680176228285e-06, 1.8739956431090832e-07, 9.589479304850101e-06, 1.8991559045389295e-05, 2.8393638785928488e-05, 3.779571852646768e-05, 4.7197798267006874e-05, 5.659987800754607e-05, 6.600195774808526e-05, 7.540403748862445e-05, 8.480611722916365e-05, 9.420819696970284e-05, 0.00010361027671024203, 0.00011301235645078123, 0.00012241443619132042, 0.0001318165159318596, 0.0001412185956723988, 0.000150620675412938, 0.0001600227551534772, 0.00016942483489401639, 0.00017882691463455558, 0.00018822899437509477, 0.00019763107411563396, 0.00020703315385617316, 0.00021643523359671235, 0.00022583731333725154, 0.00023523939307779074, 0.00024464147281832993, 0.0002540435525588691, 0.0002634456322994083, 0.0002728477120399475]}, "gradients/base.mlp.fc1.0.bias": {"_type": "histogram", "values": [1.0, 0.0, 0.0, 0.0, 1.0, 0.0, 0.0, 0.0, 0.0, 1.0, 1.0, 2.0, 0.0, 1.0, 0.0, 0.0, 1.0, 1.0, 0.0, 0.0, 2.0, 1.0, 0.0, 0.0, 3.0, 2.0, 2.0, 1.0, 4.0, 8.0, 2.0, 7.0, 1.0, 0.0, 5.0, 0.0, 0.0, 1.0, 1.0, 1.0, 0.0, 3.0, 2.0, 0.0, 2.0, 0.0, 2.0, 0.0, 2.0, 0.0, 0.0, 0.0, 0.0, 1.0, 0.0, 0.0, 0.0, 1.0, 0.0, 0.0, 0.0, 0.0, 0.0, 1.0], "bins": [-0.00029596430249512196, -0.0002861657412722707, -0.00027636720915324986, -0.0002665686479303986, -0.00025677011581137776, -0.0002469715545885265, -0.00023717300791759044, -0.0002273744612466544, -0.00021757591457571834, -0.0002077773679047823, -0.00019797882123384625, -0.0001881802745629102, -0.00017838171334005892, -0.0001685831812210381, -0.00015878461999818683, -0.00014898607332725078, -0.00013918752665631473, -0.00012938897998537868, -0.00011959043331444263, -0.00010979187936754897, -9.999333269661292e-05, -9.019478602567688e-05, -8.039623207878321e-05, -7.059768540784717e-05, -6.079913873691112e-05, -5.100059206597507e-05, -4.1202041757060215e-05, -3.140349144814536e-05, -2.1604944777209312e-05, -1.1806398106273264e-05, -2.0078477973584086e-06, 7.790702511556447e-06, 1.758927828632295e-05, 2.7387826776248403e-05, 3.7186375266173854e-05, 4.698492557508871e-05, 5.678347224602476e-05, 6.65820189169608e-05, 7.638057286385447e-05, 8.617911953479052e-05, 9.597766620572656e-05, 0.00010577621287666261, 0.00011557475954759866, 0.0001253733062185347, 0.00013517186744138598, 0.0001449703995604068, 0.00015476896078325808, 0.00016456750745419413, 0.00017436605412513018, 0.00018416460079606622, 0.00019396314746700227, 0.00020376169413793832, 0.00021356024080887437, 0.00022335880203172565, 0.0002331573487026617, 0.00024295589537359774, 0.00025275442749261856, 0.00026255298871546984, 0.00027235152083449066, 0.00028215008205734193, 0.00029194861417636275, 0.00030174717539921403, 0.00031154570751823485, 0.0003213442687410861, 0.0003311428299639374]}, "gradients/base.mlp.fc1.0.weight": {"_type": "histogram", "values": [1.0, 0.0, 0.0, 0.0, 0.0, 0.0, 0.0, 0.0, 0.0, 0.0, 0.0, 1.0, 0.0, 0.0, 0.0, 1.0, 0.0, 0.0, 1.0, 1.0, 3.0, 4.0, 1.0, 1.0, 5.0, 8.0, 2.0, 7.0, 12.0, 18.0, 23.0, 52.0, 57.0, 83.0, 251.0, 1335.0, 3942.0, 820.0, 112.0, 95.0, 56.0, 45.0, 25.0, 21.0, 14.0, 11.0, 5.0, 5.0, 3.0, 3.0, 3.0, 3.0, 2.0, 1.0, 2.0, 2.0, 0.0, 1.0, 0.0, 0.0, 0.0, 0.0, 0.0, 2.0], "bins": [-0.0025380030274391174, -0.002468251623213291, -0.002398500218987465, -0.002328748581930995, -0.0022589971777051687, -0.0021892457734793425, -0.002119494369253516, -0.0020497427321970463, -0.00197999132797122, -0.0019102399237453938, -0.0018404884031042457, -0.0017707369988784194, -0.0017009854782372713, -0.001631234074011445, -0.0015614826697856188, -0.0014917311491444707, -0.0014219797449186444, -0.0013522283406928182, -0.00128247682005167, -0.0012127254158258438, -0.0011429738951846957, -0.0010732224909588695, -0.0010034709703177214, -0.0009337195660918951, -0.0008639681036584079, -0.0007942166412249207, -0.0007244651787914336, -0.0006547137163579464, -0.0005849623121321201, -0.000515210791490972, -0.0004454593872651458, -0.0003757079248316586, -0.0003059563459828496, -0.00023620488354936242, -0.00016645343566779047, -9.670198778621852e-05, -2.6950525352731347e-05, 4.280093708075583e-05, 0.00011255237041041255, 0.00018230383284389973, 0.0002520552952773869, 0.0003218067577108741, 0.00039155822014436126, 0.000461309653474018, 0.0005310610868036747, 0.0006008126074448228, 0.000670564011670649, 0.0007403154741041362, 0.0008100669365376234, 0.0008798183989711106, 0.0009495698614045978, 0.001019321265630424, 0.0010890727862715721, 0.0011588241904973984, 0.0012285755947232246, 0.0012983271153643727, 0.0013680786360055208, 0.001437830040231347, 0.0015075815608724952, 0.0015773329650983214, 0.0016470844857394695, 0.0017168358899652958, 0.001786587294191122, 0.0018563388148322701, 0.0019260902190580964]}, "gradients/base.feature_norm.weight": {"_type": "histogram", "values": [1.0, 0.0, 0.0, 0.0, 0.0, 0.0, 0.0, 0.0, 0.0, 0.0, 0.0, 0.0, 2.0, 2.0, 0.0, 1.0, 0.0, 0.0, 1.0, 0.0, 1.0, 3.0, 1.0, 0.0, 3.0, 7.0, 14.0, 20.0, 22.0, 15.0, 4.0, 1.0, 0.0, 3.0, 1.0, 1.0, 1.0, 1.0, 0.0, 1.0, 1.0, 1.0, 1.0, 0.0, 0.0, 0.0, 0.0, 0.0, 0.0, 0.0, 0.0, 0.0, 0.0, 0.0, 0.0, 0.0, 0.0, 0.0, 0.0, 0.0, 0.0, 0.0, 0.0, 1.0], "bins": [-0.000752404797822237, -0.000725282821804285, -0.0006981608457863331, -0.0006710388697683811, -0.0006439168937504292, -0.0006167949177324772, -0.0005896729417145252, -0.0005625509656965733, -0.0005354289896786213, -0.0005083070136606693, -0.00048118503764271736, -0.0004540630616247654, -0.00042694108560681343, -0.00039981910958886147, -0.0003726971335709095, -0.00034557515755295753, -0.000318453210638836, -0.00029133123462088406, -0.0002642092586029321, -0.00023708728258498013, -0.00020996530656702816, -0.00018284334510099143, -0.00015572136908303946, -0.0001285993930650875, -0.00010147741704713553, -7.435544102918357e-05, -4.723346864921041e-05, -2.011149626923725e-05, 7.010479748714715e-06, 3.4132448490709066e-05, 6.125442450866103e-05, 8.8376400526613e-05, 0.00011549837654456496, 0.00014262035256251693, 0.0001697423285804689, 0.00019686430459842086, 0.00022398628061637282, 0.0002511082566343248, 0.00027823023265227675, 0.0003053522086702287, 0.0003324741846881807, 0.00035959616070613265, 0.0003867181367240846, 0.0004138401127420366, 0.00044096208875998855, 0.0004680840647779405, 0.0004952060407958925, 0.0005223280168138444, 0.0005494499346241355, 0.0005765719106420875, 0.0006036938866600394, 0.0006308158626779914, 0.0006579378386959434, 0.0006850598147138953, 0.0007121817907318473, 0.0007393037667497993, 0.0007664257427677512, 0.0007935477187857032, 0.0008206696948036551, 0.0008477916708216071, 0.0008749136468395591, 0.000902035622857511, 0.000929157598875463, 0.000956279574893415, 0.000983401550911367]}, "gradients/base.feature_norm.bias": {"_type": "histogram", "values": [1.0, 0.0, 0.0, 0.0, 0.0, 0.0, 1.0, 0.0, 0.0, 1.0, 1.0, 1.0, 1.0, 3.0, 1.0, 1.0, 5.0, 3.0, 4.0, 6.0, 6.0, 4.0, 7.0, 2.0, 9.0, 4.0, 4.0, 8.0, 3.0, 4.0, 8.0, 4.0, 3.0, 5.0, 1.0, 1.0, 3.0, 0.0, 0.0, 0.0, 1.0, 1.0, 0.0, 1.0, 0.0, 0.0, 0.0, 0.0, 0.0, 0.0, 0.0, 0.0, 0.0, 0.0, 1.0, 0.0, 0.0, 0.0, 0.0, 0.0, 0.0, 0.0, 0.0, 1.0], "bins": [-0.00043019832810387015, -0.00041259100544266403, -0.0003949836827814579, -0.00037737638922408223, -0.0003597690665628761, -0.00034216174390167, -0.00032455442124046385, -0.0003069470985792577, -0.00028933980502188206, -0.00027173248236067593, -0.0002541251596994698, -0.0002365178515901789, -0.000218910543480888, -0.00020130322081968188, -0.00018369589815847576, -0.00016608859004918486, -0.0001484812528360635, -0.00013087393017485738, -0.00011326662206556648, -9.565929940436035e-05, -7.805198401911184e-05, -6.044466863386333e-05, -4.2837345972657204e-05, -2.5230037863366306e-05, -7.62271520216018e-06, 9.984602002077736e-06, 2.759191920631565e-05, 4.519923822954297e-05, 6.280655361479148e-05, 8.041386900004e-05, 9.802119166124612e-05, 0.00011562849977053702, 0.00013323582243174314, 0.00015084314509294927, 0.00016845045320224017, 0.0001860577758634463, 0.0002036650839727372, 0.00022127240663394332, 0.00023887972929514945, 0.00025648705195635557, 0.00027409434551373124, 0.00029170166817493737, 0.0003093089908361435, 0.00032691628439351916, 0.0003445236070547253, 0.0003621309297159314, 0.00037973825237713754, 0.00039734557503834367, 0.0004149528976995498, 0.0004325602203607559, 0.00045016754302196205, 0.00046777486568316817, 0.00048538215924054384, 0.0005029895110055804, 0.0005205968045629561, 0.0005382040981203318, 0.0005558114498853683, 0.000573418743442744, 0.0005910260952077806, 0.0006086333887651563, 0.0006262407405301929, 0.0006438480340875685, 0.0006614553276449442, 0.0006790626794099808, 0.0006966699729673564]}, "gradients/graph_1v_out.bias": {"_type": "histogram", "values": [0.0, 0.0, 0.0, 0.0, 0.0, 0.0, 0.0, 0.0, 0.0, 0.0, 0.0, 0.0, 0.0, 0.0, 0.0, 0.0, 0.0, 0.0, 0.0, 0.0, 0.0, 0.0, 0.0, 0.0, 0.0, 0.0, 0.0, 0.0, 0.0, 0.0, 0.0, 0.0, 1.0, 0.0, 0.0, 0.0, 0.0, 0.0, 0.0, 0.0, 0.0, 0.0, 0.0, 0.0, 0.0, 0.0, 0.0, 0.0, 0.0, 0.0, 0.0, 0.0, 0.0, 0.0, 0.0, 0.0, 0.0, 0.0, 0.0, 0.0, 0.0, 0.0, 0.0, 0.0], "bins": [-0.010516233742237091, -0.010516233742237091, -0.010516233742237091, -0.010516233742237091, -0.010516233742237091, -0.010516233742237091, -0.010516233742237091, -0.010516233742237091, -0.010516233742237091, -0.010516233742237091, -0.010516233742237091, -0.010516233742237091, -0.010516233742237091, -0.010516233742237091, -0.010516233742237091, -0.010516233742237091, -0.010516233742237091, -0.010516233742237091, -0.010516233742237091, -0.010516233742237091, -0.010516233742237091, -0.010516233742237091, -0.010516233742237091, -0.010516233742237091, -0.010516233742237091, -0.010516233742237091, -0.010516233742237091, -0.010516233742237091, -0.010516233742237091, -0.010516233742237091, -0.010516233742237091, -0.010516233742237091, -0.010516233742237091, -0.010516233742237091, -0.010516233742237091, -0.010516233742237091, -0.010516233742237091, -0.010516233742237091, -0.010516233742237091, -0.010516233742237091, -0.010516233742237091, -0.010516233742237091, -0.010516233742237091, -0.010516233742237091, -0.010516233742237091, -0.010516233742237091, -0.010516233742237091, -0.010516233742237091, -0.010516233742237091, -0.010516233742237091, -0.010516233742237091, -0.010516233742237091, -0.010516233742237091, -0.010516233742237091, -0.010516233742237091, -0.010516233742237091, -0.010516233742237091, -0.010516233742237091, -0.010516233742237091, -0.010516233742237091, -0.010516233742237091, -0.010516233742237091, -0.010516233742237091, -0.010516233742237091, -0.010516233742237091]}, "gradients/graph_1v_out.weight": {"_type": "histogram", "values": [1.0, 0.0, 1.0, 0.0, 0.0, 0.0, 0.0, 0.0, 0.0, 0.0, 0.0, 0.0, 0.0, 0.0, 0.0, 0.0, 0.0, 1.0, 1.0, 0.0, 0.0, 1.0, 0.0, 0.0, 0.0, 1.0, 0.0, 0.0, 0.0, 1.0, 0.0, 0.0, 2.0, 0.0, 1.0, 0.0, 1.0, 1.0, 0.0, 0.0, 1.0, 1.0, 0.0, 2.0, 0.0, 1.0, 0.0, 0.0, 1.0, 2.0, 0.0, 1.0, 1.0, 0.0, 0.0, 0.0, 2.0, 10.0, 26.0, 2.0, 1.0, 0.0, 0.0, 1.0], "bins": [-0.03804507851600647, -0.03728490322828293, -0.036524731665849686, -0.035764556378126144, -0.0350043848156929, -0.03424420952796936, -0.03348403796553612, -0.032723862677812576, -0.031963691115379333, -0.03120351769030094, -0.03044334426522255, -0.029683170840144157, -0.028922997415065765, -0.028162823989987373, -0.02740265056490898, -0.02664247527718544, -0.025882301852107048, -0.025122128427028656, -0.024361955001950264, -0.023601781576871872, -0.02284160815179348, -0.022081434726715088, -0.021321259438991547, -0.020561087876558304, -0.019800912588834763, -0.01904073916375637, -0.01828056573867798, -0.017520392313599586, -0.016760218888521194, -0.016000045463442802, -0.015239871107041836, -0.014479697681963444, -0.013719525188207626, -0.012959351763129234, -0.012199178338050842, -0.01143900491297245, -0.010678831487894058, -0.009918658062815666, -0.0091584837064147, -0.008398310281336308, -0.0076381368562579155, -0.0068779634311795235, -0.0061177900061011314, -0.005357616115361452, -0.00459744269028306, -0.003837269265204668, -0.0030770953744649887, -0.0023169219493865967, -0.0015567485243082047, -0.0007965749828144908, -3.640144132077694e-05, 0.0007237722165882587, 0.0014839456416666508, 0.002244119066745043, 0.003004292957484722, 0.003764466382563114, 0.004524639807641506, 0.005284813232719898, 0.00604498665779829, 0.00680516054853797, 0.007565333973616362, 0.008325507864356041, 0.009085681289434433, 0.009845854714512825, 0.010606028139591217]}, "gradients/graph_1base.mlp.fc2.0.2.weight": {"_type": "histogram", "values": [1.0, 1.0, 0.0, 0.0, 0.0, 1.0, 0.0, 1.0, 0.0, 1.0, 0.0, 0.0, 0.0, 1.0, 2.0, 1.0, 3.0, 2.0, 3.0, 2.0, 2.0, 4.0, 4.0, 4.0, 3.0, 5.0, 2.0, 2.0, 2.0, 5.0, 1.0, 0.0, 1.0, 2.0, 0.0, 0.0, 3.0, 1.0, 1.0, 0.0, 0.0, 0.0, 0.0, 0.0, 1.0, 1.0, 0.0, 0.0, 0.0, 0.0, 0.0, 0.0, 0.0, 0.0, 0.0, 0.0, 0.0, 0.0, 0.0, 0.0, 0.0, 0.0, 0.0, 1.0], "bins": [-0.0024712588638067245, -0.002373139141127467, -0.0022750194184482098, -0.0021768996957689524, -0.002078779973089695, -0.0019806602504104376, -0.0018825405277311802, -0.0017844208050519228, -0.0016863010823726654, -0.001588181359693408, -0.0014900616370141506, -0.0013919419143348932, -0.0012938221916556358, -0.0011957024689763784, -0.001097582746297121, -0.0009994630236178637, -0.0009013433009386063, -0.0008032235782593489, -0.0007051038555800915, -0.0006069841329008341, -0.0005088644102215767, -0.0004107446875423193, -0.0003126249648630619, -0.0002145052421838045, -0.00011638551950454712, -1.8265796825289726e-05, 7.985392585396767e-05, 0.00017797364853322506, 0.00027609337121248245, 0.00037421309389173985, 0.00047233281657099724, 0.0005704525392502546, 0.000668572261929512, 0.0007666919846087694, 0.0008648117072880268, 0.0009629314299672842, 0.0010610511526465416, 0.001159170875325799, 0.0012572905980050564, 0.0013554103206843138, 0.0014535300433635712, 0.0015516497660428286, 0.001649769488722086, 0.0017478892114013433, 0.0018460089340806007, 0.0019441286567598581, 0.0020422483794391155, 0.002140368102118373, 0.0022384878247976303, 0.0023366075474768877, 0.002434727270156145, 0.0025328469928354025, 0.00263096671551466, 0.0027290864381939173, 0.0028272061608731747, 0.002925325883552432, 0.0030234456062316895, 0.003121565328910947, 0.0032196850515902042, 0.0033178047742694616, 0.003415924496948719, 0.0035140442196279764, 0.003612163942307234, 0.003710283664986491, 0.0038084033876657486]}, "gradients/graph_1base.mlp.fc2.0.2.bias": {"_type": "histogram", "values": [1.0, 0.0, 0.0, 0.0, 0.0, 0.0, 0.0, 0.0, 1.0, 0.0, 0.0, 0.0, 1.0, 3.0, 2.0, 2.0, 2.0, 1.0, 1.0, 2.0, 1.0, 0.0, 0.0, 1.0, 5.0, 1.0, 1.0, 2.0, 2.0, 4.0, 2.0, 2.0, 1.0, 2.0, 1.0, 3.0, 1.0, 2.0, 3.0, 0.0, 0.0, 0.0, 4.0, 1.0, 0.0, 2.0, 0.0, 2.0, 1.0, 2.0, 0.0, 0.0, 0.0, 0.0, 0.0, 0.0, 1.0, 0.0, 0.0, 0.0, 0.0, 0.0, 0.0, 1.0], "bins": [-0.0032538208179175854, -0.0031507506500929594, -0.003047680715098977, -0.002944610547274351, -0.002841540612280369, -0.002738470444455743, -0.002635400276631117, -0.0025323303416371346, -0.0024292604066431522, -0.0023261902388185263, -0.002223120303824544, -0.002120050135999918, -0.0020169802010059357, -0.0019139100331813097, -0.0018108399817720056, -0.0017077699303627014, -0.0016046997625380754, -0.0015016297111287713, -0.0013985596597194672, -0.0012954894918948412, -0.0011924195569008589, -0.001089349389076233, -0.0009862793376669288, -0.0008832092862576246, -0.0007801392348483205, -0.0006770691834390163, -0.0005739991320297122, -0.00047092902241274714, -0.000367858971003443, -0.00026478891959413886, -0.0001617188099771738, -5.864875856786966e-05, 4.442129284143448e-05, 0.00014749135880265385, 0.0002505614247638732, 0.0003536315052770078, 0.00045670155668631196, 0.0005597716080956161, 0.0006628417177125812, 0.0007659117691218853, 0.0008689818205311894, 0.0009720518719404936, 0.0010751219233497977, 0.0011781919747591019, 0.0012812621425837278, 0.0013843320775777102, 0.0014874022454023361, 0.0015904722968116403, 0.0016935423482209444, 0.0017966123996302485, 0.0018996824510395527, 0.0020027526188641787, 0.002105822553858161, 0.002208892721682787, 0.0023119626566767693, 0.0024150328245013952, 0.002518102992326021, 0.002621173160150647, 0.0027242430951446295, 0.0028273132629692554, 0.0029303831979632378, 0.0030334533657878637, 0.0031365235336124897, 0.003239593468606472, 0.0033426634036004543]}, "gradients/graph_1base.mlp.fc2.0.0.bias": {"_type": "histogram", "values": [2.0, 0.0, 0.0, 2.0, 1.0, 0.0, 1.0, 0.0, 0.0, 0.0, 1.0, 0.0, 1.0, 0.0, 0.0, 0.0, 1.0, 0.0, 0.0, 0.0, 0.0, 0.0, 1.0, 0.0, 2.0, 1.0, 2.0, 1.0, 9.0, 20.0, 2.0, 3.0, 2.0, 1.0, 0.0, 1.0, 2.0, 0.0, 1.0, 0.0, 1.0, 0.0, 0.0, 0.0, 0.0, 0.0, 0.0, 0.0, 1.0, 0.0, 0.0, 0.0, 1.0, 0.0, 0.0, 0.0, 0.0, 1.0, 1.0, 1.0, 0.0, 0.0, 0.0, 1.0], "bins": [-0.0013268982293084264, -0.0012814444489777088, -0.0012359905522316694, -0.0011905367719009519, -0.0011450829915702343, -0.001099629094824195, -0.0010541753144934773, -0.0010087215341627598, -0.0009632676956243813, -0.0009178138570860028, -0.0008723600767552853, -0.0008269062382169068, -0.0007814523996785283, -0.0007359986193478107, -0.0006905447808094323, -0.0006450909422710538, -0.0005996371619403362, -0.0005541833234019578, -0.0005087295430712402, -0.0004632757045328617, -0.0004178218950983137, -0.00037236808566376567, -0.0003269142471253872, -0.00028146043769083917, -0.00023600662825629115, -0.00019055281882174313, -0.00014509899483527988, -9.964517084881663e-05, -5.419136141426861e-05, -8.737551979720592e-06, 3.6716286558657885e-05, 8.21700959932059e-05, 0.00012762402184307575, 0.00017307783127762377, 0.00021853165526408702, 0.00026398547925055027, 0.0003094392886850983, 0.0003548930981196463, 0.0004003469366580248, 0.0004458007460925728, 0.0004912545555271208, 0.0005367083940654993, 0.0005821621743962169, 0.0006276160129345953, 0.0006730698514729738, 0.0007185236318036914, 0.0007639774703420699, 0.0008094313088804483, 0.0008548850892111659, 0.0009003389277495444, 0.0009457927080802619, 0.0009912465466186404, 0.001036700326949358, 0.0010821542236953974, 0.001127608004026115, 0.0011730617843568325, 0.001218515681102872, 0.0012639694614335895, 0.0013094233581796288, 0.0013548771385103464, 0.001400330918841064, 0.0014457846991717815, 0.001491238595917821, 0.0015366923762485385, 0.001582146156579256]}, "gradients/graph_1base.mlp.fc2.0.0.weight": {"_type": "histogram", "values": [1.0, 1.0, 0.0, 1.0, 3.0, 2.0, 0.0, 2.0, 1.0, 0.0, 3.0, 1.0, 4.0, 2.0, 4.0, 4.0, 1.0, 5.0, 8.0, 8.0, 8.0, 8.0, 17.0, 36.0, 98.0, 94.0, 76.0, 203.0, 1034.0, 1871.0, 146.0, 115.0, 172.0, 73.0, 22.0, 12.0, 10.0, 6.0, 4.0, 3.0, 8.0, 2.0, 5.0, 1.0, 2.0, 1.0, 3.0, 2.0, 2.0, 1.0, 0.0, 1.0, 2.0, 1.0, 1.0, 0.0, 0.0, 2.0, 1.0, 1.0, 0.0, 0.0, 0.0, 1.0], "bins": [-0.005706693045794964, -0.005510082934051752, -0.005313472356647253, -0.005116862244904041, -0.0049202521331608295, -0.004723642021417618, -0.004527031444013119, -0.004330421332269907, -0.004133811220526695, -0.0039372011087834835, -0.003740590764209628, -0.0035439804196357727, -0.003347370307892561, -0.0031507599633187056, -0.00295414961874485, -0.0027575395070016384, -0.0025609289295971394, -0.002364318585023284, -0.002167708473280072, -0.001971098128706217, -0.0017744879005476832, -0.0015778776723891497, -0.0013812673278152943, -0.0011846570996567607, -0.0009880468714982271, -0.0007914366433396935, -0.0005948263569734991, -0.0003982160706073046, -0.000201605842448771, -4.995614290237427e-06, 0.00019161473028361797, 0.00038822495844215155, 0.0005848351866006851, 0.0007814454147592187, 0.0009780556429177523, 0.0011746659874916077, 0.0013712762156501412, 0.0015678864438086748, 0.0017644967883825302, 0.001961106900125742, 0.0021577172446995974, 0.0023543275892734528, 0.0025509377010166645, 0.00274754804559052, 0.0029441583901643753, 0.003140768501907587, 0.0033373788464814425, 0.003533989191055298, 0.0037305993027985096, 0.003927209414541721, 0.00412381999194622, 0.004320430103689432, 0.004517040215432644, 0.004713650792837143, 0.004910260904580355, 0.0051068710163235664, 0.0053034815937280655, 0.005500091705471277, 0.005696702282875776, 0.005893312394618988, 0.0060899225063622, 0.0062865326181054115, 0.006483143195509911, 0.006679753307253122, 0.006876363418996334]}, "gradients/graph_1base.mlp.fc1.2.weight": {"_type": "histogram", "values": [1.0, 0.0, 0.0, 0.0, 0.0, 1.0, 1.0, 1.0, 0.0, 1.0, 2.0, 1.0, 0.0, 0.0, 2.0, 0.0, 1.0, 1.0, 1.0, 1.0, 4.0, 3.0, 0.0, 0.0, 3.0, 8.0, 1.0, 3.0, 3.0, 2.0, 5.0, 2.0, 0.0, 2.0, 1.0, 2.0, 0.0, 3.0, 1.0, 1.0, 0.0, 1.0, 0.0, 2.0, 1.0, 1.0, 0.0, 0.0, 0.0, 0.0, 0.0, 0.0, 0.0, 0.0, 0.0, 0.0, 0.0, 0.0, 0.0, 0.0, 0.0, 0.0, 0.0, 1.0], "bins": [-0.0013570801820605993, -0.0013059815391898155, -0.0012548828963190317, -0.001203784253448248, -0.001152685610577464, -0.0011015869677066803, -0.0010504883248358965, -0.0009993896819651127, -0.0009482910973019898, -0.000897192454431206, -0.0008460938115604222, -0.0007949952268972993, -0.0007438965840265155, -0.0006927979411557317, -0.0006416992982849479, -0.0005906006554141641, -0.0005395020125433803, -0.0004884033696725965, -0.00043730472680181265, -0.0003862061130348593, -0.0003351074701640755, -0.0002840088272932917, -0.00023291021352633834, -0.00018181157065555453, -0.00013071292778477073, -7.961429218994454e-05, -2.8515656595118344e-05, 2.2582971723750234e-05, 7.368161459453404e-05, 0.00012478025746531785, 0.0001758788712322712, 0.000226977514103055, 0.00027807627338916063, 0.00032917491625994444, 0.00038027355913072824, 0.0004313721728976816, 0.0004824708157684654, 0.0005335694877430797, 0.0005846680724062026, 0.0006357667152769864, 0.0006868653581477702, 0.000737964001018554, 0.0007890626438893378, 0.0008401612285524607, 0.0008912598714232445, 0.0009423585142940283, 0.000993457157164812, 0.001044555800035596, 0.0010956544429063797, 0.0011467530857771635, 0.0011978517286479473, 0.0012489503715187311, 0.001300049014389515, 0.0013511476572602987, 0.0014022463001310825, 0.0014533449430018663, 0.0015044435858726501, 0.001555542228743434, 0.0016066408716142178, 0.0016577395144850016, 0.0017088381573557854, 0.0017599368002265692, 0.001811035443097353, 0.0018621340859681368, 0.0019132326124235988]}, "gradients/graph_1base.mlp.fc1.2.bias": {"_type": "histogram", "values": [3.0, 0.0, 0.0, 2.0, 0.0, 1.0, 0.0, 1.0, 0.0, 2.0, 0.0, 0.0, 1.0, 0.0, 1.0, 2.0, 2.0, 3.0, 1.0, 2.0, 0.0, 2.0, 4.0, 3.0, 1.0, 1.0, 3.0, 1.0, 1.0, 2.0, 1.0, 3.0, 5.0, 2.0, 1.0, 1.0, 1.0, 2.0, 2.0, 1.0, 2.0, 0.0, 0.0, 0.0, 0.0, 0.0, 2.0, 1.0, 0.0, 0.0, 0.0, 0.0, 0.0, 0.0, 0.0, 0.0, 0.0, 0.0, 0.0, 0.0, 0.0, 0.0, 0.0, 1.0], "bins": [-0.0015188269317150116, -0.0014570241328328848, -0.001395221333950758, -0.0013334185350686312, -0.0012716157361865044, -0.0012098129373043776, -0.001148010022006929, -0.0010862072231248021, -0.0010244044242426753, -0.0009626016253605485, -0.0009007988264784217, -0.000838995969388634, -0.0007771931705065072, -0.0007153903716243804, -0.0006535875145345926, -0.0005917847156524658, -0.000529981916770339, -0.0004681791178882122, -0.00040637628990225494, -0.0003445734619162977, -0.00028277066303417087, -0.00022096786415204406, -0.0001591650361660868, -9.736220818012953e-05, -3.555940929800272e-05, 2.6243404136039317e-05, 8.804621757008135e-05, 0.0001498490310041234, 0.00021165184443816543, 0.00027345464332029223, 0.0003352574713062495, 0.00039706029929220676, 0.0004588633310049772, 0.000520666129887104, 0.0005824689287692308, 0.0006442717858590186, 0.0007060745847411454, 0.0007678773836232722, 0.0008296802407130599, 0.0008914830395951867, 0.0009532858384773135, 0.0010150886373594403, 0.0010768914362415671, 0.001138694235123694, 0.0012004971504211426, 0.0012622999493032694, 0.0013241027481853962, 0.001385905547067523, 0.0014477083459496498, 0.0015095111448317766, 0.0015713139437139034, 0.0016331167425960302, 0.001694919541478157, 0.0017567223403602839, 0.0018185252556577325, 0.0018803280545398593, 0.001942130853421986, 0.0020039337687194347, 0.0020657365676015615, 0.0021275393664836884, 0.002189342165365815, 0.002251144964247942, 0.0023129477631300688, 0.0023747505620121956, 0.0024365533608943224]}, "gradients/graph_1base.mlp.fc1.0.bias": {"_type": "histogram", "values": [2.0, 0.0, 0.0, 0.0, 1.0, 0.0, 0.0, 0.0, 0.0, 0.0, 0.0, 0.0, 0.0, 0.0, 0.0, 3.0, 3.0, 1.0, 2.0, 2.0, 2.0, 2.0, 12.0, 5.0, 5.0, 4.0, 1.0, 3.0, 2.0, 2.0, 1.0, 1.0, 0.0, 0.0, 2.0, 1.0, 0.0, 1.0, 2.0, 0.0, 0.0, 0.0, 0.0, 1.0, 0.0, 0.0, 0.0, 0.0, 0.0, 1.0, 1.0, 0.0, 0.0, 0.0, 0.0, 0.0, 0.0, 0.0, 0.0, 0.0, 0.0, 0.0, 0.0, 1.0], "bins": [-0.0005362608353607357, -0.0005127646145410836, -0.0004892683355137706, -0.0004657721146941185, -0.00044227586477063596, -0.0004187796148471534, -0.00039528339402750134, -0.0003717871441040188, -0.00034829089418053627, -0.00032479464425705373, -0.0003012983943335712, -0.0002778021735139191, -0.0002543059235904366, -0.00023080967366695404, -0.00020731343829538673, -0.00018381720292381942, -0.00016032095300033689, -0.00013682470307685435, -0.00011332846770528704, -8.983222505776212e-05, -6.633598241023719e-05, -4.283973976271227e-05, -1.9343497115187347e-05, 4.152738256379962e-06, 2.76489881798625e-05, 5.114523082738742e-05, 7.464147347491235e-05, 9.813771612243727e-05, 0.00012163395876996219, 0.00014513020869344473, 0.00016862644406501204, 0.00019212267943657935, 0.0002156189875677228, 0.00023911523749120533, 0.00026261148741468787, 0.00028610770823433995, 0.0003096039581578225, 0.000333100208081305, 0.0003565964289009571, 0.00038009267882443964, 0.0004035889287479222, 0.0004270851786714047, 0.00045058142859488726, 0.00047407764941453934, 0.0004975738702341914, 0.0005210701492615044, 0.0005445663700811565, 0.0005680626491084695, 0.0005915588699281216, 0.0006150550907477736, 0.0006385513697750866, 0.0006620475905947387, 0.0006855438696220517, 0.0007090400904417038, 0.0007325363112613559, 0.000756032532081008, 0.000779528811108321, 0.000803025031927973, 0.000826521310955286, 0.0008500175317749381, 0.0008735137525945902, 0.0008970100316219032, 0.0009205062524415553, 0.0009440025314688683, 0.0009674987522885203]}, "gradients/graph_1base.mlp.fc1.0.weight": {"_type": "histogram", "values": [1.0, 0.0, 0.0, 1.0, 0.0, 1.0, 0.0, 0.0, 1.0, 2.0, 0.0, 0.0, 3.0, 0.0, 0.0, 0.0, 4.0, 1.0, 3.0, 3.0, 3.0, 4.0, 3.0, 54.0, 96.0, 298.0, 4173.0, 43802.0, 900.0, 490.0, 177.0, 109.0, 20.0, 2.0, 1.0, 3.0, 3.0, 1.0, 3.0, 1.0, 0.0, 2.0, 3.0, 2.0, 0.0, 0.0, 0.0, 1.0, 0.0, 0.0, 1.0, 0.0, 0.0, 0.0, 2.0, 1.0, 0.0, 0.0, 0.0, 0.0, 0.0, 0.0, 0.0, 1.0], "bins": [-0.010299140587449074, -0.009922442026436329, -0.009545743465423584, -0.009169044904410839, -0.008792346343398094, -0.00841564778238535, -0.008038949221372604, -0.0076622506603598595, -0.0072855520993471146, -0.00690885353833437, -0.006532154977321625, -0.00615545641630888, -0.005778757855296135, -0.00540205929428339, -0.005025360733270645, -0.0046486621722579, -0.004271963145583868, -0.003895264584571123, -0.0035185660235583782, -0.0031418674625456333, -0.0027651689015328884, -0.0023884703405201435, -0.002011771546676755, -0.00163507298566401, -0.0012583744246512651, -0.0008816758636385202, -0.0005049772444181144, -0.0001282786251977086, 0.0002484199358150363, 0.0006251184968277812, 0.001001817174255848, 0.0013785157352685928, 0.0017552142962813377, 0.0021319128572940826, 0.0025086114183068275, 0.0028853099793195724, 0.0032620085403323174, 0.0036387071013450623, 0.004015405662357807, 0.004392104223370552, 0.004768802784383297, 0.005145501345396042, 0.005522199906408787, 0.005898898467421532, 0.006275597028434277, 0.0066522955894470215, 0.007028994150459766, 0.007405692711472511, 0.0077823917381465435, 0.008159090764820576, 0.00853578932583332, 0.008912487886846066, 0.00928918644785881, 0.009665885008871555, 0.0100425835698843, 0.010419282130897045, 0.01079598069190979, 0.011172679252922535, 0.01154937781393528, 0.011926076374948025, 0.01230277493596077, 0.012679473496973515, 0.01305617205798626, 0.013432870618999004, 0.01380956918001175]}, "gradients/graph_1base.feature_norm.weight": {"_type": "histogram", "values": [1.0, 0.0, 0.0, 0.0, 0.0, 0.0, 0.0, 0.0, 0.0, 0.0, 0.0, 0.0, 0.0, 0.0, 0.0, 0.0, 1.0, 0.0, 0.0, 0.0, 0.0, 0.0, 0.0, 0.0, 0.0, 0.0, 0.0, 0.0, 0.0, 0.0, 0.0, 0.0, 0.0, 0.0, 0.0, 0.0, 0.0, 0.0, 0.0, 0.0, 0.0, 0.0, 1.0, 1.0, 0.0, 1.0, 0.0, 1.0, 4.0, 8.0, 9.0, 21.0, 131.0, 420.0, 145.0, 18.0, 6.0, 4.0, 3.0, 2.0, 2.0, 2.0, 1.0, 2.0], "bins": [-0.0029331366531550884, -0.0028782181907445192, -0.00282329972833395, -0.002768381033092737, -0.002713462570682168, -0.002658544108271599, -0.0026036256458610296, -0.0025487071834504604, -0.0024937884882092476, -0.0024388700257986784, -0.002383951563388109, -0.0023290328681468964, -0.002274114405736327, -0.002219195943325758, -0.002164277480915189, -0.0021093590185046196, -0.0020544405560940504, -0.001999522093683481, -0.0019446035148575902, -0.001889685052447021, -0.00183476647362113, -0.0017798480112105608, -0.0017249295487999916, -0.0016700110863894224, -0.0016150925075635314, -0.0015601740451529622, -0.0015052554663270712, -0.001450337003916502, -0.0013954185415059328, -0.0013404999626800418, -0.0012855815002694726, -0.0012306629214435816, -0.0011757444590330124, -0.0011208259966224432, -0.0010659074177965522, -0.001010988955385983, -0.0009560704347677529, -0.0009011519141495228, -0.0008462334517389536, -0.0007913149311207235, -0.0007363964105024934, -0.0006814778898842633, -0.0006265593692660332, -0.000571640906855464, -0.0005167223862372339, -0.00046180386561900377, -0.0004068853741046041, -0.0003519668825902045, -0.00029704836197197437, -0.0002421298559056595, -0.00018721134983934462, -0.00013229284377302974, -7.737433770671487e-05, -2.2455817088484764e-05, 3.2462674425914884e-05, 8.738116594031453e-05, 0.00014229968655854464, 0.0001972181926248595, 0.0002521366986911744, 0.00030705519020557404, 0.00036197371082380414, 0.00041689223144203424, 0.0004718107229564339, 0.0005267292144708335, 0.0005816477350890636]}, "gradients/graph_1base.feature_norm.bias": {"_type": "histogram", "values": [1.0, 0.0, 1.0, 0.0, 0.0, 1.0, 3.0, 2.0, 2.0, 1.0, 5.0, 6.0, 8.0, 8.0, 13.0, 12.0, 19.0, 25.0, 19.0, 17.0, 19.0, 21.0, 25.0, 36.0, 31.0, 33.0, 33.0, 29.0, 35.0, 34.0, 49.0, 31.0, 18.0, 28.0, 28.0, 27.0, 24.0, 22.0, 23.0, 10.0, 12.0, 12.0, 12.0, 4.0, 6.0, 7.0, 12.0, 6.0, 3.0, 4.0, 1.0, 2.0, 1.0, 2.0, 0.0, 0.0, 0.0, 0.0, 0.0, 0.0, 0.0, 0.0, 0.0, 1.0], "bins": [-0.00033804471604526043, -0.0003264172119088471, -0.00031478970777243376, -0.00030316217453218997, -0.00029153467039577663, -0.0002799071662593633, -0.0002682796330191195, -0.00025665212888270617, -0.00024502462474629283, -0.0002333971206098795, -0.00022176960192155093, -0.00021014208323322237, -0.00019851457909680903, -0.0001868870749603957, -0.00017525955627206713, -0.00016363203758373857, -0.00015200453344732523, -0.0001403770293109119, -0.00012874951062258333, -0.00011712199921021238, -0.00010549448779784143, -9.386697638547048e-05, -8.223946497309953e-05, -7.061195356072858e-05, -5.898444214835763e-05, -4.735693073598668e-05, -3.572941932361573e-05, -2.410190791124478e-05, -1.247439649887383e-05, -8.468850865028799e-07, 1.078062632586807e-05, 2.240813773823902e-05, 3.403564915060997e-05, 4.566316056298092e-05, 5.729067197535187e-05, 6.891818338772282e-05, 8.054569480009377e-05, 9.217320621246472e-05, 0.00010380071762483567, 0.00011542822903720662, 0.00012705574044957757, 0.0001386832445859909, 0.00015031076327431947, 0.00016193828196264803, 0.00017356578609906137, 0.0001851932902354747, 0.00019682080892380327, 0.00020844832761213183, 0.00022007583174854517, 0.0002317033358849585, 0.00024333085457328707, 0.00025495837326161563, 0.00026658587739802897, 0.0002782133815344423, 0.0002898409147746861, 0.00030146841891109943, 0.00031309592304751277, 0.0003247234271839261, 0.00033635093132033944, 0.00034797846456058323, 0.00035960596869699657, 0.0003712334728334099, 0.0003828610060736537, 0.00039448851021006703, 0.00040611601434648037]}, "_wandb": {"runtime": 9715}}