{"value_loss": 0.2719512015581131, "_timestamp": 1665242265.5550432, "_runtime": 10141.462060213089, "policy_loss": -0.0006956215273952182, "dist_entropy": 1.0340992212295532, "actor_grad_norm": 0.03413810580968857, "critic_grad_norm": 0.1294911950826645, "ratio": 0.9999755024909973, "sm3_ratio_mean": 0.5314362244898267, "drop_mean": 0.0032434652502090016, "drop_std": 0.03077041187565764, "drop_min": 0.0, "drop_max": 0.4646835669875145, "delay_mean": 0.058977676713629745, "delay_std": 0.0915920886612069, "delay_min": 0.0, "delay_max": 0.7229629738463297, "pc_mean": 223.41726684570312, "pc_std": 54.9781379699707, "pc_min": 114.95396423339844, "pc_max": 739.0990600585938, "reward_mean": -0.2455323612855173, "reward_std": 0.16816644899241653, "reward_min": -2.581716776649157, "reward_max": -0.11495396423339845, "_step": 2520000, "gradients/act.action_outs.2.linear.bias": {"_type": "histogram", "values": [1.0, 0.0, 0.0, 0.0, 0.0, 0.0, 0.0, 0.0, 0.0, 0.0, 0.0, 1.0, 0.0, 0.0, 0.0, 0.0, 0.0, 0.0, 0.0, 0.0, 0.0, 0.0, 0.0, 0.0, 0.0, 0.0, 0.0, 0.0, 0.0, 0.0, 0.0, 0.0, 0.0, 0.0, 0.0, 0.0, 0.0, 0.0, 0.0, 0.0, 0.0, 0.0, 0.0, 0.0, 0.0, 0.0, 0.0, 0.0, 0.0, 0.0, 0.0, 0.0, 0.0, 0.0, 0.0, 0.0, 0.0, 0.0, 0.0, 0.0, 0.0, 0.0, 0.0, 1.0], "bins": [-0.00025738743715919554, -0.00024713031598366797, -0.00023687322391197085, -0.00022661610273644328, -0.00021635899611283094, -0.0002061018894892186, -0.00019584476831369102, -0.00018558766169007868, -0.00017533055506646633, -0.000165073448442854, -0.00015481634181924164, -0.00014455922064371407, -0.00013430211402010173, -0.00012404500739648938, -0.00011378789349691942, -0.00010353077959734946, -9.327367297373712e-05, -8.301656635012478e-05, -7.275945245055482e-05, -6.250233855098486e-05, -5.2245231927372515e-05, -4.1988121665781364e-05, -3.173101140419021e-05, -2.1473897504620254e-05, -1.121679088100791e-05, -9.596806194167584e-07, 9.297429642174393e-06, 1.9554539903765544e-05, 2.9811650165356696e-05, 4.006876042694785e-05, 5.0325870688539e-05, 6.058298458810896e-05, 7.084012031555176e-05, 8.10972269391641e-05, 9.135434083873406e-05, 0.00010161145473830402, 0.00011186856136191636, 0.0001221256679855287, 0.00013238278916105628, 0.00014263989578466862, 0.00015289700240828097, 0.0001631541090318933, 0.00017341121565550566, 0.00018366833683103323, 0.00019392544345464557, 0.00020418255007825792, 0.0002144396712537855, 0.00022469677787739784, 0.00023495388450101018, 0.00024521100567653775, 0.00025546809774823487, 0.00026572521892376244, 0.00027598231099545956, 0.00028623943217098713, 0.0002964965533465147, 0.0003067536745220423, 0.0003170107665937394, 0.00032726788776926696, 0.0003375249798409641, 0.00034778210101649165, 0.0003580392221920192, 0.00036829631426371634, 0.0003785534354392439, 0.00038881052751094103, 0.0003990676486864686]}, "gradients/act.action_outs.2.linear.weight": {"_type": "histogram", "values": [1.0, 1.0, 0.0, 0.0, 0.0, 0.0, 0.0, 0.0, 1.0, 0.0, 2.0, 1.0, 2.0, 1.0, 0.0, 0.0, 0.0, 1.0, 1.0, 1.0, 1.0, 3.0, 1.0, 1.0, 6.0, 2.0, 7.0, 8.0, 5.0, 5.0, 11.0, 6.0, 7.0, 4.0, 9.0, 9.0, 11.0, 13.0, 9.0, 8.0, 10.0, 3.0, 4.0, 7.0, 2.0, 5.0, 2.0, 3.0, 2.0, 3.0, 2.0, 2.0, 1.0, 1.0, 3.0, 2.0, 0.0, 0.0, 1.0, 0.0, 0.0, 0.0, 0.0, 1.0], "bins": [-0.0029000339563935995, -0.0028174270410090685, -0.0027348201256245375, -0.0026522132102400064, -0.0025696062948554754, -0.0024869993794709444, -0.0024043924640864134, -0.0023217855487018824, -0.0022391786333173513, -0.0021565717179328203, -0.0020739648025482893, -0.0019913578871637583, -0.0019087509717792273, -0.0018261440563946962, -0.0017435371410101652, -0.0016609302256256342, -0.001578323426656425, -0.001495716511271894, -0.001413109595887363, -0.001330502680502832, -0.001247895765118301, -0.00116528884973377, -0.0010826820507645607, -0.0010000751353800297, -0.0009174681617878377, -0.0008348612464033067, -0.0007522543310187757, -0.0006696474738419056, -0.0005870405584573746, -0.0005044336430728436, -0.00042182672768831253, -0.0003392198123037815, -0.0002566128969192505, -0.00017400598153471947, -9.139908070210367e-05, -8.792179869487882e-06, 7.381473551504314e-05, 0.00015642165089957416, 0.00023902853718027472, 0.00032163545256480575, 0.00040424236794933677, 0.0004868492833338678, 0.0005694561987183988, 0.0006520630558952689, 0.0007346699712797999, 0.000817276886664331, 0.000899883802048862, 0.000982490717433393, 0.001065097632817924, 0.001147704548202455, 0.001230311463586986, 0.001312918378971517, 0.001395525294356048, 0.0014781322097405791, 0.0015607390087097883, 0.0016433459240943193, 0.0017259528394788504, 0.0018085597548633814, 0.0018911666702479124, 0.0019737735856324434, 0.0020563805010169744, 0.0021389874164015055, 0.0022215943317860365, 0.0023042012471705675, 0.0023868081625550985]}, "gradients/act.action_outs.1.linear.bias": {"_type": "histogram", "values": [1.0, 0.0, 0.0, 0.0, 0.0, 0.0, 0.0, 0.0, 0.0, 0.0, 0.0, 0.0, 0.0, 0.0, 0.0, 0.0, 0.0, 0.0, 0.0, 0.0, 0.0, 0.0, 1.0, 0.0, 0.0, 0.0, 0.0, 0.0, 0.0, 0.0, 0.0, 1.0, 0.0, 0.0, 0.0, 0.0, 0.0, 0.0, 0.0, 0.0, 0.0, 0.0, 0.0, 0.0, 0.0, 0.0, 0.0, 0.0, 0.0, 0.0, 0.0, 0.0, 0.0, 0.0, 0.0, 0.0, 0.0, 0.0, 0.0, 0.0, 0.0, 0.0, 0.0, 1.0], "bins": [-0.00041021217475645244, -0.0003962615446653217, -0.00038231094367802143, -0.0003683603135868907, -0.00035440968349575996, -0.00034045905340462923, -0.00032650845241732895, -0.0003125578223261982, -0.00029860722133889794, -0.0002846565912477672, -0.00027070599026046693, -0.0002567553601693362, -0.00024280473007820547, -0.00022885411453898996, -0.00021490349899977446, -0.00020095286890864372, -0.000187002238817513, -0.00017305162327829748, -0.00015910099318716675, -0.00014515037764795125, -0.0001311997475568205, -0.000117249132017605, -0.0001032985164783895, -8.934789366321638e-05, -7.539727084804326e-05, -6.144664803287014e-05, -4.749602885567583e-05, -3.354540967848152e-05, -1.95947868633084e-05, -5.644164048135281e-06, 8.306451491080225e-06, 2.2257074306253344e-05, 3.6207668017596006e-05, 5.0158290832769126e-05, 6.410891364794225e-05, 7.805952918715775e-05, 9.201015200233087e-05, 0.00010596077481750399, 0.0001199113903567195, 0.00013386202044785023, 0.00014781263598706573, 0.00016176325152628124, 0.00017571388161741197, 0.00018966449715662748, 0.00020361511269584298, 0.00021756574278697371, 0.00023151635832618922, 0.0002454669738654047, 0.00025941760395653546, 0.0002733682340476662, 0.00028731883503496647, 0.0003012694651260972, 0.00031522009521722794, 0.00032917072530835867, 0.00034312132629565895, 0.0003570719563867897, 0.00037102255737408996, 0.0003849731874652207, 0.00039892378845252097, 0.0004128744185436517, 0.00042682504863478243, 0.0004407756496220827, 0.00045472627971321344, 0.0004686769098043442, 0.0004826275398954749]}, "gradients/act.action_outs.1.linear.weight": {"_type": "histogram", "values": [1.0, 2.0, 0.0, 0.0, 1.0, 0.0, 1.0, 0.0, 1.0, 1.0, 0.0, 1.0, 1.0, 0.0, 2.0, 2.0, 2.0, 2.0, 3.0, 1.0, 5.0, 6.0, 4.0, 3.0, 9.0, 3.0, 9.0, 6.0, 17.0, 13.0, 12.0, 9.0, 18.0, 15.0, 9.0, 15.0, 13.0, 8.0, 5.0, 10.0, 4.0, 3.0, 5.0, 5.0, 2.0, 1.0, 3.0, 1.0, 9.0, 3.0, 2.0, 2.0, 1.0, 0.0, 0.0, 1.0, 1.0, 0.0, 0.0, 1.0, 1.0, 0.0, 0.0, 1.0], "bins": [-0.0028364676982164383, -0.0027493233792483807, -0.002662179060280323, -0.0025750347413122654, -0.0024878904223442078, -0.00240074610337615, -0.0023136017844080925, -0.002226457465440035, -0.0021393131464719772, -0.0020521688275039196, -0.001965024508535862, -0.0018778801895678043, -0.0017907358705997467, -0.001703591551631689, -0.0016164471162483096, -0.001529302797280252, -0.0014421583618968725, -0.0013550140429288149, -0.0012678697239607573, -0.0011807254049926996, -0.001093581086024642, -0.0010064367670565844, -0.0009192923316732049, -0.0008321480127051473, -0.0007450036937370896, -0.000657859374769032, -0.0005707150558009744, -0.0004835706786252558, -0.0003964263596571982, -0.00030928204068914056, -0.000222137663513422, -0.00013499334454536438, -4.784902557730675e-05, 3.929530794266611e-05, 0.00012643964146263897, 0.00021358398953452706, 0.0003007283085025847, 0.00038787262747064233, 0.0004750170046463609, 0.0005621613236144185, 0.0006493056425824761, 0.0007364499615505338, 0.0008235942805185914, 0.00091073865769431, 0.0009978830348700285, 0.0010850273538380861, 0.0011721716728061438, 0.0012593159917742014, 0.001346460310742259, 0.0014336046297103167, 0.0015207489486783743, 0.001607893267646432, 0.0016950375866144896, 0.0017821819055825472, 0.0018693263409659266, 0.001956470776349306, 0.0020436150953173637, 0.0021307594142854214, 0.002217903733253479, 0.0023050480522215366, 0.0023921923711895943, 0.002479336690157652, 0.0025664810091257095, 0.002653625328093767, 0.002740769647061825]}, "gradients/act.action_outs.0.linear.bias": {"_type": "histogram", "values": [1.0, 0.0, 0.0, 0.0, 0.0, 0.0, 0.0, 0.0, 0.0, 1.0, 0.0, 0.0, 0.0, 0.0, 0.0, 0.0, 0.0, 0.0, 0.0, 0.0, 0.0, 0.0, 0.0, 0.0, 0.0, 0.0, 0.0, 0.0, 0.0, 0.0, 0.0, 0.0, 0.0, 0.0, 0.0, 0.0, 0.0, 0.0, 0.0, 0.0, 0.0, 0.0, 0.0, 0.0, 0.0, 0.0, 0.0, 0.0, 0.0, 0.0, 0.0, 0.0, 0.0, 0.0, 0.0, 0.0, 0.0, 0.0, 0.0, 0.0, 0.0, 0.0, 0.0, 1.0], "bins": [-0.00045572026283480227, -0.00043704977724701166, -0.00041837929165922105, -0.00039970880607143044, -0.0003810382913798094, -0.00036236780579201877, -0.00034369732020422816, -0.0003250268055126071, -0.00030635634902864695, -0.00028768586344085634, -0.00026901537785306573, -0.00025034486316144466, -0.00023167437757365406, -0.00021300389198586345, -0.00019433340639807284, -0.000175662906258367, -0.00015699240611866117, -0.00013832192053087056, -0.00011965142039116472, -0.00010098093480337411, -8.231044193962589e-05, -6.363994907587767e-05, -4.496946348808706e-05, -2.629896334838122e-05, -7.628477760590613e-06, 1.1042013284168206e-05, 2.9712504328927025e-05, 4.838299355469644e-05, 6.705348641844466e-05, 8.572397928219289e-05, 0.0001043944648699835, 0.00012306496500968933, 0.0001417354797013104, 0.000160405965289101, 0.00017907646542880684, 0.00019774695101659745, 0.0002164174511563033, 0.0002350879367440939, 0.0002537584223318845, 0.0002724289079196751, 0.0002910994226112962, 0.0003097699081990868, 0.0003284403937868774, 0.00034711090847849846, 0.00036578139406628907, 0.0003844518796540797, 0.0004031223652418703, 0.0004217928508296609, 0.0004404633364174515, 0.0004591338220052421, 0.0004778043075930327, 0.0004964747931808233, 0.0005151453078724444, 0.0005338158225640655, 0.0005524862790480256, 0.0005711567937396467, 0.0005898272502236068, 0.0006084977649152279, 0.000627168221399188, 0.0006458387360908091, 0.0006645091925747693, 0.0006831797072663903, 0.0007018501637503505, 0.0007205206784419715, 0.0007391911931335926]}, "gradients/act.action_outs.0.linear.weight": {"_type": "histogram", "values": [1.0, 0.0, 0.0, 0.0, 0.0, 0.0, 0.0, 0.0, 0.0, 0.0, 0.0, 0.0, 0.0, 2.0, 1.0, 0.0, 2.0, 3.0, 0.0, 3.0, 1.0, 2.0, 9.0, 0.0, 2.0, 6.0, 5.0, 8.0, 6.0, 5.0, 3.0, 8.0, 8.0, 6.0, 10.0, 7.0, 8.0, 20.0, 12.0, 12.0, 6.0, 4.0, 4.0, 3.0, 3.0, 2.0, 1.0, 2.0, 1.0, 3.0, 4.0, 1.0, 0.0, 2.0, 1.0, 1.0, 1.0, 0.0, 1.0, 0.0, 0.0, 0.0, 1.0, 1.0], "bins": [-0.0032061159145087004, -0.003114029997959733, -0.0030219443142414093, -0.002929858397692442, -0.0028377724811434746, -0.002745686797425151, -0.0026536008808761835, -0.00256151519715786, -0.0024694292806088924, -0.002377343364059925, -0.0022852576803416014, -0.002193171763792634, -0.0021010860800743103, -0.002009000163525343, -0.0019169142469763756, -0.00182482844684273, -0.0017327426467090845, -0.001640656846575439, -0.0015485710464417934, -0.001456485129892826, -0.0013643993297591805, -0.001272313529625535, -0.0011802276130765676, -0.0010881418129429221, -0.0009960560128092766, -0.000903970212675631, -0.0008118843543343246, -0.0007197984959930182, -0.0006277126958593726, -0.0005356268957257271, -0.00044354103738442063, -0.0003514551790431142, -0.0002593696117401123, -0.0001672837825026363, -7.519795326516032e-05, 1.688787597231567e-05, 0.00010897370520979166, 0.00020105953444726765, 0.00029314536368474364, 0.0003852312220260501, 0.0004773170221596956, 0.0005694028222933412, 0.0006614886806346476, 0.0007535745389759541, 0.0008456603391095996, 0.0009377461392432451, 0.0010298320557922125, 0.001121917855925858, 0.0012140036560595036, 0.001306089456193149, 0.0013981752563267946, 0.001490261172875762, 0.0015823469730094075, 0.001674432773143053, 0.0017665186896920204, 0.001858604489825666, 0.0019506902899593115, 0.002042776206508279, 0.0021348618902266026, 0.00222694780677557, 0.0023190337233245373, 0.002411119407042861, 0.0025032053235918283, 0.002595291007310152, 0.0026873769238591194]}, "gradients/base.mlp.fc2.0.2.weight": {"_type": "histogram", "values": [1.0, 0.0, 0.0, 0.0, 0.0, 0.0, 0.0, 0.0, 0.0, 0.0, 0.0, 0.0, 0.0, 0.0, 0.0, 0.0, 0.0, 0.0, 2.0, 0.0, 1.0, 0.0, 1.0, 1.0, 1.0, 1.0, 1.0, 1.0, 0.0, 0.0, 3.0, 3.0, 3.0, 1.0, 3.0, 3.0, 4.0, 8.0, 4.0, 4.0, 3.0, 5.0, 1.0, 3.0, 0.0, 0.0, 1.0, 1.0, 1.0, 2.0, 0.0, 0.0, 0.0, 0.0, 0.0, 0.0, 0.0, 0.0, 0.0, 0.0, 0.0, 0.0, 0.0, 1.0], "bins": [-0.00046072067925706506, -0.0004490082210395485, -0.000437295762822032, -0.00042558330460451543, -0.0004138708463869989, -0.0004021584172733128, -0.0003904459299519658, -0.0003787335008382797, -0.0003670210426207632, -0.00035530858440324664, -0.0003435961261857301, -0.00033188366796821356, -0.000320171209750697, -0.0003084587515331805, -0.0002967463224194944, -0.00028503386420197785, -0.0002733214059844613, -0.00026160894776694477, -0.0002498964895494282, -0.00023818403133191168, -0.00022647158766631037, -0.00021475912944879383, -0.0002030466712312773, -0.00019133422756567597, -0.00017962174024432898, -0.00016790928202681243, -0.0001561968238092959, -0.00014448436559177935, -0.00013277192192617804, -0.0001210594637086615, -0.00010934700549114496, -9.763455454958603e-05, -8.59221036080271e-05, -7.420964539051056e-05, -6.249719444895163e-05, -5.078473623143509e-05, -3.9072281651897356e-05, -2.735982707235962e-05, -1.564736885484308e-05, -3.934917913284153e-06, 7.777540304232389e-06, 1.9489994883770123e-05, 3.120244946330786e-05, 4.29149076808244e-05, 5.462736226036213e-05, 6.633981683989987e-05, 7.805227505741641e-05, 8.976472599897534e-05, 0.00010147718421649188, 0.00011318964243400842, 0.00012490210065152496, 0.00013661454431712627, 0.00014832700253464282, 0.00016003946075215936, 0.0001717519189696759, 0.00018346437718719244, 0.00019517683540470898, 0.00020688929362222552, 0.00021860175183974206, 0.0002303142100572586, 0.00024202665372285992, 0.0002537391264922917, 0.0002654515556059778, 0.0002771640138234943, 0.00028887647204101086]}, "gradients/base.mlp.fc2.0.2.bias": {"_type": "histogram", "values": [1.0, 0.0, 0.0, 0.0, 0.0, 1.0, 0.0, 0.0, 2.0, 0.0, 0.0, 0.0, 3.0, 0.0, 0.0, 0.0, 1.0, 0.0, 1.0, 1.0, 1.0, 1.0, 3.0, 4.0, 0.0, 4.0, 6.0, 2.0, 3.0, 4.0, 1.0, 4.0, 6.0, 1.0, 3.0, 2.0, 2.0, 0.0, 1.0, 2.0, 0.0, 0.0, 0.0, 1.0, 0.0, 0.0, 1.0, 0.0, 1.0, 0.0, 0.0, 0.0, 0.0, 0.0, 0.0, 0.0, 0.0, 0.0, 0.0, 0.0, 0.0, 0.0, 0.0, 1.0], "bins": [-0.00013375593698583543, -0.0001288778439629823, -0.00012399973638821393, -0.0001191216433653608, -0.00011424355034250766, -0.00010936545004369691, -0.00010448734974488616, -9.960925672203302e-05, -9.473115642322227e-05, -8.985305612441152e-05, -8.497496310155839e-05, -8.009686280274764e-05, -7.521876250393689e-05, -7.034066948108375e-05, -6.5462569182273e-05, -6.058447252144106e-05, -5.5706375860609114e-05, -5.082827919977717e-05, -4.595018253894523e-05, -4.107208224013448e-05, -3.6193985579302534e-05, -3.131588891847059e-05, -2.6437790438649245e-05, -2.1559691958827898e-05, -1.6681595297995955e-05, -1.180349772766931e-05, -6.925400157342665e-06, -2.04730258701602e-06, 2.830794983310625e-06, 7.708891644142568e-06, 1.2586990123963915e-05, 1.746508860378526e-05, 2.2343199816532433e-05, 2.7221296477364376e-05, 3.209939313819632e-05, 3.697749343700707e-05, 4.185559009783901e-05, 4.6733686758670956e-05, 5.1611787057481706e-05, 5.648988371831365e-05, 6.136798037914559e-05, 6.624608067795634e-05, 7.112417370080948e-05, 7.600227399962023e-05, 8.088037429843098e-05, 8.575846732128412e-05, 9.063656762009487e-05, 9.551466791890562e-05, 0.00010039276094175875, 0.0001052708612405695, 0.00011014895426342264, 0.00011502705456223339, 0.00011990514758508652, 0.0001247832551598549, 0.00012966134818270802, 0.00013453944120556116, 0.0001394175342284143, 0.00014429562725126743, 0.0001491737348260358, 0.00015405182784888893, 0.00015892992087174207, 0.00016380802844651043, 0.00016868612146936357, 0.0001735642144922167, 0.00017844232206698507]}, "gradients/base.mlp.fc2.0.0.bias": {"_type": "histogram", "values": [1.0, 0.0, 0.0, 0.0, 0.0, 0.0, 0.0, 0.0, 0.0, 0.0, 0.0, 0.0, 1.0, 0.0, 0.0, 2.0, 0.0, 1.0, 2.0, 1.0, 1.0, 0.0, 3.0, 3.0, 2.0, 1.0, 1.0, 1.0, 4.0, 4.0, 10.0, 2.0, 4.0, 2.0, 2.0, 5.0, 3.0, 1.0, 0.0, 0.0, 1.0, 0.0, 0.0, 1.0, 0.0, 0.0, 0.0, 0.0, 0.0, 0.0, 1.0, 1.0, 0.0, 1.0, 1.0, 0.0, 0.0, 0.0, 0.0, 0.0, 0.0, 0.0, 0.0, 1.0], "bins": [-0.00017819536151364446, -0.00017233972903341055, -0.0001664840820012614, -0.0001606284495210275, -0.00015477280248887837, -0.00014891717000864446, -0.00014306153752841055, -0.00013720589049626142, -0.00013135024346411228, -0.00012549461098387837, -0.00011963896395172924, -0.00011378333147149533, -0.0001079276844393462, -0.00010207205195911229, -9.621641220292076e-05, -9.036077244672924e-05, -8.450513996649534e-05, -7.864950021030381e-05, -7.279386045411229e-05, -6.693822797387838e-05, -6.108258094172925e-05, -5.522694482351653e-05, -4.937130870530382e-05, -4.3515668949112296e-05, -3.7660029192920774e-05, -3.180438943672925e-05, -2.5948751499527134e-05, -2.0093113562325016e-05, -1.4237473806133494e-05, -8.381834049941972e-06, -2.526197931729257e-06, 3.3294418244622648e-06, 9.185096132569015e-06, 1.5040734979265835e-05, 2.0896373825962655e-05, 2.6752011763164774e-05, 3.2607651519356295e-05, 3.846329127554782e-05, 4.431892739376053e-05, 5.0174567149952054e-05, 5.6030206906143576e-05, 6.18858466623351e-05, 6.774148641852662e-05, 7.359712617471814e-05, 7.945275865495205e-05, 8.530840568710119e-05, 9.116403816733509e-05, 9.701967792352661e-05, 0.00010287531767971814, 0.00010873095743590966, 0.00011458659719210118, 0.00012044222967233509, 0.00012629787670448422, 0.00013215350918471813, 0.00013800914166495204, 0.00014386478869710118, 0.0001497204357292503, 0.00015557606820948422, 0.00016143171524163336, 0.00016728734772186726, 0.0001731429947540164, 0.0001789986272342503, 0.00018485425971448421, 0.00019070990674663335, 0.00019656553922686726]}, "gradients/base.mlp.fc2.0.0.weight": {"_type": "histogram", "values": [1.0, 0.0, 1.0, 0.0, 0.0, 0.0, 0.0, 0.0, 0.0, 0.0, 0.0, 2.0, 1.0, 4.0, 3.0, 7.0, 9.0, 12.0, 19.0, 34.0, 34.0, 42.0, 77.0, 99.0, 148.0, 165.0, 225.0, 423.0, 894.0, 710.0, 402.0, 278.0, 146.0, 89.0, 54.0, 59.0, 40.0, 25.0, 16.0, 18.0, 5.0, 13.0, 11.0, 7.0, 1.0, 7.0, 4.0, 1.0, 3.0, 3.0, 0.0, 1.0, 1.0, 0.0, 0.0, 0.0, 0.0, 0.0, 0.0, 1.0, 0.0, 0.0, 0.0, 1.0], "bins": [-0.0006314585916697979, -0.0006095832213759422, -0.0005877078510820866, -0.0005658324807882309, -0.0005439571104943752, -0.0005220817984081805, -0.0005002064281143248, -0.00047833105782046914, -0.0004564556875266135, -0.0004345803172327578, -0.00041270494693890214, -0.00039082960574887693, -0.00036895423545502126, -0.0003470788651611656, -0.0003252035239711404, -0.0003033281536772847, -0.00028145278338342905, -0.0002595774130895734, -0.00023770205734763294, -0.0002158267016056925, -0.00019395133131183684, -0.00017207596101798117, -0.00015020060527604073, -0.0001283252495341003, -0.00010644987924024463, -8.457451622234657e-05, -6.269915320444852e-05, -4.082379018655047e-05, -1.8948427168652415e-05, 2.9269358492456377e-06, 2.480229886714369e-05, 4.667765460908413e-05, 6.855308311060071e-05, 9.042844612849876e-05, 0.00011230380914639682, 0.00013417916488833725, 0.00015605453518219292, 0.0001779299054760486, 0.00019980526121798903, 0.00022168061695992947, 0.00024355598725378513, 0.0002654313575476408, 0.00028730672784149647, 0.0003091820690315217, 0.00033105743932537735, 0.000352932809619233, 0.0003748081508092582, 0.0003966835211031139, 0.00041855889139696956, 0.0004404342616908252, 0.0004623096319846809, 0.0004841849731747061, 0.0005060603143647313, 0.000527935684658587, 0.0005498110549524426, 0.0005716864252462983, 0.000593561795540154, 0.0006154371658340096, 0.0006373125361278653, 0.000659187906421721, 0.0006810632767155766, 0.0007029385888017714, 0.0007248139590956271, 0.0007466893293894827, 0.0007685646996833384]}, "gradients/base.mlp.fc1.2.weight": {"_type": "histogram", "values": [2.0, 0.0, 0.0, 1.0, 0.0, 3.0, 0.0, 0.0, 0.0, 2.0, 2.0, 0.0, 0.0, 0.0, 0.0, 0.0, 2.0, 1.0, 1.0, 1.0, 3.0, 4.0, 7.0, 6.0, 3.0, 2.0, 3.0, 5.0, 3.0, 2.0, 0.0, 3.0, 0.0, 2.0, 0.0, 0.0, 0.0, 1.0, 2.0, 1.0, 1.0, 0.0, 0.0, 0.0, 0.0, 0.0, 0.0, 0.0, 0.0, 0.0, 0.0, 0.0, 0.0, 0.0, 0.0, 0.0, 0.0, 0.0, 0.0, 0.0, 0.0, 0.0, 0.0, 1.0], "bins": [-0.0003374774241819978, -0.00032312131952494383, -0.0003087652148678899, -0.00029440911021083593, -0.00028005303465761244, -0.0002656969300005585, -0.00025134082534350455, -0.0002369847206864506, -0.00022262861602939665, -0.0002082725113723427, -0.000193916421267204, -0.00017956031661015004, -0.0001652042119530961, -0.00015084812184795737, -0.00013649201719090343, -0.00012213591253384948, -0.00010777982242871076, -9.342372504761443e-05, -7.906762039056048e-05, -6.471152300946414e-05, -5.0355421990389004e-05, -3.5999320971313864e-05, -2.164322359021753e-05, -7.287118933163583e-06, 7.06897844793275e-06, 2.142507946700789e-05, 3.578118048608303e-05, 5.0137277867179364e-05, 6.44933752482757e-05, 7.884947990532964e-05, 9.320557728642598e-05, 0.00010756168194347993, 0.00012191777932457626, 0.0001362738839816302, 0.00015062997408676893, 0.00016498607874382287, 0.00017934218340087682, 0.00019369827350601554, 0.0002080543781630695, 0.00022241048282012343, 0.00023676658747717738, 0.00025112269213423133, 0.0002654787967912853, 0.0002798349014483392, 0.0002941909770015627, 0.00030854708165861666, 0.0003229031863156706, 0.00033725929097272456, 0.00035161536652594805, 0.000365971471183002, 0.00038032757584005594, 0.0003946836804971099, 0.0004090397560503334, 0.00042339586070738733, 0.0004377519653644413, 0.0004521080700214952, 0.00046646417467854917, 0.0004808202793356031, 0.0004951763548888266, 0.0005095324595458806, 0.0005238885642029345, 0.0005382446688599885, 0.0005526007735170424, 0.0005669568781740963, 0.0005813129828311503]}, "gradients/base.mlp.fc1.2.bias": {"_type": "histogram", "values": [1.0, 1.0, 0.0, 1.0, 0.0, 0.0, 0.0, 0.0, 0.0, 1.0, 0.0, 3.0, 2.0, 0.0, 1.0, 2.0, 0.0, 0.0, 2.0, 2.0, 2.0, 1.0, 0.0, 5.0, 2.0, 1.0, 5.0, 2.0, 5.0, 3.0, 3.0, 1.0, 1.0, 1.0, 0.0, 1.0, 1.0, 0.0, 2.0, 0.0, 0.0, 2.0, 2.0, 1.0, 0.0, 1.0, 1.0, 0.0, 2.0, 0.0, 1.0, 0.0, 0.0, 0.0, 0.0, 0.0, 0.0, 0.0, 0.0, 0.0, 0.0, 1.0, 0.0, 1.0], "bins": [-0.00018109142547473311, -0.00017401939840056002, -0.00016694737132638693, -0.00015987534425221384, -0.00015280331717804074, -0.00014573129010386765, -0.00013865926302969456, -0.00013158723595552146, -0.00012451520888134837, -0.00011744318180717528, -0.00011037115473300219, -0.00010329912765882909, -9.6227100584656e-05, -8.915507351048291e-05, -8.208304643630981e-05, -7.501101936213672e-05, -6.793899228796363e-05, -6.0866965213790536e-05, -5.379493813961744e-05, -4.672291106544435e-05, -3.965088399127126e-05, -3.2578856917098165e-05, -2.5506829842925072e-05, -1.843480276875198e-05, -1.1362775694578886e-05, -4.290748620405793e-06, 2.7812784537672997e-06, 9.853305527940392e-06, 1.6925332602113485e-05, 2.3997359676286578e-05, 3.106938675045967e-05, 3.8141413824632764e-05, 4.521344089880586e-05, 5.228546797297895e-05, 5.935749504715204e-05, 6.642952212132514e-05, 7.350154919549823e-05, 8.057357626967132e-05, 8.764560334384441e-05, 9.47176304180175e-05, 0.0001017896574921906, 0.00010886168456636369, 0.00011593371164053679, 0.00012300573871470988, 0.00013007776578888297, 0.00013714979286305606, 0.00014422181993722916, 0.00015129384701140225, 0.00015836587408557534, 0.00016543790115974844, 0.00017250992823392153, 0.00017958195530809462, 0.0001866539823822677, 0.0001937260094564408, 0.0002007980365306139, 0.000207870063604787, 0.00021494209067896008, 0.00022201411775313318, 0.00022908614482730627, 0.00023615817190147936, 0.00024323019897565246, 0.00025030222604982555, 0.00025737425312399864, 0.00026444628019817173, 0.00027151830727234483]}, "gradients/base.mlp.fc1.0.bias": {"_type": "histogram", "values": [1.0, 1.0, 0.0, 2.0, 1.0, 0.0, 1.0, 2.0, 1.0, 2.0, 1.0, 3.0, 1.0, 3.0, 2.0, 2.0, 5.0, 3.0, 9.0, 5.0, 3.0, 1.0, 1.0, 3.0, 0.0, 1.0, 0.0, 2.0, 0.0, 0.0, 0.0, 1.0, 0.0, 1.0, 2.0, 0.0, 0.0, 0.0, 0.0, 0.0, 0.0, 0.0, 0.0, 0.0, 0.0, 0.0, 2.0, 0.0, 1.0, 0.0, 0.0, 0.0, 0.0, 0.0, 0.0, 0.0, 0.0, 0.0, 0.0, 0.0, 0.0, 0.0, 0.0, 1.0], "bins": [-0.00018267559062223881, -0.00017238224972970784, -0.00016208890883717686, -0.00015179556794464588, -0.00014150224160403013, -0.00013120890071149915, -0.00012091555981896818, -0.00011062222620239481, -0.00010032888530986384, -9.003554441733286e-05, -7.97422108007595e-05, -6.944886990822852e-05, -5.9155532653676346e-05, -4.8862195399124175e-05, -3.85688545065932e-05, -2.8275520890019834e-05, -1.7982179997488856e-05, -7.688841833441984e-06, 2.6044963306048885e-06, 1.2897835404146463e-05, 2.3191172658698633e-05, 3.3484509913250804e-05, 4.377785080578178e-05, 5.4071184422355145e-05, 6.436452531488612e-05, 7.46578662074171e-05, 8.495119982399046e-05, 9.524454071652144e-05, 0.00010553788160905242, 0.00011583121522562578, 0.00012612456339411438, 0.00013641788973473012, 0.00014671121607534587, 0.00015700455696787685, 0.00016729789786040783, 0.00017759122420102358, 0.00018788456509355456, 0.00019817790598608553, 0.0002084712468786165, 0.0002187645877711475, 0.00022905791411176324, 0.00023935125500429422, 0.0002496445958968252, 0.00025993792223744094, 0.00027023127768188715, 0.0002805246040225029, 0.00029081793036311865, 0.00030111128580756485, 0.00031140464125201106, 0.0003216979675926268, 0.000331991323037073, 0.00034228464937768877, 0.00035257800482213497, 0.0003628713311627507, 0.00037316465750336647, 0.0003834580129478127, 0.0003937513392884284, 0.0004040446656290442, 0.0004143380210734904, 0.00042463134741410613, 0.00043492470285855234, 0.0004452180291991681, 0.0004555113846436143, 0.00046580471098423004, 0.0004760980373248458]}, "gradients/base.mlp.fc1.0.weight": {"_type": "histogram", "values": [1.0, 0.0, 0.0, 1.0, 1.0, 2.0, 4.0, 3.0, 5.0, 6.0, 7.0, 15.0, 14.0, 19.0, 35.0, 48.0, 57.0, 85.0, 153.0, 409.0, 1028.0, 4047.0, 654.0, 125.0, 77.0, 56.0, 37.0, 27.0, 16.0, 14.0, 12.0, 18.0, 10.0, 7.0, 6.0, 10.0, 5.0, 8.0, 2.0, 3.0, 2.0, 3.0, 1.0, 0.0, 0.0, 3.0, 0.0, 0.0, 0.0, 0.0, 2.0, 1.0, 0.0, 0.0, 0.0, 0.0, 0.0, 0.0, 0.0, 0.0, 0.0, 0.0, 0.0, 1.0], "bins": [-0.0012153725838288665, -0.0011582985753193498, -0.001101224566809833, -0.0010441505583003163, -0.0009870765497907996, -0.0009300025412812829, -0.0008729285327717662, -0.0008158545242622495, -0.0007587805157527328, -0.000701706507243216, -0.0006446324987336993, -0.0005875584902241826, -0.0005304844817146659, -0.0004734104732051492, -0.00041633646469563246, -0.00035926245618611574, -0.000302188447676599, -0.0002451144391670823, -0.0001880404306575656, -0.00013096642214804888, -7.389241363853216e-05, -1.6818405129015446e-05, 4.025560338050127e-05, 9.732961189001799e-05, 0.0001544036203995347, 0.00021147762890905142, 0.00026855163741856813, 0.00032562564592808485, 0.00038269965443760157, 0.0004397736629471183, 0.000496847671456635, 0.0005539216799661517, 0.0006109955720603466, 0.0006680695805698633, 0.00072514358907938, 0.0007822175975888968, 0.0008392916060984135, 0.0008963656146079302, 0.0009534396231174469, 0.0010105136316269636, 0.0010675876401364803, 0.001124661648645997, 0.0011817356571555138, 0.0012388096656650305, 0.0012958836741745472, 0.001352957682684064, 0.0014100316911935806, 0.0014671056997030973, 0.001524179708212614, 0.0015812537167221308, 0.0016383277252316475, 0.0016954017337411642, 0.001752475742250681, 0.0018095497507601976, 0.0018666237592697144, 0.001923697767779231, 0.001980771776288748, 0.0020378457847982645, 0.0020949197933077812, 0.002151993801817298, 0.0022090678103268147, 0.0022661418188363314, 0.002323215827345848, 0.002380289835855365, 0.0024373638443648815]}, "gradients/base.feature_norm.weight": {"_type": "histogram", "values": [1.0, 0.0, 0.0, 0.0, 0.0, 0.0, 0.0, 0.0, 0.0, 0.0, 0.0, 0.0, 0.0, 0.0, 0.0, 0.0, 0.0, 0.0, 0.0, 0.0, 0.0, 0.0, 0.0, 0.0, 0.0, 0.0, 0.0, 0.0, 0.0, 0.0, 1.0, 1.0, 0.0, 1.0, 0.0, 0.0, 1.0, 1.0, 0.0, 1.0, 2.0, 4.0, 3.0, 17.0, 28.0, 20.0, 17.0, 1.0, 4.0, 0.0, 2.0, 0.0, 0.0, 0.0, 1.0, 0.0, 0.0, 2.0, 0.0, 0.0, 0.0, 0.0, 1.0, 1.0], "bins": [-0.001510773552581668, -0.001476884470321238, -0.0014429953880608082, -0.0014091064222157001, -0.0013752173399552703, -0.0013413282576948404, -0.0013074391754344106, -0.0012735500931739807, -0.0012396611273288727, -0.0012057720450684428, -0.001171882962808013, -0.001137993996962905, -0.001104104914702475, -0.0010702158324420452, -0.0010363267501816154, -0.0010024376679211855, -0.0009685485856607556, -0.0009346595034003258, -0.0009007704793475568, -0.000866881397087127, -0.000832992373034358, -0.0007991032907739282, -0.0007652142085134983, -0.0007313251262530684, -0.0006974361022002995, -0.0006635470199398696, -0.0006296579958871007, -0.0005957689136266708, -0.000561879831366241, -0.000527990807313472, -0.0004941017250530422, -0.00046021267189644277, -0.00042632361873984337, -0.00039243456558324397, -0.00035854551242664456, -0.0003246564301662147, -0.0002907673770096153, -0.0002568783238530159, -0.00022298925614450127, -0.00018910018843598664, -0.00015521113527938724, -0.00012132207484683022, -8.74330144142732e-05, -5.3543953981716186e-05, -1.965489354915917e-05, 1.4234159607440233e-05, 4.8123227315954864e-05, 8.20122950244695e-05, 0.0001159013481810689, 0.0001497904013376683, 0.00018367946904618293, 0.00021756853675469756, 0.00025145758991129696, 0.00028534664306789637, 0.0003192357253283262, 0.00035312477848492563, 0.00038701383164152503, 0.00042090288479812443, 0.00045479193795472383, 0.0004886810202151537, 0.0005225701024755836, 0.0005564591265283525, 0.0005903482087887824, 0.0006242372328415513, 0.0006581263151019812]}, "gradients/base.feature_norm.bias": {"_type": "histogram", "values": [1.0, 0.0, 0.0, 0.0, 3.0, 2.0, 1.0, 5.0, 1.0, 0.0, 2.0, 8.0, 2.0, 2.0, 1.0, 3.0, 5.0, 5.0, 1.0, 3.0, 3.0, 4.0, 2.0, 7.0, 8.0, 4.0, 5.0, 3.0, 4.0, 2.0, 3.0, 3.0, 2.0, 2.0, 0.0, 1.0, 1.0, 0.0, 0.0, 0.0, 0.0, 1.0, 2.0, 0.0, 0.0, 1.0, 1.0, 1.0, 2.0, 1.0, 0.0, 0.0, 0.0, 0.0, 0.0, 0.0, 0.0, 0.0, 0.0, 0.0, 0.0, 1.0, 0.0, 1.0], "bins": [-0.00028124271193519235, -0.0002689793473109603, -0.0002567160117905587, -0.00024445264716632664, -0.00023218931164592505, -0.000219925947021693, -0.0002076626115012914, -0.00019539924687705934, -0.00018313591135665774, -0.00017087256128434092, -0.0001586092112120241, -0.00014634586113970727, -0.00013408251106739044, -0.000121819153719116, -0.00010955580364679918, -9.729245357448235e-05, -8.502909622620791e-05, -7.276574615389109e-05, -6.050239608157426e-05, -4.823904237127863e-05, -3.59756922989618e-05, -2.371233858866617e-05, -1.1448988516349345e-05, 8.143615559674799e-07, 1.3077711628284305e-05, 2.534106170060113e-05, 3.7604411772917956e-05, 4.986776548321359e-05, 6.213111919350922e-05, 7.439446926582605e-05, 8.665781933814287e-05, 9.89211694104597e-05, 0.00011118451948277652, 0.00012344786955509335, 0.00013571121962741017, 0.000147974569699727, 0.00016023791977204382, 0.00017250128439627588, 0.00018476461991667747, 0.00019702798454090953, 0.00020929132006131113, 0.00022155467013362795, 0.00023381802020594478, 0.00024608138483017683, 0.00025834472035057843, 0.0002706080849748105, 0.0002828714204952121, 0.00029513478511944413, 0.0003073981497436762, 0.00031966151436790824, 0.00033192484988830984, 0.0003441882145125419, 0.0003564515500329435, 0.00036871491465717554, 0.00038097825017757714, 0.0003932416148018092, 0.0004055049503222108, 0.00041776831494644284, 0.00043003165046684444, 0.0004422950150910765, 0.0004545583506114781, 0.00046682171523571014, 0.00047908505075611174, 0.0004913483862765133, 0.0005036117509007454]}, "gradients/graph_1v_out.bias": {"_type": "histogram", "values": [0.0, 0.0, 0.0, 0.0, 0.0, 0.0, 0.0, 0.0, 0.0, 0.0, 0.0, 0.0, 0.0, 0.0, 0.0, 0.0, 0.0, 0.0, 0.0, 0.0, 0.0, 0.0, 0.0, 0.0, 0.0, 0.0, 0.0, 0.0, 0.0, 0.0, 0.0, 0.0, 1.0, 0.0, 0.0, 0.0, 0.0, 0.0, 0.0, 0.0, 0.0, 0.0, 0.0, 0.0, 0.0, 0.0, 0.0, 0.0, 0.0, 0.0, 0.0, 0.0, 0.0, 0.0, 0.0, 0.0, 0.0, 0.0, 0.0, 0.0, 0.0, 0.0, 0.0, 0.0], "bins": [-0.014270847663283348, -0.014270847663283348, -0.014270847663283348, -0.014270847663283348, -0.014270847663283348, -0.014270847663283348, -0.014270847663283348, -0.014270847663283348, -0.014270847663283348, -0.014270847663283348, -0.014270847663283348, -0.014270847663283348, -0.014270847663283348, -0.014270847663283348, -0.014270847663283348, -0.014270847663283348, -0.014270847663283348, -0.014270847663283348, -0.014270847663283348, -0.014270847663283348, -0.014270847663283348, -0.014270847663283348, -0.014270847663283348, -0.014270847663283348, -0.014270847663283348, -0.014270847663283348, -0.014270847663283348, -0.014270847663283348, -0.014270847663283348, -0.014270847663283348, -0.014270847663283348, -0.014270847663283348, -0.014270847663283348, -0.014270847663283348, -0.014270847663283348, -0.014270847663283348, -0.014270847663283348, -0.014270847663283348, -0.014270847663283348, -0.014270847663283348, -0.014270847663283348, -0.014270847663283348, -0.014270847663283348, -0.014270847663283348, -0.014270847663283348, -0.014270847663283348, -0.014270847663283348, -0.014270847663283348, -0.014270847663283348, -0.014270847663283348, -0.014270847663283348, -0.014270847663283348, -0.014270847663283348, -0.014270847663283348, -0.014270847663283348, -0.014270847663283348, -0.014270847663283348, -0.014270847663283348, -0.014270847663283348, -0.014270847663283348, -0.014270847663283348, -0.014270847663283348, -0.014270847663283348, -0.014270847663283348, -0.014270847663283348]}, "gradients/graph_1v_out.weight": {"_type": "histogram", "values": [1.0, 0.0, 1.0, 0.0, 0.0, 0.0, 0.0, 0.0, 1.0, 0.0, 0.0, 1.0, 0.0, 0.0, 0.0, 0.0, 1.0, 0.0, 0.0, 0.0, 2.0, 1.0, 1.0, 1.0, 0.0, 0.0, 0.0, 0.0, 0.0, 1.0, 1.0, 0.0, 1.0, 1.0, 0.0, 0.0, 0.0, 0.0, 0.0, 0.0, 0.0, 0.0, 0.0, 0.0, 1.0, 0.0, 0.0, 0.0, 1.0, 1.0, 0.0, 1.0, 0.0, 1.0, 1.0, 0.0, 1.0, 0.0, 2.0, 1.0, 2.0, 2.0, 12.0, 24.0], "bins": [-0.03982234746217728, -0.03905563801527023, -0.03828892856836319, -0.037522219121456146, -0.036755505949258804, -0.03598879650235176, -0.03522208705544472, -0.034455377608537674, -0.03368866816163063, -0.03292195871472359, -0.032155249267816544, -0.0313885360956192, -0.030621828511357307, -0.029855117201805115, -0.02908840775489807, -0.028321698307991028, -0.027554986998438835, -0.02678827755153179, -0.0260215662419796, -0.025254856795072556, -0.024488147348165512, -0.02372143790125847, -0.022954726591706276, -0.022188017144799232, -0.02142130583524704, -0.020654596388339996, -0.019887885078787804, -0.01912117563188076, -0.018354466184973717, -0.017587754875421524, -0.01682104542851448, -0.016054335981607437, -0.015287624672055244, -0.014520914293825626, -0.013754204846918583, -0.012987494468688965, -0.012220785021781921, -0.011454074643552303, -0.010687364265322685, -0.009920654818415642, -0.009153944440186024, -0.008387234061956406, -0.007620524615049362, -0.006853814236819744, -0.006087104324251413, -0.005320394411683083, -0.0045536840334534645, -0.0037869741208851337, -0.003020264208316803, -0.002253554295748472, -0.0014868441503494978, -0.0007201340049505234, 4.657590761780739e-05, 0.0008132858201861382, 0.0015799961984157562, 0.002346706110984087, 0.0031134160235524178, 0.0038801259361207485, 0.004646835848689079, 0.005413546226918697, 0.006180256139487028, 0.006946966052055359, 0.007713676430284977, 0.008480386808514595, 0.009247096255421638]}, "gradients/graph_1base.mlp.fc2.0.2.weight": {"_type": "histogram", "values": [1.0, 0.0, 1.0, 0.0, 0.0, 0.0, 0.0, 1.0, 0.0, 1.0, 0.0, 1.0, 0.0, 0.0, 0.0, 0.0, 1.0, 1.0, 1.0, 2.0, 2.0, 5.0, 1.0, 3.0, 3.0, 8.0, 3.0, 6.0, 2.0, 2.0, 4.0, 4.0, 0.0, 1.0, 1.0, 0.0, 2.0, 2.0, 0.0, 1.0, 1.0, 0.0, 0.0, 2.0, 0.0, 0.0, 0.0, 0.0, 0.0, 0.0, 0.0, 0.0, 0.0, 0.0, 0.0, 0.0, 0.0, 0.0, 0.0, 0.0, 0.0, 0.0, 0.0, 1.0], "bins": [-0.004280076827853918, -0.004123096354305744, -0.003966116346418858, -0.0038091361057013273, -0.003652155864983797, -0.003495175624266267, -0.0033381953835487366, -0.0031812151428312063, -0.003024234902113676, -0.002867254661396146, -0.0027102744206786156, -0.0025532941799610853, -0.002396313939243555, -0.002239333698526025, -0.0020823534578084946, -0.0019253732170909643, -0.001768392976373434, -0.0016114127356559038, -0.0014544324949383736, -0.0012974522542208433, -0.001140472013503313, -0.0009834917727857828, -0.0008265115320682526, -0.0006695312913507223, -0.0005125510506331921, -0.0003555708099156618, -0.00019859056919813156, -4.161032848060131e-05, 0.00011536991223692894, 0.0002723501529544592, 0.00042933039367198944, 0.0005863106343895197, 0.0007432904094457626, 0.0009002706501632929, 0.0010572508908808231, 0.0012142311315983534, 0.0013712113723158836, 0.0015281916130334139, 0.0016851718537509441, 0.0018421520944684744, 0.0019991323351860046, 0.002156112575903535, 0.002313092816621065, 0.0024700730573385954, 0.0026270532980561256, 0.002784033538773656, 0.002941013779491186, 0.0030979940202087164, 0.0032549742609262466, 0.003411954501643777, 0.003568934742361307, 0.0037259149830788374, 0.0038828952237963676, 0.004039875231683254, 0.004196855705231428, 0.004353836178779602, 0.004510816186666489, 0.004667796194553375, 0.004824776668101549, 0.004981757141649723, 0.00513873714953661, 0.005295717157423496, 0.00545269763097167, 0.005609678104519844, 0.005766658112406731]}, "gradients/graph_1base.mlp.fc2.0.2.bias": {"_type": "histogram", "values": [1.0, 0.0, 0.0, 0.0, 0.0, 0.0, 0.0, 0.0, 1.0, 0.0, 0.0, 0.0, 1.0, 3.0, 2.0, 2.0, 2.0, 1.0, 1.0, 1.0, 0.0, 2.0, 0.0, 1.0, 5.0, 1.0, 1.0, 1.0, 2.0, 4.0, 2.0, 3.0, 1.0, 2.0, 1.0, 3.0, 1.0, 2.0, 3.0, 0.0, 0.0, 1.0, 2.0, 2.0, 0.0, 2.0, 0.0, 2.0, 1.0, 2.0, 0.0, 0.0, 0.0, 0.0, 0.0, 0.0, 1.0, 0.0, 0.0, 0.0, 0.0, 0.0, 0.0, 1.0], "bins": [-0.004389592912048101, -0.0042506433092057705, -0.004111694172024727, -0.003972744569182396, -0.003833794966340065, -0.003694845363497734, -0.003555895993486047, -0.0034169466234743595, -0.0032779970206320286, -0.0031390474177896976, -0.0030000980477780104, -0.002861148677766323, -0.002722199074923992, -0.0025832494720816612, -0.002444300102069974, -0.0023053507320582867, -0.0021664011292159557, -0.002027451526373625, -0.0018885021563619375, -0.0017495526699349284, -0.0016106031835079193, -0.0014716536970809102, -0.001332704210653901, -0.001193754724226892, -0.0010548052377998829, -0.0009158557513728738, -0.0007769062649458647, -0.0006379567785188556, -0.0004990072920918465, -0.00036005780566483736, -0.00022110831923782825, -8.215883281081915e-05, 5.6791119277477264e-05, 0.00019574060570448637, 0.0003346900921314955, 0.0004736395785585046, 0.0006125890649855137, 0.0007515385514125228, 0.0008904880378395319, 0.001029437524266541, 0.0011683870106935501, 0.0013073364971205592, 0.0014462859835475683, 0.0015852354699745774, 0.0017241849564015865, 0.0018631344428285956, 0.0020020839292556047, 0.002141033299267292, 0.002279982902109623, 0.002418932504951954, 0.002557881874963641, 0.0026968312449753284, 0.0028357808478176594, 0.0029747304506599903, 0.0031136798206716776, 0.003252629190683365, 0.003391578793525696, 0.0035305283963680267, 0.003669477766379714, 0.0038084271363914013, 0.003947376739233732, 0.004086326342076063, 0.004225275479257107, 0.004364225082099438, 0.004503174684941769]}, "gradients/graph_1base.mlp.fc2.0.0.bias": {"_type": "histogram", "values": [1.0, 0.0, 0.0, 1.0, 2.0, 1.0, 0.0, 1.0, 0.0, 1.0, 0.0, 0.0, 0.0, 0.0, 0.0, 1.0, 1.0, 0.0, 0.0, 0.0, 1.0, 0.0, 1.0, 2.0, 0.0, 1.0, 6.0, 15.0, 9.0, 5.0, 3.0, 0.0, 1.0, 1.0, 2.0, 0.0, 0.0, 1.0, 1.0, 0.0, 1.0, 0.0, 0.0, 0.0, 0.0, 0.0, 0.0, 0.0, 0.0, 0.0, 0.0, 0.0, 0.0, 1.0, 0.0, 0.0, 1.0, 0.0, 0.0, 2.0, 0.0, 0.0, 0.0, 1.0], "bins": [-0.0018272704910486937, -0.001761925988830626, -0.0016965814866125584, -0.0016312369843944907, -0.001565892482176423, -0.0015005480963736773, -0.0014352035941556096, -0.001369859091937542, -0.0013045145897194743, -0.0012391700875014067, -0.001173825585283339, -0.0011084810830652714, -0.0010431366972625256, -0.000977792078629136, -0.0009124476928263903, -0.0008471031906083226, -0.000781758688390255, -0.0007164141861721873, -0.0006510696839541197, -0.000585725239943713, -0.0005203807377256453, -0.00045503623550757766, -0.00038969176239334047, -0.0003243472892791033, -0.00025900278706103563, -0.00019365829939488322, -0.0001283138117287308, -6.296932406257838e-05, 2.3751636035740376e-06, 6.771966582164168e-05, 0.00013306413893587887, 0.00019840861205011606, 0.00026375288143754005, 0.0003290973836556077, 0.0003944418567698449, 0.0004597863298840821, 0.0005251308321021497, 0.0005904753343202174, 0.0006558197783306241, 0.0007211642805486917, 0.0007865087827667594, 0.000851853284984827, 0.0009171977872028947, 0.0009825422894209623, 0.0010478866752237082, 0.0011132312938570976, 0.0011785756796598434, 0.001243920181877911, 0.0013092646840959787, 0.0013746091863140464, 0.001439953688532114, 0.0015052981907501817, 0.0015706426929682493, 0.0016359870787709951, 0.0017013315809890628, 0.0017666760832071304, 0.001832020585425198, 0.0018973650876432657, 0.0019627094734460115, 0.002028054092079401, 0.002093398477882147, 0.0021587430965155363, 0.002224087482318282, 0.0022894321009516716, 0.0023547764867544174]}, "gradients/graph_1base.mlp.fc2.0.0.weight": {"_type": "histogram", "values": [1.0, 0.0, 0.0, 2.0, 2.0, 0.0, 1.0, 0.0, 0.0, 2.0, 0.0, 1.0, 2.0, 1.0, 3.0, 1.0, 5.0, 2.0, 5.0, 6.0, 5.0, 9.0, 11.0, 55.0, 151.0, 61.0, 248.0, 2539.0, 493.0, 185.0, 195.0, 38.0, 20.0, 10.0, 8.0, 3.0, 3.0, 4.0, 2.0, 5.0, 2.0, 1.0, 3.0, 0.0, 1.0, 1.0, 1.0, 0.0, 1.0, 1.0, 0.0, 1.0, 0.0, 1.0, 0.0, 0.0, 1.0, 0.0, 0.0, 1.0, 1.0, 0.0, 0.0, 1.0], "bins": [-0.008869810961186886, -0.00855073519051075, -0.008231659419834614, -0.007912583649158478, -0.007593507878482342, -0.007274432107806206, -0.00695535633713007, -0.006636280566453934, -0.006317204795777798, -0.005998129025101662, -0.005679053254425526, -0.00535997748374939, -0.005040901713073254, -0.004721825942397118, -0.004402750171720982, -0.004083674401044846, -0.0037645986303687096, -0.0034455228596925735, -0.0031264470890164375, -0.0028073713183403015, -0.0024882955476641655, -0.0021692197769880295, -0.0018501440063118935, -0.0015310682356357574, -0.0012119924649596214, -0.0008929166942834854, -0.0005738409236073494, -0.0002547651529312134, 6.431061774492264e-05, 0.00038338638842105865, 0.0007024621590971947, 0.0010215379297733307, 0.001340612769126892, 0.001659688539803028, 0.001978764310479164, 0.0022978400811553, 0.002616915851831436, 0.002935991622507572, 0.003255067393183708, 0.003574143163859844, 0.0038932189345359802, 0.004212294705212116, 0.004531370475888252, 0.004850446246564388, 0.005169522017240524, 0.00548859778791666, 0.005807673558592796, 0.006126749329268932, 0.006445825099945068, 0.006764900870621204, 0.00708397664129734, 0.007403052411973476, 0.007722128182649612, 0.008041203953325748, 0.008360279724001884, 0.00867935549467802, 0.008998431265354156, 0.009317507036030293, 0.009636582806706429, 0.009955658577382565, 0.0102747343480587, 0.010593810118734837, 0.010912885889410973, 0.011231961660087109, 0.011551037430763245]}, "gradients/graph_1base.mlp.fc1.2.weight": {"_type": "histogram", "values": [1.0, 0.0, 1.0, 0.0, 0.0, 0.0, 0.0, 0.0, 0.0, 0.0, 0.0, 1.0, 0.0, 0.0, 2.0, 0.0, 0.0, 0.0, 2.0, 1.0, 5.0, 0.0, 2.0, 7.0, 5.0, 3.0, 5.0, 9.0, 2.0, 2.0, 3.0, 1.0, 1.0, 3.0, 1.0, 0.0, 2.0, 0.0, 2.0, 0.0, 0.0, 0.0, 1.0, 0.0, 0.0, 0.0, 0.0, 0.0, 0.0, 0.0, 0.0, 0.0, 0.0, 0.0, 0.0, 0.0, 0.0, 1.0, 0.0, 0.0, 0.0, 0.0, 0.0, 1.0], "bins": [-0.0021505935583263636, -0.00207027280703187, -0.001989952055737376, -0.0019096313044428825, -0.0018293105531483889, -0.0017489898018538952, -0.0016686690505594015, -0.0015883482992649078, -0.0015080275479704142, -0.0014277067966759205, -0.0013473860453814268, -0.0012670652940869331, -0.0011867445427924395, -0.0011064237914979458, -0.0010261030402034521, -0.0009457822889089584, -0.0008654615376144648, -0.0007851407863199711, -0.0007048200350254774, -0.0006244992837309837, -0.0005441785324364901, -0.0004638577811419964, -0.0003835370298475027, -0.00030321627855300903, -0.00022289552725851536, -0.00014257477596402168, -6.225402466952801e-05, 1.8066726624965668e-05, 9.838747791945934e-05, 0.00017870822921395302, 0.0002590289805084467, 0.00033934973180294037, 0.0004196707159280777, 0.0004999914672225714, 0.000580312218517065, 0.0006606329698115587, 0.0007409537211060524, 0.0008212744724005461, 0.0009015952236950397, 0.0009819159749895334, 0.001062236726284027, 0.0011425574775785208, 0.0012228782288730145, 0.0013031989801675081, 0.0013835197314620018, 0.0014638404827564955, 0.0015441612340509892, 0.0016244819853454828, 0.0017048027366399765, 0.0017851234879344702, 0.0018654442392289639, 0.0019457649905234575, 0.002026085741817951, 0.002106406493112445, 0.0021867272444069386, 0.0022670479957014322, 0.002347368746995926, 0.0024276894982904196, 0.0025080102495849133, 0.002588331000879407, 0.0026686517521739006, 0.0027489725034683943, 0.002829293254762888, 0.0029096140060573816, 0.0029899347573518753]}, "gradients/graph_1base.mlp.fc1.2.bias": {"_type": "histogram", "values": [1.0, 0.0, 0.0, 0.0, 0.0, 2.0, 1.0, 2.0, 2.0, 1.0, 0.0, 0.0, 2.0, 1.0, 1.0, 0.0, 1.0, 0.0, 1.0, 2.0, 2.0, 2.0, 5.0, 3.0, 1.0, 2.0, 3.0, 5.0, 3.0, 4.0, 0.0, 1.0, 4.0, 0.0, 2.0, 2.0, 1.0, 2.0, 1.0, 0.0, 0.0, 1.0, 1.0, 1.0, 0.0, 0.0, 0.0, 0.0, 0.0, 0.0, 0.0, 0.0, 0.0, 0.0, 0.0, 0.0, 0.0, 0.0, 0.0, 0.0, 0.0, 0.0, 0.0, 1.0], "bins": [-0.0022346077021211386, -0.00213849195279181, -0.002042376436293125, -0.0019462606869637966, -0.001850144937634468, -0.0017540291883051395, -0.0016579135553911328, -0.0015617979224771261, -0.0014656821731477976, -0.001369566423818469, -0.0012734507909044623, -0.0011773351579904556, -0.001081219408661127, -0.0009851036593317986, -0.0008889880264177918, -0.0007928723352961242, -0.0006967566441744566, -0.000600640953052789, -0.0005045252619311213, -0.0004084095708094537, -0.0003122938796877861, -0.00021617818856611848, -0.00012006249744445086, -2.3946806322783232e-05, 7.216888479888439e-05, 0.00016828457592055202, 0.00026440026704221964, 0.00036051595816388726, 0.0004566316492855549, 0.0005527473404072225, 0.0006488630315288901, 0.0007449787226505578, 0.000841094646602869, 0.0009372103377245367, 0.0010333260288462043, 0.001129441661760211, 0.0012255574110895395, 0.001321673160418868, 0.0014177887933328748, 0.0015139044262468815, 0.00161002017557621, 0.0017061359249055386, 0.0018022515578195453, 0.001898367190733552, 0.0019944829400628805, 0.002090598689392209, 0.002186714205890894, 0.0022828299552202225, 0.002378945704549551, 0.0024750614538788795, 0.002571177203208208, 0.002667292719706893, 0.0027634084690362215, 0.00285952421836555, 0.002955639734864235, 0.0030517554841935635, 0.003147871233522892, 0.0032439869828522205, 0.003340102732181549, 0.003436218248680234, 0.0035323339980095625, 0.003628449747338891, 0.003724565263837576, 0.0038206810131669044, 0.003916796762496233]}, "gradients/graph_1base.mlp.fc1.0.bias": {"_type": "histogram", "values": [1.0, 0.0, 0.0, 0.0, 1.0, 0.0, 0.0, 1.0, 0.0, 0.0, 0.0, 1.0, 0.0, 0.0, 1.0, 0.0, 0.0, 0.0, 0.0, 0.0, 0.0, 1.0, 0.0, 0.0, 0.0, 1.0, 0.0, 1.0, 2.0, 1.0, 2.0, 3.0, 1.0, 9.0, 11.0, 8.0, 2.0, 3.0, 0.0, 1.0, 1.0, 0.0, 1.0, 1.0, 0.0, 0.0, 0.0, 2.0, 1.0, 0.0, 0.0, 1.0, 0.0, 1.0, 0.0, 1.0, 1.0, 1.0, 0.0, 0.0, 1.0, 0.0, 0.0, 1.0], "bins": [-0.000891554169356823, -0.0008656901773065329, -0.0008398262434639037, -0.0008139622514136136, -0.0007880983175709844, -0.0007622343255206943, -0.0007363703334704041, -0.000710506399627775, -0.0006846424075774848, -0.0006587784155271947, -0.0006329144816845655, -0.0006070504896342754, -0.0005811865557916462, -0.0005553225637413561, -0.0005294586298987269, -0.0005035946378484368, -0.0004777306749019772, -0.00045186671195551753, -0.0004260027490090579, -0.00040013878606259823, -0.0003742747940123081, -0.00034841083106584847, -0.0003225468681193888, -0.0002966828760690987, -0.0002708189422264695, -0.00024495497928000987, -0.00021909100178163499, -0.00019322703883517534, -0.00016736306133680046, -0.0001414990983903408, -0.00011563513544388115, -8.977115794550627e-05, -6.39071804471314e-05, -3.804321022471413e-05, -1.2179243640275672e-05, 1.3684722944162786e-05, 3.954869316658005e-05, 6.541266338899732e-05, 9.127662633545697e-05, 0.00011714060383383185, 0.0001430045667802915, 0.00016886852972675115, 0.00019473250722512603, 0.00022059647017158568, 0.00024646043311804533, 0.00027232442516833544, 0.00029818835901096463, 0.00032405235106125474, 0.0003499163140077144, 0.00037578027695417404, 0.0004016442399006337, 0.00042750820284709334, 0.00045337219489738345, 0.0004792361578438431, 0.0005051001207903028, 0.0005309641128405929, 0.0005568280466832221, 0.0005826920387335122, 0.0006085559725761414, 0.0006344199646264315, 0.0006602838984690607, 0.0006861478905193508, 0.00071201182436198, 0.0007378758164122701, 0.0007637398084625602]}, "gradients/graph_1base.mlp.fc1.0.weight": {"_type": "histogram", "values": [1.0, 0.0, 0.0, 0.0, 0.0, 1.0, 0.0, 0.0, 0.0, 1.0, 0.0, 0.0, 0.0, 0.0, 1.0, 2.0, 1.0, 1.0, 0.0, 2.0, 0.0, 1.0, 0.0, 3.0, 0.0, 2.0, 1.0, 8.0, 11.0, 41.0, 63.0, 84.0, 211.0, 463.0, 35787.0, 12405.0, 618.0, 231.0, 108.0, 72.0, 9.0, 21.0, 3.0, 2.0, 2.0, 3.0, 2.0, 2.0, 1.0, 2.0, 1.0, 3.0, 1.0, 0.0, 0.0, 1.0, 2.0, 0.0, 0.0, 1.0, 0.0, 0.0, 0.0, 1.0], "bins": [-0.01238702330738306, -0.012032576836645603, -0.011678129434585571, -0.011323682963848114, -0.010969236493110657, -0.010614789091050625, -0.010260342620313168, -0.009905895218253136, -0.009551448747515678, -0.009197002276778221, -0.00884255487471819, -0.008488108403980732, -0.0081336610019207, -0.007779214531183243, -0.0074247680604457855, -0.007070321124047041, -0.006715874187648296, -0.006361427251249552, -0.006006980314850807, -0.00565253384411335, -0.005298086907714605, -0.004943639971315861, -0.0045891935005784035, -0.004234746564179659, -0.0038802996277809143, -0.0035258526913821697, -0.003171405987814069, -0.002816959284245968, -0.0024625123478472233, -0.0021080654114484787, -0.0017536187078803778, -0.0013991720043122768, -0.0010447241365909576, -0.0006902773166075349, -0.00033583049662411213, 1.8616323359310627e-05, 0.0003730631433427334, 0.0007275099633261561, 0.001081956783309579, 0.0014364034868776798, 0.0017908504232764244, 0.002145297359675169, 0.00249974406324327, 0.002854190766811371, 0.0032086377032101154, 0.00356308463960886, 0.003917531110346317, 0.004271978046745062, 0.0046264249831438065, 0.004980871919542551, 0.005335318855941296, 0.005689765326678753, 0.0060442122630774975, 0.006398659199476242, 0.006753105670213699, 0.007107552606612444, 0.0074619995430111885, 0.007816446013748646, 0.008170893415808678, 0.008525339886546135, 0.008879786357283592, 0.009234233759343624, 0.009588680230081081, 0.009943127632141113, 0.01029757410287857]}, "gradients/graph_1base.feature_norm.weight": {"_type": "histogram", "values": [1.0, 0.0, 0.0, 0.0, 0.0, 0.0, 0.0, 0.0, 0.0, 0.0, 0.0, 0.0, 0.0, 0.0, 0.0, 0.0, 0.0, 0.0, 0.0, 0.0, 0.0, 0.0, 0.0, 0.0, 0.0, 0.0, 0.0, 0.0, 0.0, 0.0, 0.0, 1.0, 0.0, 0.0, 0.0, 1.0, 0.0, 0.0, 0.0, 1.0, 1.0, 1.0, 0.0, 2.0, 3.0, 4.0, 5.0, 5.0, 14.0, 65.0, 232.0, 306.0, 97.0, 18.0, 5.0, 2.0, 5.0, 4.0, 4.0, 2.0, 1.0, 3.0, 0.0, 1.0], "bins": [-0.0020392064470797777, -0.001999288098886609, -0.001959369983524084, -0.0019194516353309155, -0.0018795332871377468, -0.0018396150553599, -0.0017996967071667314, -0.0017597784753888845, -0.001719860127195716, -0.001679941895417869, -0.0016400235472247005, -0.0016001053154468536, -0.001560186967253685, -0.0015202687354758382, -0.0014803503872826695, -0.0014404321555048227, -0.001400513807311654, -0.0013605955755338073, -0.0013206772273406386, -0.0012807589955627918, -0.0012408406473696232, -0.0012009224155917764, -0.0011610040673986077, -0.001121085835620761, -0.001081167603842914, -0.0010412493720650673, -0.0010013310238718987, -0.0009614127338863909, -0.0009214944439008832, -0.0008815761539153755, -0.0008416578639298677, -0.0008017396321520209, -0.0007618212257511914, -0.0007219029357656837, -0.0006819846457801759, -0.0006420663557946682, -0.0006021480658091605, -0.0005622297758236527, -0.0005223115440458059, -0.00048239322495646775, -0.00044247493497096, -0.0004025566449854523, -0.00036263835499994457, -0.0003227200941182673, -0.00028280180413275957, -0.00024288349959533662, -0.00020296522416174412, -0.0001630469341762364, -0.00012312864419072866, -8.321035420522094e-05, -4.3292071495670825e-05, -3.3737887861207128e-06, 3.6544501199387014e-05, 7.646279118489474e-05, 0.00011638106661848724, 0.00015629935660399497, 0.0001962176465895027, 0.00023613593657501042, 0.00027605422656051815, 0.0003159724874421954, 0.00035589077742770314, 0.00039580906741321087, 0.0004357273573987186, 0.0004756456473842263, 0.000515563937369734]}, "gradients/graph_1base.feature_norm.bias": {"_type": "histogram", "values": [1.0, 0.0, 1.0, 1.0, 0.0, 1.0, 0.0, 1.0, 1.0, 5.0, 3.0, 3.0, 5.0, 11.0, 6.0, 11.0, 5.0, 13.0, 8.0, 18.0, 14.0, 27.0, 19.0, 29.0, 33.0, 30.0, 32.0, 29.0, 28.0, 40.0, 37.0, 41.0, 34.0, 42.0, 29.0, 29.0, 21.0, 19.0, 27.0, 20.0, 13.0, 11.0, 15.0, 17.0, 16.0, 8.0, 7.0, 7.0, 3.0, 2.0, 2.0, 3.0, 1.0, 1.0, 1.0, 1.0, 0.0, 0.0, 0.0, 0.0, 0.0, 1.0, 0.0, 1.0], "bins": [-0.0004282850422896445, -0.00041433534352108836, -0.00040038564475253224, -0.0003864359459839761, -0.00037248624721542, -0.0003585365484468639, -0.00034458684967830777, -0.00033063715090975165, -0.00031668745214119554, -0.0003027377533726394, -0.0002887880546040833, -0.0002748383558355272, -0.00026088865706697106, -0.00024693895829841495, -0.0002329892449779436, -0.00021903954620938748, -0.00020508983288891613, -0.00019114013412036002, -0.0001771904353518039, -0.00016324073658324778, -0.00014929103781469166, -0.00013534133904613554, -0.0001213916257256642, -0.00010744192695710808, -9.349222818855196e-05, -7.954252941999584e-05, -6.559283065143973e-05, -5.1643124606925994e-05, -3.7693425838369876e-05, -2.3743727069813758e-05, -9.794021025300026e-06, 4.155677743256092e-06, 1.810537651181221e-05, 3.205507528036833e-05, 4.600477768690325e-05, 5.995448009343818e-05, 7.39041788619943e-05, 8.785387763055041e-05, 0.00010180358367506415, 0.00011575328244362026, 0.00012970298121217638, 0.0001436526799807325, 0.00015760237874928862, 0.00017155209206975996, 0.00018550179083831608, 0.0001994514896068722, 0.00021340118837542832, 0.00022735088714398444, 0.00024130058591254056, 0.0002552502846810967, 0.0002691999834496528, 0.0002831496822182089, 0.000297099380986765, 0.00031104907975532115, 0.0003249988076277077, 0.00033894850639626384, 0.00035289820516481996, 0.0003668479039333761, 0.0003807976027019322, 0.0003947473014704883, 0.00040869700023904443, 0.00042264669900760055, 0.00043659639777615666, 0.0004505460965447128, 0.0004644957953132689]}, "_wandb": {"runtime": 10141}}