{"value_loss": 0.24486505389213561, "_timestamp": 1665227866.3620646, "_runtime": 11813.01100564003, "policy_loss": -0.0007793649880814879, "dist_entropy": 1.0485434770584106, "actor_grad_norm": 0.028295746073126793, "critic_grad_norm": 0.1657351553440094, "ratio": 0.999893069267273, "sm3_ratio_mean": 0.3638089569161043, "drop_mean": 0.002217198778961098, "drop_std": 0.023769892275387967, "drop_min": 0.0, "drop_max": 0.4, "delay_mean": 0.05653090514193373, "delay_std": 0.08732785405483902, "delay_min": 0.0, "delay_max": 0.7144444601403342, "pc_mean": 215.0800018310547, "pc_std": 51.60634994506836, "pc_min": 107.5936508178711, "pc_max": 739.0990600585938, "reward_mean": -0.24290509309756364, "reward_std": 0.24711835025247725, "reward_min": -4.372561822209093, "reward_max": -0.10759365081787109, "_step": 2520000, "gradients/act.action_outs.2.linear.bias": {"_type": "histogram", "values": [1.0, 0.0, 0.0, 0.0, 0.0, 0.0, 0.0, 0.0, 0.0, 0.0, 0.0, 0.0, 0.0, 0.0, 0.0, 0.0, 0.0, 0.0, 0.0, 0.0, 0.0, 0.0, 0.0, 0.0, 0.0, 0.0, 0.0, 0.0, 0.0, 0.0, 0.0, 0.0, 0.0, 0.0, 0.0, 0.0, 0.0, 0.0, 0.0, 0.0, 0.0, 0.0, 0.0, 0.0, 0.0, 0.0, 0.0, 0.0, 0.0, 0.0, 0.0, 0.0, 0.0, 0.0, 0.0, 0.0, 0.0, 1.0, 0.0, 0.0, 0.0, 0.0, 0.0, 1.0], "bins": [-0.0006484012701548636, -0.0006324457353912294, -0.0006164902588352561, -0.0006005347240716219, -0.0005845791893079877, -0.0005686236545443535, -0.0005526681779883802, -0.000536712643224746, -0.0005207571084611118, -0.0005048015736974776, -0.0004888460971415043, -0.0004728905623778701, -0.0004569350276142359, -0.00044097952195443213, -0.0004250240162946284, -0.0004090684815309942, -0.00039311297587119043, -0.0003771574702113867, -0.0003612019354477525, -0.00034524642978794873, -0.0003292908950243145, -0.0003133353893645108, -0.00029737985460087657, -0.0002814243489410728, -0.0002654688432812691, -0.0002495133376214653, -0.00023355780285783112, -0.00021760229719802737, -0.00020164676243439317, -0.00018569125677458942, -0.00016973573656287044, -0.00015378021635115147, -0.00013782468158751726, -0.00012186916137579829, -0.00010591364116407931, -8.995812822831795e-05, -7.400260801659897e-05, -5.804708780487999e-05, -4.209157486911863e-05, -2.6136054657399654e-05, -1.0180534445680678e-05, 5.774983947048895e-06, 2.1730502339778468e-05, 3.768601891351864e-05, 5.3641539125237614e-05, 6.959705933695659e-05, 8.555257227271795e-05, 0.00010150809248443693, 0.0001174636126961559, 0.00013341913290787488, 0.00014937465311959386, 0.0001653301587793976, 0.0001812856935430318, 0.00019724119920283556, 0.00021319671941455454, 0.0002291522396262735, 0.00024510774528607726, 0.000261063250945881, 0.0002770187857095152, 0.00029297429136931896, 0.00030892982613295317, 0.0003248853317927569, 0.00034084083745256066, 0.00035679637221619487, 0.0003727519069798291]}, "gradients/act.action_outs.2.linear.weight": {"_type": "histogram", "values": [2.0, 0.0, 0.0, 0.0, 0.0, 1.0, 0.0, 0.0, 0.0, 0.0, 1.0, 0.0, 1.0, 1.0, 1.0, 0.0, 2.0, 1.0, 1.0, 1.0, 1.0, 4.0, 3.0, 3.0, 5.0, 5.0, 12.0, 12.0, 19.0, 14.0, 12.0, 10.0, 7.0, 8.0, 10.0, 9.0, 13.0, 8.0, 6.0, 1.0, 4.0, 1.0, 0.0, 4.0, 3.0, 0.0, 0.0, 0.0, 1.0, 2.0, 0.0, 0.0, 0.0, 0.0, 1.0, 1.0, 0.0, 0.0, 0.0, 0.0, 0.0, 0.0, 0.0, 1.0], "bins": [-0.002179293893277645, -0.002109084976837039, -0.002038876060396433, -0.0019686671439558268, -0.0018984583439305425, -0.0018282494274899364, -0.0017580405110493302, -0.001687831711024046, -0.0016176227945834398, -0.0015474138781428337, -0.0014772049617022276, -0.0014069960452616215, -0.0013367872452363372, -0.001266578328795731, -0.001196369412355125, -0.0011261606123298407, -0.0010559515794739127, -0.0009857426630333066, -0.0009155338048003614, -0.0008453248883597553, -0.0007751160301268101, -0.000704907113686204, -0.0006346981972455978, -0.0005644893390126526, -0.0004942804225720465, -0.00042407153523527086, -0.0003538626478984952, -0.0002836537314578891, -0.00021344484412111342, -0.00014323595678433776, -7.302704034373164e-05, -2.818182110786438e-06, 6.739073432981968e-05, 0.00013759962166659534, 0.00020780852355528623, 0.0002780174254439771, 0.0003482263127807528, 0.00041843520011752844, 0.0004886441165581346, 0.0005588529747910798, 0.0006290618912316859, 0.000699270807672292, 0.0007694796659052372, 0.0008396885823458433, 0.0009098974987864494, 0.0009801064152270555, 0.0010503153316676617, 0.001120524131692946, 0.001190733048133552, 0.0012609419645741582, 0.0013311508810147643, 0.0014013596810400486, 0.0014715685974806547, 0.0015417775139212608, 0.001611986430361867, 0.001682195346802473, 0.0017524042632430792, 0.0018226131796836853, 0.0018928220961242914, 0.0019630310125648975, 0.0020332399290055037, 0.0021034488454461098, 0.0021736575290560722, 0.0022438664454966784, 0.0023140753619372845]}, "gradients/act.action_outs.1.linear.bias": {"_type": "histogram", "values": [1.0, 0.0, 0.0, 0.0, 1.0, 0.0, 0.0, 0.0, 0.0, 0.0, 0.0, 0.0, 0.0, 0.0, 0.0, 0.0, 0.0, 0.0, 0.0, 0.0, 0.0, 0.0, 0.0, 0.0, 0.0, 0.0, 0.0, 0.0, 0.0, 0.0, 0.0, 0.0, 0.0, 0.0, 0.0, 0.0, 0.0, 0.0, 0.0, 0.0, 0.0, 0.0, 0.0, 0.0, 0.0, 0.0, 0.0, 0.0, 0.0, 0.0, 0.0, 0.0, 0.0, 0.0, 0.0, 0.0, 0.0, 0.0, 0.0, 0.0, 1.0, 0.0, 0.0, 1.0], "bins": [-0.0011793433222919703, -0.001142823719419539, -0.0011063040001317859, -0.0010697843972593546, -0.0010332646779716015, -0.0009967450750991702, -0.0009602254722267389, -0.0009237058111466467, -0.0008871861500665545, -0.0008506664889864624, -0.0008141468279063702, -0.0007776272250339389, -0.0007411075639538467, -0.0007045879028737545, -0.0006680683000013232, -0.000631548638921231, -0.0005950289778411388, -0.0005585093167610466, -0.0005219896556809545, -0.0004854700528085232, -0.000448950391728431, -0.0004124307306483388, -0.00037591109867207706, -0.0003393914666958153, -0.00030287180561572313, -0.00026635214453563094, -0.0002298325125593692, -0.00019331286603119224, -0.00015679321950301528, -0.00012027357297483832, -8.375392644666135e-05, -4.723429447039962e-05, -1.07145169749856e-05, 2.5805129553191364e-05, 6.232477608136833e-05, 9.884442260954529e-05, 0.00013536406913772225, 0.00017188371566589922, 0.00020840336219407618, 0.0002449229941703379, 0.0002814426552504301, 0.0003179623163305223, 0.00035448194830678403, 0.00039100158028304577, 0.00042752124136313796, 0.00046404090244323015, 0.0005005605053156614, 0.0005370801663957536, 0.0005735998274758458, 0.000610119488555938, 0.0006466391496360302, 0.0006831587525084615, 0.0007196784135885537, 0.0007561980746686459, 0.0007927176775410771, 0.0008292373386211693, 0.0008657569997012615, 0.0009022766607813537, 0.0009387963218614459, 0.0009753159247338772, 0.0010118356440216303, 0.0010483552468940616, 0.0010848748497664928, 0.001121394569054246, 0.0011579141719266772]}, "gradients/act.action_outs.1.linear.weight": {"_type": "histogram", "values": [1.0, 0.0, 0.0, 1.0, 0.0, 1.0, 0.0, 0.0, 0.0, 0.0, 1.0, 0.0, 1.0, 0.0, 1.0, 1.0, 1.0, 2.0, 0.0, 4.0, 0.0, 4.0, 5.0, 5.0, 9.0, 18.0, 31.0, 17.0, 7.0, 4.0, 6.0, 10.0, 10.0, 9.0, 6.0, 11.0, 41.0, 16.0, 11.0, 0.0, 2.0, 1.0, 2.0, 2.0, 1.0, 7.0, 0.0, 0.0, 3.0, 0.0, 0.0, 0.0, 0.0, 0.0, 0.0, 0.0, 0.0, 3.0, 0.0, 0.0, 0.0, 0.0, 0.0, 1.0], "bins": [-0.004449828062206507, -0.004308889154344797, -0.0041679502464830875, -0.004027010872960091, -0.003886071965098381, -0.0037451330572366714, -0.003604194149374962, -0.0034632552415132523, -0.003322316100820899, -0.0031813771929591894, -0.003040438052266836, -0.0028994991444051266, -0.002758560236543417, -0.0026176210958510637, -0.002476682187989354, -0.002335743047297001, -0.0021948041394352913, -0.0020538652315735817, -0.0019129260908812284, -0.0017719871830195189, -0.0016310481587424874, -0.001490109134465456, -0.0013491702266037464, -0.001208231202326715, -0.0010672921780496836, -0.0009263531537726521, -0.0007854141877032816, -0.0006444752216339111, -0.0005035361973568797, -0.0003625971730798483, -0.00022165820701047778, -8.071924094110727e-05, 6.0220248997211456e-05, 0.00020115924417041242, 0.0003420982393436134, 0.00048303723451681435, 0.0006239762296900153, 0.0007649152539670467, 0.0009058542200364172, 0.0010467931861057878, 0.0011877322103828192, 0.0013286712346598506, 0.001469610258936882, 0.0016105491667985916, 0.001751488191075623, 0.0018924272153526545, 0.002033366123214364, 0.0021743052639067173, 0.002315244171768427, 0.0024561830796301365, 0.0025971222203224897, 0.0027380611281841993, 0.0028790002688765526, 0.003019939176738262, 0.0031608780845999718, 0.0033018169924616814, 0.0034427561331540346, 0.003583695041015744, 0.0037246341817080975, 0.003865573089569807, 0.004006511997431517, 0.0041474513709545135, 0.004288390278816223, 0.004429329186677933, 0.004570268094539642]}, "gradients/act.action_outs.0.linear.bias": {"_type": "histogram", "values": [1.0, 0.0, 0.0, 0.0, 0.0, 0.0, 0.0, 0.0, 0.0, 0.0, 0.0, 0.0, 0.0, 0.0, 0.0, 0.0, 0.0, 0.0, 0.0, 0.0, 0.0, 0.0, 0.0, 0.0, 0.0, 0.0, 0.0, 0.0, 0.0, 0.0, 0.0, 0.0, 0.0, 0.0, 0.0, 0.0, 0.0, 0.0, 0.0, 0.0, 0.0, 0.0, 0.0, 0.0, 0.0, 0.0, 0.0, 0.0, 0.0, 0.0, 0.0, 0.0, 0.0, 0.0, 0.0, 0.0, 0.0, 0.0, 0.0, 0.0, 0.0, 0.0, 1.0, 1.0], "bins": [-0.0019175298511981964, -0.0018720098305493593, -0.0018264898099005222, -0.0017809697892516851, -0.001735449768602848, -0.001689929747954011, -0.0016444097273051739, -0.0015988897066563368, -0.0015533696860074997, -0.0015078496653586626, -0.0014623296447098255, -0.0014168096240609884, -0.0013712896034121513, -0.0013257695827633142, -0.0012802495621144772, -0.00123472954146564, -0.001189209520816803, -0.0011436895001679659, -0.0010981694795191288, -0.0010526494588702917, -0.0010071294382214546, -0.0009616094175726175, -0.0009160893969237804, -0.0008705693762749434, -0.0008250494720414281, -0.000779529451392591, -0.0007340094307437539, -0.0006884894100949168, -0.0006429693894460797, -0.0005974493687972426, -0.0005519293481484056, -0.0005064093274995685, -0.00046088930685073137, -0.0004153692862018943, -0.0003698492655530572, -0.0003243292449042201, -0.000278809224255383, -0.00023328921815846115, -0.0001877692120615393, -0.0001422491914127022, -9.672917076386511e-05, -5.120915375300683e-05, -5.689136742148548e-06, 3.983087663073093e-05, 8.535089727956802e-05, 0.0001308709179284051, 0.00017639092402532697, 0.00022191094467416406, 0.00026743096532300115, 0.00031295098597183824, 0.0003584710066206753, 0.0004039910272695124, 0.0004495110479183495, 0.0004950310685671866, 0.0005405510310083628, 0.0005860710516571999, 0.000631591072306037, 0.000677111092954874, 0.0007226311136037111, 0.0007681511342525482, 0.0008136711549013853, 0.0008591911755502224, 0.0009047111961990595, 0.0009502312168478966, 0.0009957512374967337]}, "gradients/act.action_outs.0.linear.weight": {"_type": "histogram", "values": [1.0, 0.0, 0.0, 0.0, 0.0, 0.0, 0.0, 0.0, 0.0, 0.0, 2.0, 0.0, 0.0, 0.0, 0.0, 0.0, 1.0, 0.0, 0.0, 0.0, 1.0, 1.0, 1.0, 0.0, 2.0, 2.0, 1.0, 1.0, 0.0, 1.0, 3.0, 2.0, 4.0, 17.0, 32.0, 15.0, 7.0, 9.0, 5.0, 4.0, 7.0, 3.0, 6.0, 11.0, 5.0, 5.0, 7.0, 13.0, 11.0, 2.0, 2.0, 0.0, 0.0, 1.0, 1.0, 0.0, 1.0, 1.0, 2.0, 1.0, 0.0, 0.0, 0.0, 1.0], "bins": [-0.005729712080210447, -0.005582223180681467, -0.0054347338154911995, -0.005287244915962219, -0.005139755550771952, -0.004992266651242971, -0.004844777286052704, -0.004697288386523724, -0.004549799021333456, -0.004402310121804476, -0.004254820756614208, -0.004107331857085228, -0.00395984249189496, -0.0038123533595353365, -0.0036648642271757126, -0.0035173753276467323, -0.0033698861952871084, -0.0032223970629274845, -0.0030749079305678606, -0.0029274187982082367, -0.002779929665848613, -0.002632440533488989, -0.0024849516339600086, -0.002337462268769741, -0.002189973369240761, -0.002042484236881137, -0.001894995104521513, -0.001747505972161889, -0.0016000168398022652, -0.0014525277074426413, -0.0013050386914983392, -0.0011575495591387153, -0.0010100603103637695, -0.0008625711780041456, -0.0007150820456445217, -0.0005675929714925587, -0.0004201038391329348, -0.0002726147067733109, -0.0001251256326213479, 2.2363499738276005e-05, 0.00016985263209789991, 0.0003173417644575238, 0.0004648308677133173, 0.0006123199709691107, 0.0007598091033287346, 0.0009072982356883585, 0.0010547873098403215, 0.0012022764421999454, 0.0013497655745595694, 0.0014972547069191933, 0.0016447438392788172, 0.001792232971638441, 0.001939722103998065, 0.002087211236357689, 0.002234700135886669, 0.0023821895010769367, 0.002529678400605917, 0.002677167532965541, 0.002824656665325165, 0.0029721457976847887, 0.0031196349300444126, 0.0032671240624040365, 0.0034146131947636604, 0.0035621020942926407, 0.0037095914594829082]}, "gradients/base.mlp.fc2.0.2.weight": {"_type": "histogram", "values": [1.0, 0.0, 0.0, 0.0, 0.0, 0.0, 0.0, 0.0, 0.0, 0.0, 0.0, 0.0, 0.0, 0.0, 0.0, 1.0, 1.0, 0.0, 0.0, 0.0, 0.0, 0.0, 1.0, 0.0, 1.0, 0.0, 1.0, 2.0, 1.0, 0.0, 1.0, 2.0, 0.0, 0.0, 0.0, 1.0, 0.0, 1.0, 0.0, 0.0, 1.0, 0.0, 2.0, 1.0, 0.0, 0.0, 1.0, 4.0, 3.0, 1.0, 5.0, 8.0, 7.0, 1.0, 5.0, 3.0, 1.0, 0.0, 4.0, 0.0, 1.0, 1.0, 0.0, 1.0], "bins": [-0.00038131861947476864, -0.00037287804298102856, -0.00036443749559111893, -0.00035599691909737885, -0.0003475563717074692, -0.00033911579521372914, -0.00033067521871998906, -0.00032223467133007944, -0.00031379409483633935, -0.00030535351834259927, -0.00029691297095268965, -0.00028847239445894957, -0.0002800318179652095, -0.00027159127057529986, -0.0002631506940815598, -0.00025471014669165015, -0.00024626957019791007, -0.00023782900825608522, -0.00022938844631426036, -0.00022094786982052028, -0.00021250730787869543, -0.00020406674593687057, -0.0001956261694431305, -0.00018718560750130564, -0.00017874504555948079, -0.00017030448361765593, -0.00016186392167583108, -0.000153423345182091, -0.00014498278324026614, -0.0001365422212984413, -0.0001281016448047012, -0.00011966108286287636, -0.00011122049181722105, -0.00010277992987539619, -9.433936065761372e-05, -8.589879143983126e-05, -7.74582294980064e-05, -6.901766755618155e-05, -6.057709833839908e-05, -5.213653275859542e-05, -4.369596717879176e-05, -3.52554015989881e-05, -2.681483601918444e-05, -1.837427043938078e-05, -9.93370485957712e-06, -1.4931392797734588e-06, 6.947426300030202e-06, 1.5387991879833862e-05, 2.3828557459637523e-05, 3.226912303944118e-05, 4.0709688619244844e-05, 4.9150254199048504e-05, 5.7590819778852165e-05, 6.603138172067702e-05, 7.447195093845949e-05, 8.291252015624195e-05, 9.135308209806681e-05, 9.979364403989166e-05, 0.00010823421325767413, 0.0001166747824754566, 0.00012511534441728145, 0.0001335559063591063, 0.00014199648285284638, 0.00015043704479467124, 0.0001588776067364961]}, "gradients/base.mlp.fc2.0.2.bias": {"_type": "histogram", "values": [1.0, 0.0, 0.0, 0.0, 1.0, 1.0, 1.0, 1.0, 0.0, 0.0, 0.0, 2.0, 1.0, 0.0, 0.0, 3.0, 2.0, 7.0, 3.0, 4.0, 2.0, 3.0, 0.0, 1.0, 1.0, 0.0, 1.0, 3.0, 1.0, 0.0, 2.0, 0.0, 2.0, 0.0, 2.0, 2.0, 2.0, 0.0, 1.0, 0.0, 0.0, 0.0, 0.0, 2.0, 2.0, 1.0, 1.0, 1.0, 1.0, 0.0, 1.0, 0.0, 0.0, 1.0, 2.0, 0.0, 0.0, 0.0, 0.0, 0.0, 0.0, 1.0, 0.0, 1.0], "bins": [-0.00029612137586809695, -0.0002853639598470181, -0.00027460651472210884, -0.00026384909870103, -0.0002530916826799512, -0.0002423342375550419, -0.00023157682153396308, -0.00022081939096096903, -0.00021006196038797498, -0.00019930452981498092, -0.00018854709924198687, -0.00017778968322090805, -0.000167032252647914, -0.00015627482207491994, -0.00014551740605384111, -0.00013475997548084706, -0.000124002544907853, -0.00011324511433485895, -0.00010248769103782251, -9.173026774078608e-05, -8.097283716779202e-05, -7.021540659479797e-05, -5.945798329776153e-05, -4.870056000072509e-05, -3.794312942773104e-05, -2.718570249271579e-05, -1.6428275557700545e-05, -5.670848622685298e-06, 5.086578312329948e-06, 1.5844005247345194e-05, 2.660143218236044e-05, 3.735885547939688e-05, 4.811628605239093e-05, 5.887371298740618e-05, 6.963113992242143e-05, 8.038856321945786e-05, 9.114599379245192e-05, 0.00010190342436544597, 0.00011266084766248241, 0.00012341827095951885, 0.0001341757015325129, 0.00014493313210550696, 0.000155690562678501, 0.00016644797869957983, 0.0001772054092725739, 0.00018796283984556794, 0.00019872025586664677, 0.00020947768643964082, 0.00022023511701263487, 0.00023099254758562893, 0.00024174997815862298, 0.0002525073941797018, 0.00026326481020078063, 0.0002740222553256899, 0.00028477967134676874, 0.000295537116471678, 0.00030629453249275684, 0.00031705194851383567, 0.00032780939363874495, 0.0003385668096598238, 0.00034932425478473306, 0.0003600816708058119, 0.0003708390868268907, 0.00038159650284796953, 0.0003923539479728788]}, "gradients/base.mlp.fc2.0.0.bias": {"_type": "histogram", "values": [1.0, 1.0, 0.0, 1.0, 0.0, 0.0, 0.0, 0.0, 0.0, 0.0, 0.0, 1.0, 0.0, 0.0, 0.0, 1.0, 1.0, 0.0, 0.0, 0.0, 0.0, 1.0, 0.0, 0.0, 1.0, 2.0, 2.0, 0.0, 3.0, 2.0, 8.0, 6.0, 6.0, 3.0, 3.0, 3.0, 2.0, 1.0, 2.0, 2.0, 0.0, 2.0, 1.0, 0.0, 1.0, 1.0, 0.0, 0.0, 0.0, 1.0, 0.0, 0.0, 1.0, 0.0, 0.0, 0.0, 0.0, 1.0, 0.0, 1.0, 1.0, 0.0, 0.0, 1.0], "bins": [-0.00035002556978724897, -0.00033879312104545534, -0.0003275606723036617, -0.00031632822356186807, -0.00030509577482007444, -0.0002938633260782808, -0.0002826308773364872, -0.00027139842859469354, -0.0002601659798528999, -0.0002489335311111063, -0.00023770108236931264, -0.000226468633627519, -0.00021523618488572538, -0.00020400373614393175, -0.00019277128740213811, -0.00018153883866034448, -0.00017030638991855085, -0.00015907394117675722, -0.00014784149243496358, -0.00013660904369316995, -0.00012537659495137632, -0.00011414414620958269, -0.00010291169746778905, -9.167924872599542e-05, -8.044679998420179e-05, -6.921435124240816e-05, -5.7981902500614524e-05, -4.674945375882089e-05, -3.551700501702726e-05, -2.4284556275233626e-05, -1.3052107533439994e-05, -1.8196587916463614e-06, 9.412819053977728e-06, 2.064526779577136e-05, 3.187771653756499e-05, 4.3110165279358625e-05, 5.434261402115226e-05, 6.557506276294589e-05, 7.680751150473952e-05, 8.803996024653316e-05, 9.927240898832679e-05, 0.00011050485773012042, 0.00012173730647191405, 0.00013296975521370769, 0.00014420220395550132, 0.00015543465269729495, 0.00016666710143908858, 0.00017789955018088222, 0.00018913199892267585, 0.00020036444766446948, 0.0002115968964062631, 0.00022282934514805675, 0.00023406179388985038, 0.000245294242631644, 0.00025652669137343764, 0.0002677591401152313, 0.0002789915888570249, 0.00029022403759881854, 0.0003014564863406122, 0.0003126889350824058, 0.00032392138382419944, 0.00033515383256599307, 0.0003463862813077867, 0.00035761873004958034, 0.00036885117879137397]}, "gradients/base.mlp.fc2.0.0.weight": {"_type": "histogram", "values": [1.0, 0.0, 0.0, 1.0, 0.0, 0.0, 1.0, 2.0, 0.0, 2.0, 1.0, 7.0, 0.0, 5.0, 3.0, 2.0, 3.0, 9.0, 6.0, 13.0, 22.0, 34.0, 54.0, 32.0, 53.0, 50.0, 63.0, 126.0, 154.0, 202.0, 418.0, 1129.0, 676.0, 278.0, 154.0, 113.0, 86.0, 87.0, 69.0, 44.0, 33.0, 42.0, 41.0, 18.0, 11.0, 8.0, 8.0, 3.0, 5.0, 2.0, 6.0, 7.0, 0.0, 1.0, 3.0, 1.0, 3.0, 1.0, 1.0, 1.0, 0.0, 0.0, 0.0, 1.0], "bins": [-0.0008391010342165828, -0.0008127617184072733, -0.0007864224025979638, -0.0007600830867886543, -0.0007337437709793448, -0.0007074044551700354, -0.0006810651393607259, -0.0006547258235514164, -0.0006283865077421069, -0.0006020471919327974, -0.000575707876123488, -0.0005493685603141785, -0.000523029244504869, -0.0004966899286955595, -0.00047035061288625, -0.00044401129707694054, -0.0004176720103714615, -0.00039133269456215203, -0.00036499337875284255, -0.00033865406294353306, -0.0003123147471342236, -0.00028597546042874455, -0.00025963614461943507, -0.00023329681425821036, -0.00020695749844890088, -0.0001806181826395914, -0.0001542788668302819, -0.00012793956557288766, -0.00010160024248762056, -7.52609339542687e-05, -4.892161814495921e-05, -2.258230233564973e-05, 3.757013473659754e-06, 3.0096327463979833e-05, 5.643564145429991e-05, 8.277495362563059e-05, 0.00010911426943494007, 0.00013545357796829194, 0.00016179289377760142, 0.0001881322095869109, 0.00021447152539622039, 0.00024081084120552987, 0.0002671501424629241, 0.0002934894582722336, 0.0003198287740815431, 0.00034616808989085257, 0.00037250740570016205, 0.00039884672150947154, 0.000425186037318781, 0.0004515253531280905, 0.0004778646689374, 0.000504203955642879, 0.0005305432714521885, 0.000556882587261498, 0.0005832219030708075, 0.0006095612188801169, 0.0006359005346894264, 0.0006622398504987359, 0.0006885791663080454, 0.0007149184821173549, 0.0007412577979266644, 0.0007675971137359738, 0.0007939364295452833, 0.0008202757453545928, 0.0008466150611639023]}, "gradients/base.mlp.fc1.2.weight": {"_type": "histogram", "values": [1.0, 0.0, 0.0, 0.0, 0.0, 0.0, 0.0, 0.0, 0.0, 0.0, 0.0, 0.0, 0.0, 0.0, 0.0, 0.0, 0.0, 0.0, 0.0, 0.0, 1.0, 0.0, 0.0, 1.0, 0.0, 0.0, 0.0, 0.0, 0.0, 0.0, 1.0, 2.0, 2.0, 0.0, 2.0, 0.0, 6.0, 2.0, 0.0, 2.0, 2.0, 3.0, 3.0, 2.0, 4.0, 3.0, 2.0, 3.0, 5.0, 1.0, 3.0, 4.0, 1.0, 1.0, 0.0, 0.0, 0.0, 2.0, 0.0, 2.0, 1.0, 1.0, 0.0, 1.0], "bins": [-0.0007723314920440316, -0.0007546241395175457, -0.0007369167287833989, -0.000719209376256913, -0.0007015019655227661, -0.0006837946129962802, -0.0006660872604697943, -0.0006483798497356474, -0.0006306724972091615, -0.0006129651446826756, -0.0005952577339485288, -0.0005775503814220428, -0.000559842970687896, -0.0005421356181614101, -0.0005244282074272633, -0.0005067208549007773, -0.0004890135023742914, -0.00047130612074397504, -0.00045359873911365867, -0.00043589138658717275, -0.00041818400495685637, -0.00040047662332654, -0.0003827692416962236, -0.00036506186006590724, -0.0003473544493317604, -0.00032964706770144403, -0.00031193968607112765, -0.00029423233354464173, -0.00027652495191432536, -0.000258817570284009, -0.0002411101886536926, -0.00022340282157529145, -0.00020569548360072076, -0.0001879881019704044, -0.00017028073489200324, -0.00015257335326168686, -0.0001348659861832857, -0.00011715860455296934, -9.945122292265296e-05, -8.174385584425181e-05, -6.403647421393543e-05, -4.632909985957667e-05, -2.8621721867239103e-05, -1.0914343874901533e-05, 6.793030479457229e-06, 2.4500404833815992e-05, 4.220778646413237e-05, 5.991515354253352e-05, 7.76225351728499e-05, 9.532990952720866e-05, 0.00011303728388156742, 0.0001307446655118838, 0.00014845203259028494, 0.00016615941422060132, 0.0001838667958509177, 0.00020157416292931885, 0.00021928154455963522, 0.0002369889261899516, 0.00025469629326835275, 0.0002724036748986691, 0.0002901110565289855, 0.0003078184090554714, 0.00032552581978961825, 0.0003432331723161042, 0.00036094055394642055]}, "gradients/base.mlp.fc1.2.bias": {"_type": "histogram", "values": [1.0, 1.0, 0.0, 0.0, 0.0, 0.0, 0.0, 0.0, 0.0, 1.0, 2.0, 0.0, 0.0, 1.0, 0.0, 1.0, 0.0, 0.0, 2.0, 0.0, 0.0, 1.0, 3.0, 4.0, 5.0, 4.0, 2.0, 2.0, 1.0, 2.0, 0.0, 2.0, 0.0, 2.0, 3.0, 2.0, 3.0, 2.0, 1.0, 2.0, 2.0, 1.0, 0.0, 2.0, 1.0, 0.0, 0.0, 1.0, 1.0, 0.0, 2.0, 0.0, 0.0, 1.0, 1.0, 0.0, 0.0, 0.0, 0.0, 0.0, 0.0, 0.0, 1.0, 1.0], "bins": [-0.0005886670551262796, -0.0005702136550098658, -0.000551760196685791, -0.0005333067965693772, -0.0005148533382453024, -0.0004963999381288886, -0.0004779465089086443, -0.00045949307968840003, -0.0004410396795719862, -0.0004225862503517419, -0.0004041328211314976, -0.0003856794210150838, -0.0003672259917948395, -0.0003487725625745952, -0.0003303191333543509, -0.00031186570413410664, -0.00029341227491386235, -0.00027495884569361806, -0.00025650541647337377, -0.0002380520018050447, -0.00021959858713671565, -0.00020114515791647136, -0.00018269172869622707, -0.00016423831402789801, -0.00014578488480765373, -0.00012733145558740944, -0.00010887804091908038, -9.042461169883609e-05, -7.197118975454941e-05, -5.351776781026274e-05, -3.506433859001845e-05, -1.661092392168939e-05, 1.8425052985548973e-06, 2.0295929061830975e-05, 3.874935282510705e-05, 5.7202778407372534e-05, 7.565620035165921e-05, 9.410962229594588e-05, 0.00011256305151619017, 0.00013101646618451923, 0.00014946989540476352, 0.0001679233246250078, 0.00018637673929333687, 0.00020483016851358116, 0.00022328359773382545, 0.0002417370124021545, 0.000260190456174314, 0.00027864385629072785, 0.00029709728551097214, 0.00031555071473121643, 0.0003340041439514607, 0.000352457573171705, 0.00037091097328811884, 0.00038936440250836313, 0.0004078178317286074, 0.00042627123184502125, 0.000444724690169096, 0.0004631781193893403, 0.00048163154860958457, 0.0005000849487259984, 0.0005185384070500731, 0.000536991807166487, 0.0005554452072829008, 0.0005738986656069756, 0.0005923520657233894]}, "gradients/base.mlp.fc1.0.bias": {"_type": "histogram", "values": [1.0, 0.0, 1.0, 0.0, 0.0, 0.0, 0.0, 0.0, 0.0, 0.0, 1.0, 0.0, 1.0, 1.0, 0.0, 0.0, 0.0, 1.0, 1.0, 0.0, 0.0, 1.0, 1.0, 3.0, 2.0, 1.0, 4.0, 2.0, 4.0, 14.0, 3.0, 3.0, 2.0, 1.0, 2.0, 2.0, 2.0, 2.0, 0.0, 0.0, 1.0, 2.0, 0.0, 1.0, 0.0, 0.0, 0.0, 0.0, 0.0, 1.0, 0.0, 1.0, 0.0, 0.0, 0.0, 0.0, 0.0, 0.0, 1.0, 0.0, 0.0, 0.0, 0.0, 1.0], "bins": [-0.0006329560419544578, -0.0006116240401752293, -0.0005902920966036618, -0.0005689600948244333, -0.0005476281512528658, -0.0005262961494736373, -0.0005049641476944089, -0.0004836321750190109, -0.0004623002023436129, -0.0004409682296682149, -0.0004196362569928169, -0.0003983042552135885, -0.0003769722825381905, -0.0003556403098627925, -0.00033430830808356404, -0.00031297633540816605, -0.00029164436273276806, -0.00027031239005737007, -0.0002489804173819721, -0.00022764841560274363, -0.00020631644292734563, -0.00018498447025194764, -0.00016365248302463442, -0.0001423204957973212, -0.00012098852312192321, -9.96565431705676e-05, -7.8324563219212e-05, -5.699258326785639e-05, -3.566060331650078e-05, -1.4328623365145177e-05, 7.00335658621043e-06, 2.833534381352365e-05, 4.966731648892164e-05, 7.099929644027725e-05, 9.233127639163285e-05, 0.00011366325634298846, 0.00013499523629434407, 0.00015632720896974206, 0.00017765919619705528, 0.0001989911834243685, 0.0002203231560997665, 0.00024165512877516448, 0.0002629871014505625, 0.0002843191032297909, 0.0003056510759051889, 0.0003269830485805869, 0.00034831505035981536, 0.00036964702303521335, 0.00039097899571061134, 0.00041231096838600934, 0.00043364294106140733, 0.0004549749428406358, 0.00047630691551603377, 0.0004976388881914318, 0.0005189708899706602, 0.0005403028335422277, 0.0005616348353214562, 0.0005829668371006846, 0.0006042987806722522, 0.0006256307824514806, 0.0006469627842307091, 0.0006682947278022766, 0.0006896267295815051, 0.0007109587313607335, 0.000732290674932301]}, "gradients/base.mlp.fc1.0.weight": {"_type": "histogram", "values": [1.0, 0.0, 0.0, 0.0, 0.0, 0.0, 0.0, 0.0, 0.0, 0.0, 1.0, 0.0, 0.0, 0.0, 1.0, 2.0, 2.0, 6.0, 2.0, 3.0, 4.0, 3.0, 7.0, 6.0, 8.0, 9.0, 14.0, 13.0, 20.0, 22.0, 26.0, 59.0, 208.0, 335.0, 1246.0, 3889.0, 614.0, 247.0, 82.0, 49.0, 42.0, 21.0, 17.0, 7.0, 9.0, 11.0, 12.0, 7.0, 4.0, 1.0, 11.0, 4.0, 3.0, 5.0, 1.0, 0.0, 1.0, 0.0, 1.0, 1.0, 0.0, 0.0, 1.0, 2.0], "bins": [-0.002926906570792198, -0.002843967406079173, -0.0027610284741967916, -0.0026780893094837666, -0.002595150377601385, -0.00251221121288836, -0.002429272048175335, -0.0023463331162929535, -0.0022633939515799284, -0.0021804547868669033, -0.002097515854984522, -0.0020145766902714968, -0.0019316376419737935, -0.0018486985936760902, -0.0017657594289630651, -0.0016828203806653619, -0.0015998813323676586, -0.0015169422840699553, -0.001434003235772252, -0.001351064071059227, -0.0012681250227615237, -0.0011851859744638205, -0.0011022468097507954, -0.001019307761453092, -0.0009363687131553888, -0.0008534296648576856, -0.0007704905583523214, -0.0006875514518469572, -0.0006046124035492539, -0.0005216733552515507, -0.0004387342487461865, -0.0003557951422408223, -0.00027285609394311905, -0.00018991701654158533, -0.0001069779391400516, -2.403886173851788e-05, 5.890021566301584e-05, 0.00014183929306454957, 0.0002247783704660833, 0.00030771747697144747, 0.00039065652526915073, 0.00047359560267068446, 0.0005565346800722182, 0.0006394737865775824, 0.0007224128348752856, 0.0008053518831729889, 0.0008882909896783531, 0.0009712300961837173, 0.0010541691444814205, 0.0011371081927791238, 0.001220047241076827, 0.0013029864057898521, 0.0013859254540875554, 0.0014688645023852587, 0.0015518036670982838, 0.001634742715395987, 0.0017176817636936903, 0.0018006208119913936, 0.0018835598602890968, 0.001966499025002122, 0.002049438189715147, 0.0021323771215975285, 0.0022153162863105536, 0.0022982554510235786, 0.00238119438290596]}, "gradients/base.feature_norm.weight": {"_type": "histogram", "values": [1.0, 0.0, 0.0, 0.0, 0.0, 0.0, 0.0, 1.0, 0.0, 0.0, 0.0, 0.0, 0.0, 0.0, 0.0, 0.0, 0.0, 0.0, 0.0, 2.0, 1.0, 1.0, 2.0, 0.0, 2.0, 1.0, 4.0, 7.0, 17.0, 19.0, 27.0, 11.0, 4.0, 0.0, 0.0, 2.0, 3.0, 1.0, 1.0, 0.0, 0.0, 0.0, 0.0, 0.0, 0.0, 0.0, 0.0, 0.0, 2.0, 0.0, 0.0, 0.0, 0.0, 0.0, 0.0, 0.0, 0.0, 0.0, 0.0, 0.0, 0.0, 0.0, 0.0, 1.0], "bins": [-0.0016257641837000847, -0.0015710446750745177, -0.0015163251664489508, -0.0014616056578233838, -0.0014068861491978168, -0.0013521667569875717, -0.001297447131946683, -0.0012427277397364378, -0.0011880082311108708, -0.0011332887224853039, -0.001078569213859737, -0.00102384970523417, -0.0009691302548162639, -0.000914410746190697, -0.00085969123756513, -0.000804971787147224, -0.0007502522203139961, -0.0006955327116884291, -0.0006408132030628622, -0.0005860937526449561, -0.0005313742440193892, -0.0004766547353938222, -0.00042193522676825523, -0.00036721574724651873, -0.00031249623862095177, -0.0002577767299953848, -0.0002030572504736483, -0.00014833774184808135, -9.361824777442962e-05, -3.889875370077789e-05, 1.582075492478907e-05, 7.054023444652557e-05, 0.00012525974307209253, 0.00017997923714574426, 0.000234698731219396, 0.00028941823984496295, 0.00034413771936669946, 0.0003988572279922664, 0.0004535767366178334, 0.0005082961870357394, 0.0005630156956613064, 0.0006177352042868733, 0.0006724547129124403, 0.0007271742215380073, 0.0007818936719559133, 0.0008366131805814803, 0.0008913326892070472, 0.0009460521396249533, 0.001000771764665842, 0.001055491273291409, 0.001110210781916976, 0.001164930290542543, 0.00121964979916811, 0.001274369191378355, 0.0013290888164192438, 0.001383808208629489, 0.001438527717255056, 0.0014932472258806229, 0.0015479667345061898, 0.0016026862431317568, 0.0016574057517573237, 0.0017121252603828907, 0.0017668446525931358, 0.0018215641612187028, 0.0018762836698442698]}, "gradients/base.feature_norm.bias": {"_type": "histogram", "values": [1.0, 0.0, 0.0, 0.0, 2.0, 1.0, 1.0, 3.0, 1.0, 2.0, 1.0, 1.0, 4.0, 0.0, 5.0, 5.0, 1.0, 7.0, 4.0, 4.0, 2.0, 8.0, 5.0, 3.0, 4.0, 0.0, 1.0, 2.0, 5.0, 5.0, 2.0, 2.0, 3.0, 1.0, 4.0, 3.0, 1.0, 2.0, 1.0, 1.0, 0.0, 0.0, 0.0, 0.0, 4.0, 1.0, 0.0, 2.0, 0.0, 0.0, 0.0, 0.0, 0.0, 0.0, 2.0, 0.0, 0.0, 1.0, 0.0, 0.0, 0.0, 0.0, 1.0, 1.0], "bins": [-0.0005329231498762965, -0.0005096237291581929, -0.00048632436664775014, -0.0004630249459296465, -0.00043972558341920376, -0.0004164261627011001, -0.0003931267710868269, -0.00036982737947255373, -0.00034652798785828054, -0.00032322859624400735, -0.00029992920462973416, -0.00027662981301546097, -0.0002533303922973573, -0.00023003101523499936, -0.00020673160906881094, -0.00018343221745453775, -0.00016013282584026456, -0.00013683343422599137, -0.00011353403533576056, -9.023463644552976e-05, -6.693524483125657e-05, -4.363585321698338e-05, -2.033644705079496e-05, 2.9629445634782314e-06, 2.6262336177751422e-05, 4.956173143000342e-05, 7.286112668225542e-05, 9.616052557248622e-05, 0.00011945991718675941, 0.0001427593088010326, 0.00016605871496722102, 0.0001893581065814942, 0.00021265755640342832, 0.0002359569480177015, 0.0002592563396319747, 0.00028255576035007834, 0.0003058551228605211, 0.0003291545435786247, 0.0003524539351928979, 0.0003757533268071711, 0.0003990527184214443, 0.0004223521100357175, 0.0004456515016499907, 0.00046895089326426387, 0.0004922503139823675, 0.0005155496764928102, 0.0005388490972109139, 0.0005621485179290175, 0.0005854478804394603, 0.0006087473011575639, 0.0006320466636680067, 0.0006553460843861103, 0.000678645446896553, 0.0007019448676146567, 0.0007252442883327603, 0.0007485436508432031, 0.0007718430133536458, 0.0007951424340717494, 0.0008184417965821922, 0.0008417412173002958, 0.0008650405798107386, 0.0008883400005288422, 0.0009116394212469459, 0.0009349387837573886, 0.0009582382044754922]}, "gradients/graph_1v_out.bias": {"_type": "histogram", "values": [0.0, 0.0, 0.0, 0.0, 0.0, 0.0, 0.0, 0.0, 0.0, 0.0, 0.0, 0.0, 0.0, 0.0, 0.0, 0.0, 0.0, 0.0, 0.0, 0.0, 0.0, 0.0, 0.0, 0.0, 0.0, 0.0, 0.0, 0.0, 0.0, 0.0, 0.0, 0.0, 1.0, 0.0, 0.0, 0.0, 0.0, 0.0, 0.0, 0.0, 0.0, 0.0, 0.0, 0.0, 0.0, 0.0, 0.0, 0.0, 0.0, 0.0, 0.0, 0.0, 0.0, 0.0, 0.0, 0.0, 0.0, 0.0, 0.0, 0.0, 0.0, 0.0, 0.0, 0.0], "bins": [-0.015950456261634827, -0.015950456261634827, -0.015950456261634827, -0.015950456261634827, -0.015950456261634827, -0.015950456261634827, -0.015950456261634827, -0.015950456261634827, -0.015950456261634827, -0.015950456261634827, -0.015950456261634827, -0.015950456261634827, -0.015950456261634827, -0.015950456261634827, -0.015950456261634827, -0.015950456261634827, -0.015950456261634827, -0.015950456261634827, -0.015950456261634827, -0.015950456261634827, -0.015950456261634827, -0.015950456261634827, -0.015950456261634827, -0.015950456261634827, -0.015950456261634827, -0.015950456261634827, -0.015950456261634827, -0.015950456261634827, -0.015950456261634827, -0.015950456261634827, -0.015950456261634827, -0.015950456261634827, -0.015950456261634827, -0.015950456261634827, -0.015950456261634827, -0.015950456261634827, -0.015950456261634827, -0.015950456261634827, -0.015950456261634827, -0.015950456261634827, -0.015950456261634827, -0.015950456261634827, -0.015950456261634827, -0.015950456261634827, -0.015950456261634827, -0.015950456261634827, -0.015950456261634827, -0.015950456261634827, -0.015950456261634827, -0.015950456261634827, -0.015950456261634827, -0.015950456261634827, -0.015950456261634827, -0.015950456261634827, -0.015950456261634827, -0.015950456261634827, -0.015950456261634827, -0.015950456261634827, -0.015950456261634827, -0.015950456261634827, -0.015950456261634827, -0.015950456261634827, -0.015950456261634827, -0.015950456261634827, -0.015950456261634827]}, "gradients/graph_1v_out.weight": {"_type": "histogram", "values": [1.0, 0.0, 0.0, 0.0, 0.0, 0.0, 0.0, 0.0, 1.0, 0.0, 1.0, 0.0, 0.0, 1.0, 1.0, 0.0, 0.0, 1.0, 2.0, 0.0, 1.0, 0.0, 1.0, 1.0, 0.0, 0.0, 0.0, 0.0, 0.0, 1.0, 0.0, 0.0, 0.0, 1.0, 1.0, 0.0, 0.0, 0.0, 0.0, 0.0, 0.0, 0.0, 1.0, 1.0, 0.0, 0.0, 0.0, 1.0, 0.0, 2.0, 0.0, 1.0, 1.0, 0.0, 1.0, 0.0, 1.0, 2.0, 2.0, 2.0, 29.0, 3.0, 0.0, 3.0], "bins": [-0.04546141251921654, -0.04455164819955826, -0.04364188387989998, -0.0427321158349514, -0.04182235151529312, -0.04091258719563484, -0.04000282287597656, -0.03909305855631828, -0.038183290511369705, -0.037273526191711426, -0.036363761872053146, -0.03545399382710457, -0.03454422950744629, -0.03363446518778801, -0.03272470086812973, -0.03181493654847145, -0.03090517222881317, -0.029995407909154892, -0.029085641726851463, -0.028175877407193184, -0.027266111224889755, -0.026356346905231476, -0.025446582585573196, -0.024536816403269768, -0.02362705022096634, -0.02271728590130806, -0.02180751971900463, -0.02089775539934635, -0.019987989217042923, -0.019078224897384644, -0.018168460577726364, -0.017258694395422935, -0.016348930075764656, -0.015439164824783802, -0.014529399573802948, -0.013619635254144669, -0.012709870003163815, -0.01180010475218296, -0.010890339501202106, -0.009980574250221252, -0.009070809930562973, -0.008161044679582119, -0.007251279894262552, -0.006341514643281698, -0.0054317498579621315, -0.0045219846069812775, -0.0036122193560004234, -0.0027024545706808567, -0.0017926888540387154, -0.0008829237776808441, 2.6841298677027225e-05, 0.0009366064332425594, 0.0018463714513927698, 0.00275613646954298, 0.0036659017205238342, 0.004575666505843401, 0.005485431756824255, 0.006395197007805109, 0.007304961793124676, 0.00821472704410553, 0.009124492295086384, 0.010034257546067238, 0.010944021865725517, 0.011853787116706371, 0.012763552367687225]}, "gradients/graph_1base.mlp.fc2.0.2.weight": {"_type": "histogram", "values": [1.0, 2.0, 0.0, 0.0, 0.0, 0.0, 0.0, 0.0, 0.0, 1.0, 0.0, 0.0, 0.0, 0.0, 1.0, 0.0, 1.0, 0.0, 0.0, 1.0, 2.0, 2.0, 0.0, 3.0, 3.0, 2.0, 2.0, 3.0, 7.0, 2.0, 2.0, 6.0, 3.0, 1.0, 2.0, 1.0, 4.0, 1.0, 0.0, 1.0, 1.0, 0.0, 0.0, 2.0, 0.0, 2.0, 0.0, 1.0, 1.0, 0.0, 0.0, 0.0, 1.0, 0.0, 0.0, 1.0, 0.0, 0.0, 0.0, 0.0, 0.0, 0.0, 0.0, 1.0], "bins": [-0.004438945557922125, -0.004297943320125341, -0.004156941082328558, -0.0040159388445317745, -0.003874936606734991, -0.0037339343689382076, -0.003592932131141424, -0.0034519298933446407, -0.0033109276555478573, -0.003169925417751074, -0.0030289231799542904, -0.002887920942157507, -0.0027469187043607235, -0.00260591646656394, -0.0024649142287671566, -0.002323911990970373, -0.0021829099860042334, -0.00204190774820745, -0.0019009055104106665, -0.001759903272613883, -0.0016189010348170996, -0.0014778987970203161, -0.0013368966756388545, -0.001195894437842071, -0.0010548922000452876, -0.0009138899622485042, -0.0007728877244517207, -0.0006318855448625982, -0.0004908833070658147, -0.0003498810692690313, -0.00020887888967990875, -6.78766518831253e-05, 7.312558591365814e-05, 0.00021412780915852636, 0.0003551300324033946, 0.0004961322410963476, 0.000637134478893131, 0.0007781367166899145, 0.000919138896279037, 0.0010601411340758204, 0.001201143371872604, 0.0013421456096693873, 0.0014831478474661708, 0.0016241499688476324, 0.0017651522066444159, 0.0019061544444411993, 0.0020471566822379827, 0.002188158920034766, 0.0023291611578315496, 0.002470163395628333, 0.0026111656334251165, 0.0027521678712219, 0.0028931701090186834, 0.003034172346815467, 0.0031751743517816067, 0.00331617658957839, 0.0034571788273751736, 0.003598181065171957, 0.0037391833029687405, 0.003880185540765524, 0.004021187778562307, 0.004162190016359091, 0.004303192254155874, 0.004444194491952658, 0.004585196729749441]}, "gradients/graph_1base.mlp.fc2.0.2.bias": {"_type": "histogram", "values": [1.0, 0.0, 0.0, 0.0, 0.0, 0.0, 0.0, 0.0, 1.0, 0.0, 0.0, 1.0, 0.0, 4.0, 1.0, 3.0, 1.0, 1.0, 1.0, 1.0, 0.0, 2.0, 0.0, 1.0, 5.0, 1.0, 0.0, 2.0, 1.0, 3.0, 4.0, 2.0, 2.0, 2.0, 1.0, 2.0, 3.0, 1.0, 3.0, 0.0, 0.0, 1.0, 2.0, 1.0, 1.0, 1.0, 1.0, 1.0, 2.0, 2.0, 0.0, 0.0, 0.0, 0.0, 0.0, 0.0, 1.0, 0.0, 0.0, 0.0, 0.0, 0.0, 0.0, 1.0], "bins": [-0.0049365730956196785, -0.004781455732882023, -0.004626338370144367, -0.004471221007406712, -0.004316103644669056, -0.004160986747592688, -0.004005869384855032, -0.0038507520221173763, -0.0036956346593797207, -0.003540517296642065, -0.0033853999339044094, -0.0032302828039973974, -0.0030751654412597418, -0.002920048078522086, -0.002764930948615074, -0.0026098135858774185, -0.002454696223139763, -0.0022995788604021072, -0.0021444614976644516, -0.0019893443677574396, -0.001834227005019784, -0.0016791096422821283, -0.0015239923959597945, -0.0013688751496374607, -0.001213757786899805, -0.0010586404241621494, -0.0009035231778398156, -0.0007484058733098209, -0.0005932885687798262, -0.00043817126424983144, -0.0002830539597198367, -0.0001279367133975029, 2.7181115001440048e-05, 0.00018229841953143477, 0.0003374157240614295, 0.0004925330285914242, 0.000647650333121419, 0.0008027676376514137, 0.0009578849421814084, 0.0011130021885037422, 0.0012681195512413979, 0.0014232369139790535, 0.0015783541603013873, 0.0017334714066237211, 0.0018885887693613768, 0.0020437061320990324, 0.0021988232620060444, 0.0023539406247437, 0.0025090579874813557, 0.0026641753502190113, 0.002819292712956667, 0.002974409842863679, 0.0031295272056013346, 0.00328464456833899, 0.003439761698246002, 0.003594879060983658, 0.0037499964237213135, 0.003905113786458969, 0.004060231149196625, 0.00421534851193428, 0.004370465874671936, 0.004525582771748304, 0.00468070013448596, 0.004835817497223616, 0.004990934859961271]}, "gradients/graph_1base.mlp.fc2.0.0.bias": {"_type": "histogram", "values": [2.0, 0.0, 2.0, 1.0, 1.0, 0.0, 0.0, 0.0, 0.0, 0.0, 1.0, 1.0, 0.0, 0.0, 1.0, 1.0, 0.0, 0.0, 0.0, 0.0, 0.0, 0.0, 0.0, 1.0, 0.0, 2.0, 11.0, 17.0, 5.0, 2.0, 4.0, 0.0, 3.0, 1.0, 0.0, 1.0, 0.0, 1.0, 1.0, 0.0, 0.0, 0.0, 0.0, 0.0, 0.0, 0.0, 0.0, 0.0, 0.0, 0.0, 0.0, 0.0, 2.0, 0.0, 0.0, 0.0, 0.0, 0.0, 1.0, 1.0, 0.0, 0.0, 0.0, 1.0], "bins": [-0.001964868512004614, -0.0018924246542155743, -0.0018199807964265347, -0.0017475368222221732, -0.0016750929644331336, -0.001602649106644094, -0.0015302051324397326, -0.001457761274650693, -0.0013853174168616533, -0.0013128735590726137, -0.001240429701283574, -0.0011679857270792127, -0.001095541869290173, -0.0010230980115011334, -0.0009506540955044329, -0.0008782101795077324, -0.0008057663217186928, -0.0007333224639296532, -0.0006608785479329526, -0.0005884346319362521, -0.0005159907741472125, -0.00044354688725434244, -0.00037110300036147237, -0.00029865908436477184, -0.00022621522657573223, -0.00015377133968286216, -8.13274527899921e-05, -8.883565897122025e-06, 6.356032099574804e-05, 0.0001360042078886181, 0.00020844809478148818, 0.0002808920107781887, 0.00035333563573658466, 0.00042577952262945473, 0.0004982234095223248, 0.0005706673255190253, 0.0006431111833080649, 0.0007155550410971045, 0.0007879989570938051, 0.0008604428730905056, 0.0009328867308795452, 0.0010053305886685848, 0.0010777744464576244, 0.0011502184206619859, 0.0012226622784510255, 0.001295106136240065, 0.0013675501104444265, 0.0014399939682334661, 0.0015124378260225058, 0.0015848816838115454, 0.001657325541600585, 0.0017297695158049464, 0.001802213373593986, 0.0018746572313830256, 0.001947101205587387, 0.0020195450633764267, 0.0020919889211654663, 0.002164432778954506, 0.0022368766367435455, 0.002309320494532585, 0.0023817643523216248, 0.002454208442941308, 0.0025266523007303476, 0.0025990961585193872, 0.002671540016308427]}, "gradients/graph_1base.mlp.fc2.0.0.weight": {"_type": "histogram", "values": [2.0, 0.0, 2.0, 1.0, 1.0, 0.0, 0.0, 2.0, 1.0, 4.0, 4.0, 4.0, 1.0, 3.0, 3.0, 5.0, 7.0, 5.0, 4.0, 11.0, 16.0, 15.0, 85.0, 104.0, 49.0, 129.0, 777.0, 2185.0, 222.0, 166.0, 187.0, 27.0, 11.0, 9.0, 10.0, 4.0, 6.0, 2.0, 4.0, 4.0, 0.0, 3.0, 2.0, 1.0, 3.0, 3.0, 0.0, 1.0, 1.0, 2.0, 1.0, 0.0, 2.0, 2.0, 0.0, 0.0, 0.0, 0.0, 1.0, 1.0, 0.0, 0.0, 0.0, 1.0], "bins": [-0.008198207244277, -0.007896368391811848, -0.007594529073685408, -0.007292689755558968, -0.006990850903093815, -0.006689012050628662, -0.006387172732502222, -0.006085333414375782, -0.005783494561910629, -0.0054816557094454765, -0.0051798163913190365, -0.0048779770731925964, -0.004576138220727444, -0.004274299368262291, -0.003972460050135851, -0.0036706209648400545, -0.003368781879544258, -0.0030669427942484617, -0.0027651037089526653, -0.002463264623656869, -0.0021614255383610725, -0.0018595864530652761, -0.0015577473677694798, -0.0012559082824736834, -0.000954069197177887, -0.0006522301118820906, -0.0003503910265862942, -4.855194129049778e-05, 0.0002532871440052986, 0.000555126229301095, 0.0008569653145968914, 0.0011588043998926878, 0.0014606434851884842, 0.0017624825704842806, 0.002064321655780077, 0.0023661607410758734, 0.0026679998263716698, 0.002969838911667466, 0.0032716779969632626, 0.003573517082259059, 0.0038753561675548553, 0.004177195020020008, 0.004479034338146448, 0.004780873656272888, 0.005082712508738041, 0.005384551361203194, 0.005686390679329634, 0.005988229997456074, 0.0062900688499212265, 0.006591907702386379, 0.006893747020512819, 0.007195586338639259, 0.007497425191104412, 0.007799264043569565, 0.008101103827357292, 0.008402942679822445, 0.008704781532287598, 0.00900662038475275, 0.009308459237217903, 0.00961029902100563, 0.009912137873470783, 0.010213976725935936, 0.010515816509723663, 0.010817655362188816, 0.011119494214653969]}, "gradients/graph_1base.mlp.fc1.2.weight": {"_type": "histogram", "values": [1.0, 1.0, 0.0, 0.0, 0.0, 0.0, 1.0, 0.0, 0.0, 1.0, 0.0, 1.0, 0.0, 0.0, 0.0, 1.0, 4.0, 0.0, 5.0, 3.0, 9.0, 5.0, 9.0, 4.0, 0.0, 4.0, 4.0, 2.0, 0.0, 2.0, 1.0, 2.0, 0.0, 1.0, 0.0, 2.0, 0.0, 0.0, 0.0, 0.0, 0.0, 0.0, 0.0, 0.0, 0.0, 0.0, 0.0, 0.0, 0.0, 0.0, 0.0, 0.0, 0.0, 0.0, 0.0, 0.0, 0.0, 0.0, 0.0, 0.0, 0.0, 0.0, 0.0, 1.0], "bins": [-0.002468452323228121, -0.002358359284698963, -0.002248266013339162, -0.0021381729748100042, -0.0020280799362808466, -0.0019179867813363671, -0.0018078936263918877, -0.00169780058786273, -0.0015877074329182506, -0.001477614277973771, -0.0013675212394446135, -0.001257428084500134, -0.0011473349295556545, -0.0010372418910264969, -0.0009271487360820174, -0.0008170556393451989, -0.0007069625426083803, -0.0005968694458715618, -0.00048677632003091276, -0.00037668319419026375, -0.0002665900974534452, -0.00015649700071662664, -4.640384577214718e-05, 6.368925096467137e-05, 0.00017378234770148993, 0.0002838754444383085, 0.0003939685702789575, 0.0005040616961196065, 0.000614154792856425, 0.0007242478895932436, 0.0008343410445377231, 0.0009444341412745416, 0.0010545272380113602, 0.0011646203929558396, 0.0012747134314849973, 0.0013848065864294767, 0.0014948996249586344, 0.0016049927799031138, 0.0017150859348475933, 0.001825178973376751, 0.0019352721283212304, 0.00204536528326571, 0.0021554583217948675, 0.002265551593154669, 0.0023756446316838264, 0.002485737670212984, 0.0025958307087421417, 0.002705923980101943, 0.0028160170186311007, 0.0029261100571602583, 0.0030362033285200596, 0.0031462963670492172, 0.003256389405578375, 0.0033664824441075325, 0.003476575715467334, 0.0035866687539964914, 0.0036967620253562927, 0.0038068550638854504, 0.003916948102414608, 0.004027041606605053, 0.004137134645134211, 0.004247227683663368, 0.004357320722192526, 0.0044674137607216835, 0.004577506799250841]}, "gradients/graph_1base.mlp.fc1.2.bias": {"_type": "histogram", "values": [2.0, 0.0, 0.0, 0.0, 1.0, 0.0, 0.0, 2.0, 2.0, 1.0, 1.0, 1.0, 0.0, 0.0, 0.0, 1.0, 2.0, 1.0, 1.0, 1.0, 1.0, 2.0, 2.0, 0.0, 2.0, 4.0, 4.0, 6.0, 3.0, 0.0, 2.0, 2.0, 1.0, 1.0, 2.0, 3.0, 2.0, 3.0, 4.0, 0.0, 1.0, 1.0, 0.0, 0.0, 0.0, 0.0, 0.0, 0.0, 0.0, 0.0, 0.0, 0.0, 1.0, 0.0, 0.0, 0.0, 0.0, 0.0, 0.0, 0.0, 0.0, 0.0, 0.0, 1.0], "bins": [-0.002609691582620144, -0.002507422585040331, -0.002405153587460518, -0.002302884589880705, -0.002200615592300892, -0.002098346594721079, -0.001996077364310622, -0.0018938083667308092, -0.0017915393691509962, -0.0016892703715711832, -0.0015870013739913702, -0.0014847322599962354, -0.0013824632624164224, -0.0012801942648366094, -0.0011779251508414745, -0.0010756561532616615, -0.0009733871556818485, -0.0008711181581020355, -0.0007688491023145616, -0.0006665800465270877, -0.0005643110489472747, -0.0004620420513674617, -0.00035977299557998776, -0.00025750393979251385, -0.00015523494221270084, -5.2965915529057384e-05, 4.930311115458608e-05, 0.00015157213783822954, 0.000253841164521873, 0.000356110162101686, 0.0004583792178891599, 0.0005606482736766338, 0.0006629172712564468, 0.0007651862688362598, 0.0008674553246237338, 0.0009697243804112077, 0.0010719933779910207, 0.0011742623755708337, 0.0012765314895659685, 0.0013788004871457815, 0.0014810694847255945, 0.0015833384823054075, 0.0016856074798852205, 0.0017878765938803554, 0.0018901455914601684, 0.001992414705455303, 0.002094683703035116, 0.002196952700614929, 0.002299221698194742, 0.002401490695774555, 0.002503759693354368, 0.002606028690934181, 0.0027082976885139942, 0.0028105666860938072, 0.002912835916504264, 0.003015104914084077, 0.00311737391166389, 0.003219642909243703, 0.003321911906823516, 0.003424180904403329, 0.0035264501348137856, 0.0036287191323935986, 0.0037309881299734116, 0.0038332571275532246, 0.003935526125133038]}, "gradients/graph_1base.mlp.fc1.0.bias": {"_type": "histogram", "values": [1.0, 0.0, 0.0, 0.0, 0.0, 0.0, 0.0, 0.0, 1.0, 0.0, 0.0, 0.0, 0.0, 1.0, 0.0, 0.0, 0.0, 1.0, 0.0, 0.0, 0.0, 0.0, 1.0, 2.0, 0.0, 0.0, 0.0, 0.0, 1.0, 3.0, 0.0, 1.0, 0.0, 1.0, 2.0, 3.0, 6.0, 14.0, 6.0, 4.0, 1.0, 0.0, 1.0, 1.0, 3.0, 0.0, 0.0, 1.0, 0.0, 0.0, 1.0, 0.0, 1.0, 1.0, 1.0, 2.0, 0.0, 0.0, 0.0, 1.0, 0.0, 1.0, 0.0, 1.0], "bins": [-0.001172671909444034, -0.0011414152104407549, -0.0011101586278527975, -0.0010789019288495183, -0.001047645229846239, -0.0010163885308429599, -0.0009851319482550025, -0.0009538752492517233, -0.0009226185502484441, -0.0008913619094528258, -0.0008601052104495466, -0.0008288485696539283, -0.0007975918706506491, -0.0007663352298550308, -0.0007350785890594125, -0.0007038218900561333, -0.000672565249260515, -0.0006413086084648967, -0.0006100519094616175, -0.0005787952686659992, -0.00054753856966272, -0.0005162819288671017, -0.0004850252589676529, -0.00045376858906820416, -0.0004225119191687554, -0.00039125524926930666, -0.0003599985793698579, -0.00032874190947040915, -0.00029748526867479086, -0.00026622856967151165, -0.00023497192887589335, -0.0002037152589764446, -0.00017245864728465676, -0.000141201977385208, -0.00010994531476171687, -7.868865213822573e-05, -4.743198223877698e-05, -1.617531233932823e-05, 1.5081343008205295e-05, 4.633801290765405e-05, 7.75946828071028e-05, 0.00010885135270655155, 0.0001401080226060003, 0.00017136467795353383, 0.00020262134785298258, 0.00023387801775243133, 0.00026513467309996486, 0.0002963913429994136, 0.00032764801289886236, 0.0003589046827983111, 0.00039016135269775987, 0.00042141799349337816, 0.00045267469249665737, 0.00048393133329227567, 0.000515187974087894, 0.0005464446730911732, 0.0005777013720944524, 0.0006089580128900707, 0.0006402147118933499, 0.0006714713526889682, 0.0007027280516922474, 0.0007339846924878657, 0.000765241333283484, 0.0007964980322867632, 0.0008277546730823815]}, "gradients/graph_1base.mlp.fc1.0.weight": {"_type": "histogram", "values": [1.0, 0.0, 0.0, 0.0, 0.0, 0.0, 0.0, 1.0, 0.0, 0.0, 0.0, 0.0, 0.0, 1.0, 0.0, 0.0, 0.0, 0.0, 0.0, 1.0, 0.0, 0.0, 2.0, 1.0, 2.0, 0.0, 2.0, 0.0, 0.0, 4.0, 2.0, 3.0, 9.0, 25.0, 63.0, 111.0, 309.0, 906.0, 44819.0, 3151.0, 499.0, 157.0, 70.0, 9.0, 8.0, 1.0, 3.0, 2.0, 1.0, 2.0, 2.0, 1.0, 1.0, 0.0, 0.0, 1.0, 0.0, 1.0, 1.0, 0.0, 0.0, 0.0, 1.0, 3.0], "bins": [-0.0182285588234663, -0.017756635323166847, -0.017284713685512543, -0.01681279018521309, -0.016340868547558784, -0.01586894504725933, -0.015397023409605026, -0.014925099909305573, -0.014453177340328693, -0.013981254771351814, -0.013509332202374935, -0.013037409633398056, -0.012565487064421177, -0.012093564495444298, -0.011621640995144844, -0.011149718426167965, -0.010677795857191086, -0.010205873288214207, -0.009733950719237328, -0.009262028150260448, -0.00879010558128357, -0.008318182080984116, -0.007846260443329811, -0.007374336943030357, -0.006902415305376053, -0.006430492736399174, -0.005958570167422295, -0.0054866475984454155, -0.005014724563807249, -0.00454280199483037, -0.004070879425853491, -0.003598956624045968, -0.0031270338222384453, -0.002655111253261566, -0.0021831884514540434, -0.0017112658824771643, -0.0012393431970849633, -0.0007674205116927624, -0.00029549794271588326, 0.00017642485909163952, 0.0006483474280685186, 0.0011202701134607196, 0.0015921927988529205, 0.0020641153678297997, 0.0025360379368066788, 0.0030079607386142015, 0.0034798833075910807, 0.0039518061093986034, 0.0044237286783754826, 0.004895651247352362, 0.005367573816329241, 0.005839496850967407, 0.006311419419944286, 0.0067833419889211655, 0.007255264557898045, 0.007727187126874924, 0.008199109695851803, 0.008671032264828682, 0.009142954833805561, 0.00961487740278244, 0.01008679997175932, 0.010558722540736198, 0.011030646041035652, 0.011502568610012531, 0.01197449117898941]}, "gradients/graph_1base.feature_norm.weight": {"_type": "histogram", "values": [1.0, 0.0, 0.0, 0.0, 0.0, 0.0, 0.0, 0.0, 0.0, 0.0, 0.0, 0.0, 0.0, 0.0, 0.0, 0.0, 0.0, 0.0, 0.0, 0.0, 0.0, 0.0, 0.0, 0.0, 0.0, 1.0, 0.0, 0.0, 0.0, 0.0, 0.0, 0.0, 0.0, 0.0, 0.0, 0.0, 0.0, 0.0, 1.0, 0.0, 0.0, 1.0, 0.0, 0.0, 1.0, 2.0, 2.0, 2.0, 1.0, 6.0, 6.0, 14.0, 48.0, 245.0, 321.0, 93.0, 13.0, 3.0, 6.0, 5.0, 4.0, 4.0, 1.0, 3.0], "bins": [-0.002752779982984066, -0.002701851772144437, -0.0026509237941354513, -0.002599995583295822, -0.002549067372456193, -0.0024981393944472075, -0.0024472111836075783, -0.002396282972767949, -0.0023453549947589636, -0.0022944267839193344, -0.002243498805910349, -0.0021925705950707197, -0.0021416423842310905, -0.002090714406222105, -0.002039786195382476, -0.0019888579845428467, -0.0019379297737032175, -0.0018870016792789102, -0.001836073468439281, -0.0017851453740149736, -0.0017342172795906663, -0.0016832890687510371, -0.0016323609743267298, -0.0015814327634871006, -0.001530504785478115, -0.0014795766910538077, -0.0014286484802141786, -0.0013777203857898712, -0.0013267922913655639, -0.0012758640805259347, -0.0012249359861016273, -0.0011740077752619982, -0.0011230796808376908, -0.0010721515864133835, -0.0010212233755737543, -0.000970295281149447, -0.0009193671285174787, -0.0008684389758855104, -0.0008175108814612031, -0.0007665827288292348, -0.0007156545761972666, -0.0006647264235652983, -0.000613798329140991, -0.0005628701765090227, -0.0005119420238770545, -0.00046101390034891665, -0.00041008577682077885, -0.0003591576241888106, -0.00030822952976450324, -0.00025730140623636544, -0.00020637325360439718, -0.00015544513007625937, -0.00010451699199620634, -5.358885391615331e-05, -2.6607303880155087e-06, 4.826742224395275e-05, 9.919554577209055e-05, 0.00015012368385214359, 0.00020105182193219662, 0.0002519799454603344, 0.0003029080689884722, 0.0003538362216204405, 0.0004047643451485783, 0.00045569249778054655, 0.0005066206213086843]}, "gradients/graph_1base.feature_norm.bias": {"_type": "histogram", "values": [3.0, 0.0, 0.0, 4.0, 2.0, 0.0, 0.0, 3.0, 6.0, 1.0, 1.0, 8.0, 7.0, 18.0, 11.0, 6.0, 9.0, 12.0, 16.0, 20.0, 21.0, 18.0, 28.0, 28.0, 32.0, 41.0, 26.0, 22.0, 31.0, 29.0, 29.0, 26.0, 31.0, 28.0, 21.0, 22.0, 15.0, 28.0, 14.0, 29.0, 14.0, 15.0, 10.0, 16.0, 15.0, 18.0, 7.0, 6.0, 6.0, 3.0, 3.0, 7.0, 2.0, 0.0, 1.0, 2.0, 2.0, 2.0, 1.0, 3.0, 3.0, 0.0, 0.0, 2.0], "bins": [-0.0004244352749083191, -0.0004108051070943475, -0.00039717493928037584, -0.0003835447714664042, -0.00036991460365243256, -0.0003562844358384609, -0.0003426542389206588, -0.00032902410021051764, -0.00031539390329271555, -0.0003017637354787439, -0.00028813356766477227, -0.00027450339985080063, -0.000260873232036829, -0.00024724306422285736, -0.0002336128818569705, -0.00021998271404299885, -0.00020635256078094244, -0.0001927223929669708, -0.00017909222515299916, -0.00016546205733902752, -0.00015183188952505589, -0.00013820172171108425, -0.00012457153934519738, -0.00011094137153122574, -9.73112037172541e-05, -8.368103590328246e-05, -7.005086808931082e-05, -5.642069299938157e-05, -4.279052518540993e-05, -2.9160357371438295e-05, -1.5530182281509042e-05, -1.9000144675374031e-06, 1.1730153346434236e-05, 2.5360322979395278e-05, 3.899049261235632e-05, 5.2620664064306766e-05, 6.62508318782784e-05, 7.988099969225004e-05, 9.35111747821793e-05, 0.00010714134259615093, 0.00012077151041012257, 0.0001344016782240942, 0.00014803184603806585, 0.00016166202840395272, 0.00017529219621792436, 0.000188922364031896, 0.00020255253184586763, 0.00021618269965983927, 0.0002298128674738109, 0.00024344303528778255, 0.0002570732031017542, 0.00027070337091572583, 0.00028433353872969747, 0.0002979637065436691, 0.00031159387435764074, 0.00032522407127544284, 0.000338854209985584, 0.00035248437779955566, 0.0003661145456135273, 0.00037974471342749894, 0.0003933748812414706, 0.0004070050490554422, 0.00042063521686941385, 0.00043426541378721595, 0.0004478955816011876]}, "_wandb": {"runtime": 11812}}